{"type":"LSTM","options":{"inputSize":19,"inputRange":19,"hiddenSizes":[20,20],"outputSize":19,"learningRate":0.01,"decayRate":0.999,"smoothEps":1e-8,"regc":0.000001,"clipval":5,"json":null,"dataFormatter":{"values":["how are you","i am fine","will you go there","i dont know","welcome","hello"],"indexTable":{"h":0,"o":1,"w":2," ":3,"a":4,"r":5,"e":6,"y":7,"u":8,"i":9,"m":10,"f":11,"n":12,"l":13,"g":14,"t":15,"d":16,"k":17,"c":18},"characterTable":{"0":"h","1":"o","2":"w","3":" ","4":"a","5":"r","6":"e","7":"y","8":"u","9":"i","10":"m","11":"f","12":"n","13":"l","14":"g","15":"t","16":"d","17":"k","18":"c"},"characters":["h","o","w"," ","a","r","e","y","u","i","m","f","n","l","g","t","d","k","c"]}},"input":{"rows":20,"columns":19,"weights":{"0":0.2152879685163498,"1":-0.9482913613319397,"2":0.44961854815483093,"3":-0.03151368349790573,"4":0.7240452170372009,"5":-0.5426928400993347,"6":0.4632752239704132,"7":0.3625481426715851,"8":-0.48701080679893494,"9":0.2690194845199585,"10":0.6801025867462158,"11":0.452769935131073,"12":0.5165658593177795,"13":0.9947737455368042,"14":-0.11685238033533096,"15":-0.0012643636437132955,"16":-0.07327671349048615,"17":0.626981794834137,"18":0.4724911153316498,"19":2.176967144012451,"20":-0.05967708304524422,"21":0.31349918246269226,"22":2.250717878341675,"23":0.5538360476493835,"24":-0.4012919068336487,"25":0.12139637768268585,"26":-1.8273882865905762,"27":-2.267751455307007,"28":0.4004373550415039,"29":1.2823469638824463,"30":0.033522527664899826,"31":-0.31994912028312683,"32":-0.10398481041193008,"33":-0.5415563583374023,"34":-3.233898162841797,"35":1.892162799835205,"36":1.254958152770996,"37":-0.7802489399909973,"38":-0.3511204421520233,"39":-1.3308449983596802,"40":1.4676319360733032,"41":-0.339202880859375,"42":0.5179522037506104,"43":0.6679768562316895,"44":1.1618940830230713,"45":0.0485033318400383,"46":0.4282348155975342,"47":-0.33425652980804443,"48":0.7675107717514038,"49":0.9534069299697876,"50":0.41606608033180237,"51":1.0885709524154663,"52":-0.12187107652425766,"53":0.3170681595802307,"54":0.16063325107097626,"55":-0.43202733993530273,"56":-0.606020450592041,"57":-0.4316587746143341,"58":1.4398356676101685,"59":-0.9702761769294739,"60":0.7218489646911621,"61":-1.6001756191253662,"62":-2.053776264190674,"63":-1.3230701684951782,"64":-1.7244036197662354,"65":-0.22508390247821808,"66":1.9417948722839355,"67":2.064117193222046,"68":1.3165593147277832,"69":2.1786980628967285,"70":-1.4960001707077026,"71":-1.4777114391326904,"72":-1.156224012374878,"73":1.0301408767700195,"74":0.6973235011100769,"75":1.2870583534240723,"76":-2.921581506729126,"77":-2.0535848140716553,"78":-2.196197748184204,"79":-0.654731810092926,"80":1.6818655729293823,"81":0.2801379859447479,"82":3.5825884342193604,"83":0.2812751829624176,"84":0.07826966047286987,"85":-2.407191753387451,"86":0.5859674215316772,"87":0.8775231242179871,"88":-0.8321316838264465,"89":2.041567325592041,"90":-0.9686465859413147,"91":-0.07172118127346039,"92":-0.8812560439109802,"93":5.095438003540039,"94":-1.5055310726165771,"95":-2.3890230655670166,"96":-0.31269052624702454,"97":2.574336051940918,"98":-1.6890674829483032,"99":-0.31536537408828735,"100":-1.6992906332015991,"101":0.05811247602105141,"102":0.9280704259872437,"103":1.3824526071548462,"104":0.9470762014389038,"105":0.5218267440795898,"106":-0.26839500665664673,"107":1.9169247150421143,"108":0.766209602355957,"109":0.1417696475982666,"110":1.1735024452209473,"111":-1.501096487045288,"112":-1.4739264249801636,"113":0.3566545844078064,"114":0.5713545680046082,"115":1.7318936586380005,"116":-0.27706748247146606,"117":2.4290852546691895,"118":-2.1794276237487793,"119":-2.101627826690674,"120":-1.4717743396759033,"121":-1.8202110528945923,"122":-1.8343958854675293,"123":1.8832523822784424,"124":0.2656185030937195,"125":-0.30314165353775024,"126":1.408814787864685,"127":-2.963926315307617,"128":-1.1899924278259277,"129":-1.5372443199157715,"130":0.7688176035881042,"131":1.338865041732788,"132":1.756678581237793,"133":0.6342778205871582,"134":0.4195246994495392,"135":-0.4578714966773987,"136":0.535139262676239,"137":-0.4575450122356415,"138":-0.4338666796684265,"139":-0.5300562381744385,"140":-0.4596014618873596,"141":-0.5422866940498352,"142":0.6711778044700623,"143":0.3358666002750397,"144":-0.13581587374210358,"145":0.26044365763664246,"146":-0.5077566504478455,"147":-0.49993449449539185,"148":-0.48772159218788147,"149":0.36902081966400146,"150":0.6691698431968689,"151":0.3791010081768036,"152":1.1561325788497925,"153":-2.245762348175049,"154":0.4232116639614105,"155":1.7248483896255493,"156":2.3601882457733154,"157":0.1766410768032074,"158":2.5764191150665283,"159":-1.0319074392318726,"160":-0.9217369556427002,"161":0.8750729560852051,"162":0.3289355933666229,"163":-0.04362911358475685,"164":0.124008409678936,"165":-0.20584405958652496,"166":-0.35863634943962097,"167":-1.3786064386367798,"168":0.8614041805267334,"169":0.4810206890106201,"170":-3.1181013584136963,"171":-0.41352593898773193,"172":2.976170301437378,"173":-1.3936259746551514,"174":-1.290873408317566,"175":-1.266098141670227,"176":2.0679078102111816,"177":-2.699920654296875,"178":1.2969541549682617,"179":1.5835577249526978,"180":-1.8571510314941406,"181":-2.654367446899414,"182":-1.0527644157409668,"183":-1.3188976049423218,"184":-2.8617608547210693,"185":1.9018325805664062,"186":1.7036057710647583,"187":-0.8291224241256714,"188":-1.6777416467666626,"189":1.9901690483093262,"190":-2.8529984951019287,"191":-2.6577720642089844,"192":-0.026166915893554688,"193":-0.36599045991897583,"194":0.7495599389076233,"195":1.6525660753250122,"196":2.8774890899658203,"197":-0.46480995416641235,"198":-0.5358679890632629,"199":-3.099025011062622,"200":1.186864972114563,"201":1.8862274885177612,"202":-1.4513274431228638,"203":0.8674012422561646,"204":-1.4113383293151855,"205":-0.8449949622154236,"206":-0.00776860024780035,"207":3.7940757274627686,"208":-0.4199994206428528,"209":1.204390287399292,"210":2.1515252590179443,"211":-1.7265053987503052,"212":1.5510627031326294,"213":-2.3736274242401123,"214":-0.1272277683019638,"215":-2.340643882751465,"216":-1.6530228853225708,"217":-1.4243807792663574,"218":0.6268418431282043,"219":-0.0913420096039772,"220":0.5679900646209717,"221":0.5004714727401733,"222":-2.802490472793579,"223":-0.9220990538597107,"224":-1.2749311923980713,"225":1.962306022644043,"226":1.1060949563980103,"227":2.23842716217041,"228":-0.18994960188865662,"229":-0.24991431832313538,"230":0.23074929416179657,"231":1.0640047788619995,"232":-0.3774912655353546,"233":-1.1393896341323853,"234":-0.047734152525663376,"235":-2.317105293273926,"236":0.13011132180690765,"237":1.9104976654052734,"238":1.9658782482147217,"239":3.3487095832824707,"240":2.5595288276672363,"241":2.822347402572632,"242":-2.4172987937927246,"243":0.2019626647233963,"244":2.2922255992889404,"245":1.5868967771530151,"246":0.4926135838031769,"247":1.6628000736236572,"248":0.6604338884353638,"249":-1.0165936946868896,"250":1.4051144123077393,"251":-0.7173755764961243,"252":-1.490251064300537,"253":-0.8200098276138306,"254":-1.8684685230255127,"255":-1.8071852922439575,"256":1.1311089992523193,"257":2.372150182723999,"258":0.3721543252468109,"259":0.9089832901954651,"260":-1.2894842624664307,"261":-1.4549397230148315,"262":-1.5525389909744263,"263":1.3935487270355225,"264":3.6243090629577637,"265":0.5560789108276367,"266":-0.4902253746986389,"267":1.5929919481277466,"268":-0.7237961888313293,"269":-0.7142673134803772,"270":-1.5382901430130005,"271":0.4844353497028351,"272":-1.6103631258010864,"273":0.6328231692314148,"274":0.6103945374488831,"275":-0.46892452239990234,"276":-0.47039976716041565,"277":-0.26398715376853943,"278":-0.08485610783100128,"279":-0.9676369428634644,"280":0.6924431920051575,"281":0.7663589715957642,"282":-0.4706519544124603,"283":-0.4687784016132355,"284":1.8315519094467163,"285":1.7562669515609741,"286":-1.3831934928894043,"287":-2.1985666751861572,"288":-1.2239224910736084,"289":1.9942399263381958,"290":4.2704758644104,"291":1.26043701171875,"292":2.6989212036132812,"293":1.598608136177063,"294":-4.526523113250732,"295":-2.6801629066467285,"296":-2.651843309402466,"297":-5.471930503845215,"298":0.8768700957298279,"299":4.185436248779297,"300":2.410123825073242,"301":-1.0967986583709717,"302":-1.4806336164474487,"303":-1.482305884361267,"304":0.7687267661094666,"305":-1.2329795360565186,"306":1.1636213064193726,"307":0.8045982122421265,"308":1.1672993898391724,"309":-0.714111328125,"310":1.1983569860458374,"311":-1.8415040969848633,"312":-0.3059576749801636,"313":0.9739736318588257,"314":2.035245180130005,"315":3.056673526763916,"316":2.8484151363372803,"317":1.4027899503707886,"318":-1.0721949338912964,"319":-0.39935508370399475,"320":2.5824825763702393,"321":0.13245999813079834,"322":-1.2511881589889526,"323":1.9189568758010864,"324":-2.2528491020202637,"325":2.4541666507720947,"326":1.37783682346344,"327":2.871786594390869,"328":-0.19303515553474426,"329":2.360105037689209,"330":-1.234108805656433,"331":-0.9164630770683289,"332":0.9656091928482056,"333":-0.7899613976478577,"334":0.17829018831253052,"335":0.3494880199432373,"336":2.011392593383789,"337":-0.6978705525398254,"338":-1.3958911895751953,"339":1.1376209259033203,"340":-0.18376123905181885,"341":-2.876376152038574,"342":0.6810154914855957,"343":-2.173638343811035,"344":2.346691846847534,"345":0.8338400721549988,"346":1.8247199058532715,"347":-0.8214489221572876,"348":2.1225109100341797,"349":-0.9179103374481201,"350":-0.7852305769920349,"351":1.2177993059158325,"352":2.561504602432251,"353":1.1581975221633911,"354":1.3385576009750366,"355":1.6080127954483032,"356":-1.2630925178527832,"357":-1.1297193765640259,"358":0.6809383034706116,"359":0.0967559888958931,"360":-2.1023237705230713,"361":2.0901434421539307,"362":0.6616824269294739,"363":-0.24859198927879333,"364":2.0051658153533936,"365":-0.4173327088356018,"366":-0.5823305249214172,"367":-0.7734426856040955,"368":-1.649160623550415,"369":-1.3672276735305786,"370":1.2999985218048096,"371":1.6501147747039795,"372":1.8528039455413818,"373":0.610826849937439,"374":-0.7202265858650208,"375":-0.9904313087463379,"376":-1.0097695589065552,"377":2.0810344219207764,"378":1.42918062210083,"379":0.050127387046813965}},"hiddenLayers":[{"inputMatrix":{"rows":20,"columns":19,"weights":{"0":-0.7110549807548523,"1":0.7629192471504211,"2":-0.7096041440963745,"3":-0.6675093770027161,"4":-0.8322941064834595,"5":-0.3301653265953064,"6":-0.8318589925765991,"7":0.7150100469589233,"8":0.5921759009361267,"9":0.07688868790864944,"10":-1.1568816900253296,"11":-1.1681625843048096,"12":-0.15306375920772552,"13":-0.6733738780021667,"14":0.5624833703041077,"15":0.8128463625907898,"16":-0.8723509907722473,"17":-0.7977628707885742,"18":0.9520437717437744,"19":-1.2239465713500977,"20":0.3044446110725403,"21":-0.0786176398396492,"22":-1.3882951736450195,"23":-0.6073012948036194,"24":-0.07266578823328018,"25":-0.444317102432251,"26":1.3071728944778442,"27":1.021043300628662,"28":-0.1863437294960022,"29":-0.5662460327148438,"30":-0.5139882564544678,"31":-0.12974317371845245,"32":0.049607597291469574,"33":0.5919178128242493,"34":1.18501615524292,"35":-1.447745680809021,"36":-1.2126253843307495,"37":0.7100176811218262,"38":0.20960697531700134,"39":0.7284250855445862,"40":-1.4153180122375488,"41":-0.38968098163604736,"42":-0.5486520528793335,"43":0.4654696583747864,"44":-0.6872650980949402,"45":0.48339420557022095,"46":0.1837632805109024,"47":-0.6443318128585815,"48":-0.3494754433631897,"49":-0.24661563336849213,"50":-0.4971824288368225,"51":-0.4474531412124634,"52":0.37253549695014954,"53":0.440203458070755,"54":-0.30743885040283203,"55":-0.09261438995599747,"56":0.7579004168510437,"57":0.8627557754516602,"58":-0.12686406075954437,"59":0.1569218784570694,"60":1.6209843158721924,"61":0.7421464323997498,"62":0.09706058353185654,"63":0.24386708438396454,"64":-1.3006709814071655,"65":-1.2428350448608398,"66":-0.04690244421362877,"67":-0.10894231498241425,"68":0.48239007592201233,"69":0.0395582877099514,"70":-0.17262333631515503,"71":-0.5501657724380493,"72":-1.3616943359375,"73":1.2865232229232788,"74":1.4677237272262573,"75":-0.8366221189498901,"76":-0.7313192486763,"77":0.79490727186203,"78":-0.5976922512054443,"79":-0.982265055179596,"80":-0.7717052698135376,"81":-0.6221230030059814,"82":-0.8469763398170471,"83":0.6528894305229187,"84":0.47961023449897766,"85":0.28244975209236145,"86":-0.4300057291984558,"87":-0.5413159728050232,"88":0.2526235580444336,"89":-0.45962220430374146,"90":-0.12706151604652405,"91":0.6913672685623169,"92":-0.9307107329368591,"93":-0.6644004583358765,"94":0.8413985371589661,"95":0.015718121081590652,"96":0.442535936832428,"97":-1.0467166900634766,"98":-0.22663792967796326,"99":-0.7827240228652954,"100":1.456602692604065,"101":-0.5544670820236206,"102":0.2655891180038452,"103":0.28386321663856506,"104":-1.0224568843841553,"105":-1.1528189182281494,"106":-0.2516982853412628,"107":-0.9405841827392578,"108":-0.5534650087356567,"109":0.5398038029670715,"110":0.45249584317207336,"111":-0.07820896059274673,"112":-0.4519692659378052,"113":0.813890814781189,"114":-0.30334699153900146,"115":1.0634323358535767,"116":-0.25990229845046997,"117":-0.05520603060722351,"118":-0.9285975694656372,"119":-0.27886709570884705,"120":-0.9465538263320923,"121":-0.21782413125038147,"122":-0.05702409893274307,"123":0.22915613651275635,"124":0.11875046044588089,"125":0.2422536164522171,"126":0.31396809220314026,"127":-0.9597305655479431,"128":-0.2042115181684494,"129":-0.17372719943523407,"130":-0.043634116649627686,"131":0.06289474666118622,"132":0.8322398066520691,"133":0.324380099773407,"134":-1.44515061378479,"135":0.9621574878692627,"136":-0.042752817273139954,"137":1.4662585258483887,"138":0.21781431138515472,"139":1.3084485530853271,"140":0.3125394284725189,"141":-0.19778774678707123,"142":-0.2403433620929718,"143":-0.052576154470443726,"144":-0.12239201366901398,"145":-0.5391167402267456,"146":1.0798269510269165,"147":0.3921045958995819,"148":0.015100902877748013,"149":-0.14672459661960602,"150":0.10273159295320511,"151":-1.091044306755066,"152":0.12124267965555191,"153":-0.003782315645366907,"154":-0.6848531365394592,"155":-0.4740346372127533,"156":-0.0992230623960495,"157":0.6766716241836548,"158":-0.05330910161137581,"159":0.7975390553474426,"160":0.4764654040336609,"161":-0.7631281018257141,"162":-0.7951852679252625,"163":-0.661737322807312,"164":-0.9601356983184814,"165":0.13483330607414246,"166":0.8308485150337219,"167":0.6517715454101562,"168":-0.5723574757575989,"169":-0.6419004201889038,"170":0.07073637843132019,"171":-0.14049787819385529,"172":1.1366634368896484,"173":-0.927640974521637,"174":-0.09516558051109314,"175":-1.0583676099777222,"176":1.1718182563781738,"177":-0.9756450057029724,"178":0.26079806685447693,"179":0.17646977305412292,"180":-0.8326235413551331,"181":-1.500687599182129,"182":-0.47283896803855896,"183":-0.7996018528938293,"184":-1.0786901712417603,"185":0.7300853729248047,"186":0.2054670751094818,"187":-0.08361944556236267,"188":-0.5368842482566833,"189":1.1057894229888916,"190":0.4482662081718445,"191":1.6990060806274414,"192":-1.8116507530212402,"193":0.5160172581672668,"194":-1.4607505798339844,"195":-0.3365519344806671,"196":-1.6433855295181274,"197":-0.44856491684913635,"198":-0.6030546426773071,"199":0.0028708395548164845,"200":0.12467597424983978,"201":-0.22233140468597412,"202":0.09660724550485611,"203":-2.405367136001587,"204":-0.07197356224060059,"205":-0.9602715969085693,"206":0.4763469398021698,"207":0.15383312106132507,"208":0.7769376635551453,"209":-1.249777913093567,"210":0.07507692277431488,"211":-0.07307881861925125,"212":-1.3515771627426147,"213":-0.31979048252105713,"214":0.15343597531318665,"215":-0.07524999231100082,"216":1.2102633714675903,"217":1.1703258752822876,"218":-0.5729879140853882,"219":-0.55974942445755,"220":-0.5928789973258972,"221":-0.30148977041244507,"222":0.11577574163675308,"223":0.6011303663253784,"224":1.1838164329528809,"225":-1.2762387990951538,"226":-1.0694904327392578,"227":0.24266597628593445,"228":0.4705547094345093,"229":1.0610203742980957,"230":-1.4734554290771484,"231":0.593579888343811,"232":-1.6106055974960327,"233":-0.08153519779443741,"234":-1.046167016029358,"235":-0.9553999304771423,"236":-0.3618409037590027,"237":0.1208847239613533,"238":0.3108721971511841,"239":0.5741372108459473,"240":0.22706417739391327,"241":-1.1548094749450684,"242":-0.45837461948394775,"243":-0.6299751400947571,"244":0.9289310574531555,"245":0.43281251192092896,"246":0.659899890422821,"247":-1.511284351348877,"248":-0.03099941276013851,"249":0.07598773390054703,"250":-1.260329246520996,"251":-0.19284158945083618,"252":0.31124937534332275,"253":-0.05281340330839157,"254":1.135324478149414,"255":1.069317102432251,"256":-0.8733278512954712,"257":-0.6307171583175659,"258":-0.5601140260696411,"259":-0.5930165648460388,"260":-0.008731557987630367,"261":0.5095466375350952,"262":1.1649786233901978,"263":-1.2996705770492554,"264":-0.9368953108787537,"265":0.198630690574646,"266":0.15509863197803497,"267":0.017897438257932663,"268":-0.06650234013795853,"269":0.5794872641563416,"270":-0.3092275559902191,"271":-0.7536298632621765,"272":0.11652251332998276,"273":-0.6040614247322083,"274":-0.6989192366600037,"275":0.7161031365394592,"276":0.5882368683815002,"277":0.378833144903183,"278":0.6215426325798035,"279":-0.19499361515045166,"280":-0.703213095664978,"281":-0.7807804942131042,"282":0.4631041884422302,"283":0.8112237453460693,"284":0.0004370927927084267,"285":1.120441198348999,"286":0.40928369760513306,"287":-1.3098492622375488,"288":0.20051787793636322,"289":0.12353989481925964,"290":0.7574710845947266,"291":-0.48997408151626587,"292":0.058500584214925766,"293":-0.03872634097933769,"294":-0.47537392377853394,"295":-0.7722688913345337,"296":-0.05039428547024727,"297":-0.6428086757659912,"298":-0.5505194067955017,"299":0.5476441383361816,"300":0.22232313454151154,"301":0.5179988145828247,"302":-0.014870250597596169,"303":0.016470452770590782,"304":0.5009258389472961,"305":0.1747322976589203,"306":-1.2730361223220825,"307":0.19544677436351776,"308":-0.04955399036407471,"309":0.31309956312179565,"310":-0.11665690690279007,"311":0.10365966707468033,"312":-0.00287629128433764,"313":-0.33769384026527405,"314":-0.9267902970314026,"315":-0.5545688271522522,"316":-0.7077744007110596,"317":-0.424775093793869,"318":0.2641821801662445,"319":-0.02252313680946827,"320":0.09341901540756226,"321":0.10566511750221252,"322":-0.04647400602698326,"323":0.2632554769515991,"324":-0.49982333183288574,"325":0.10453735291957855,"326":0.47466155886650085,"327":1.0431007146835327,"328":0.8285385966300964,"329":0.8218469619750977,"330":-0.3171042501926422,"331":-0.255297988653183,"332":-0.8428577184677124,"333":-1.1199214458465576,"334":-1.1591418981552124,"335":-2.084522008895874,"336":0.15874817967414856,"337":0.45235443115234375,"338":-0.6074104905128479,"339":-0.10154116898775101,"340":0.3110031187534332,"341":-1.3781509399414062,"342":0.07629518955945969,"343":1.2071913480758667,"344":-0.40309759974479675,"345":0.338328093290329,"346":-1.1486104726791382,"347":-0.2408141940832138,"348":-1.150904893875122,"349":-0.6035966277122498,"350":-0.3054784834384918,"351":0.3238925039768219,"352":0.5795422196388245,"353":0.13002704083919525,"354":0.40390291810035706,"355":-1.2164137363433838,"356":-0.3831518888473511,"357":-0.5713498592376709,"358":0.3618953824043274,"359":0.27842071652412415,"360":0.8328133821487427,"361":0.5814676284790039,"362":0.13534165918827057,"363":-0.36493366956710815,"364":0.8635528087615967,"365":-0.16616928577423096,"366":-0.8239610195159912,"367":-0.2478996217250824,"368":-0.8381010293960571,"369":-0.8250689506530762,"370":0.9294801354408264,"371":0.6250641345977783,"372":0.5899072885513306,"373":0.5801897644996643,"374":-0.1587582230567932,"375":-0.8717386722564697,"376":-0.8224391341209412,"377":0.7022961974143982,"378":0.9140419363975525,"379":0.009271683171391487}},"inputHidden":{"rows":20,"columns":20,"weights":{"0":-0.6378805041313171,"1":0.18461042642593384,"2":-0.28463929891586304,"3":0.6002516150474548,"4":0.13877734541893005,"5":-0.2108987718820572,"6":0.3983953893184662,"7":0.04196130111813545,"8":0.11342798173427582,"9":-0.14251084625720978,"10":0.33618149161338806,"11":-0.1020110547542572,"12":-0.5051987767219543,"13":-0.21738463640213013,"14":0.6891898512840271,"15":0.6417151093482971,"16":0.6340132355690002,"17":0.1330396980047226,"18":-0.5560399889945984,"19":-0.5798933506011963,"20":-0.3183848261833191,"21":-0.06762995570898056,"22":0.2753811776638031,"23":-0.23227457702159882,"24":-0.2120189517736435,"25":-0.000442307471530512,"26":0.15232427418231964,"27":-0.953075110912323,"28":-0.6398018002510071,"29":-0.29109951853752136,"30":-0.47993654012680054,"31":0.21628040075302124,"32":0.24836121499538422,"33":0.15740332007408142,"34":0.6055129766464233,"35":-0.30546194314956665,"36":-0.05105580389499664,"37":-0.4131517708301544,"38":-0.04073873534798622,"39":-0.19416093826293945,"40":0.044295746833086014,"41":-0.4623779356479645,"42":-0.13472431898117065,"43":0.668926477432251,"44":-0.6432918906211853,"45":-0.18317155539989471,"46":-1.592359185218811,"47":-1.7122024297714233,"48":0.2487250417470932,"49":-0.030835241079330444,"50":-0.025233939290046692,"51":0.34508371353149414,"52":0.052951376885175705,"53":0.4807395040988922,"54":-2.0325276851654053,"55":-0.21854017674922943,"56":-0.7394402027130127,"57":-0.807519793510437,"58":1.1848112344741821,"59":1.9247431755065918,"60":-0.15617094933986664,"61":-0.03695669397711754,"62":-0.5235916972160339,"63":0.27754703164100647,"64":-0.04646033048629761,"65":-0.13118551671504974,"66":-0.6192230582237244,"67":0.4780771732330322,"68":0.37431979179382324,"69":0.40817999839782715,"70":0.30910351872444153,"71":-0.013197867199778557,"72":0.05916525796055794,"73":-0.052354440093040466,"74":-0.733946681022644,"75":0.1914619356393814,"76":-0.3672228753566742,"77":0.07287818938493729,"78":0.5334192514419556,"79":0.7636390328407288,"80":-0.09353632479906082,"81":-0.417716383934021,"82":0.5195351839065552,"83":0.12138068675994873,"84":-0.5677319169044495,"85":0.27151137590408325,"86":0.3466978371143341,"87":-1.225002408027649,"88":-0.6725484728813171,"89":-0.41353532671928406,"90":-0.36956027150154114,"91":0.43398550152778625,"92":0.12153998762369156,"93":0.646805465221405,"94":0.8364506959915161,"95":-0.16374216973781586,"96":0.12424357980489731,"97":-0.4004511833190918,"98":-0.17302782833576202,"99":-0.609581470489502,"100":0.2491067349910736,"101":-0.09166991710662842,"102":0.15997207164764404,"103":-0.1623101830482483,"104":-0.20171667635440826,"105":1.4217414855957031,"106":-1.344675064086914,"107":2.6994848251342773,"108":-0.4194174110889435,"109":1.1718688011169434,"110":-0.8589617013931274,"111":0.01462955679744482,"112":0.564540684223175,"113":0.0010858691530302167,"114":-1.504624843597412,"115":-0.5163970589637756,"116":-0.8536704182624817,"117":0.1011476218700409,"118":1.2646392583847046,"119":1.6016136407852173,"120":0.38938984274864197,"121":-0.1482982635498047,"122":-0.12205201387405396,"123":0.30554139614105225,"124":-0.2619251012802124,"125":0.11042781919240952,"126":-0.014667403884232044,"127":1.8087592124938965,"128":0.21099473536014557,"129":0.5314416885375977,"130":0.42408713698387146,"131":0.03186412900686264,"132":-0.37663063406944275,"133":0.03783478960394859,"134":-0.23271121084690094,"135":-0.15193088352680206,"136":-0.30869370698928833,"137":0.8079680800437927,"138":-0.3419276177883148,"139":0.1702970415353775,"140":-1.1086927652359009,"141":0.7113185524940491,"142":-1.0724762678146362,"143":0.9173957109451294,"144":0.6583725810050964,"145":-1.3882805109024048,"146":0.26950207352638245,"147":-0.573032557964325,"148":0.7660495042800903,"149":-0.9160004258155823,"150":0.4811978042125702,"151":-0.6743714213371277,"152":-0.7361248731613159,"153":-0.6786181330680847,"154":-0.6572527289390564,"155":-0.8126310706138611,"156":-0.5881713628768921,"157":-0.47178301215171814,"158":0.8869441151618958,"159":0.9615603685379028,"160":-0.033224284648895264,"161":-0.3856878876686096,"162":0.07875440269708633,"163":0.9002712368965149,"164":-0.41624218225479126,"165":0.1170259341597557,"166":-0.3418716788291931,"167":0.11025790870189667,"168":-0.012522444128990173,"169":0.20947039127349854,"170":0.2788061499595642,"171":0.3331332504749298,"172":-0.7664940357208252,"173":0.3821917474269867,"174":-0.29417890310287476,"175":-0.3348350524902344,"176":-0.6458205580711365,"177":-0.09399974346160889,"178":0.3702114224433899,"179":0.4715538024902344,"180":-0.2554333209991455,"181":0.18127411603927612,"182":0.04100996255874634,"183":0.6583886742591858,"184":0.9513394832611084,"185":1.227076530456543,"186":-0.42616596817970276,"187":2.5524439811706543,"188":-0.35851651430130005,"189":0.8208016157150269,"190":0.49393272399902344,"191":-0.19925948977470398,"192":-0.6909359693527222,"193":-0.10618597269058228,"194":-0.6377478837966919,"195":-0.026729878038167953,"196":-0.5910968780517578,"197":0.3134884238243103,"198":0.131225124001503,"199":0.7213093042373657,"200":-0.011960814706981182,"201":0.03219731152057648,"202":-0.5145056247711182,"203":-0.12797288596630096,"204":0.03471984714269638,"205":0.11874324083328247,"206":-0.17154768109321594,"207":0.5841521620750427,"208":0.5365121364593506,"209":0.038249943405389786,"210":0.49588701128959656,"211":-0.04557594656944275,"212":-0.22694365680217743,"213":-0.021781213581562042,"214":-0.4908263683319092,"215":0.39093413949012756,"216":-0.9412822127342224,"217":0.5291720628738403,"218":0.32092708349227905,"219":0.5991684198379517,"220":-0.1781415343284607,"221":0.21909746527671814,"222":0.04830396920442581,"223":-0.057965029031038284,"224":0.21672776341438293,"225":-0.3562304675579071,"226":0.07405390590429306,"227":-0.552462100982666,"228":-0.2623193562030792,"229":-0.6065524816513062,"230":-0.15596292912960052,"231":-0.24341091513633728,"232":0.0002689046668820083,"233":-0.23416855931282043,"234":0.20962421596050262,"235":0.19991435110569,"236":0.06425508856773376,"237":0.10995403677225113,"238":-0.280674546957016,"239":-0.1181899905204773,"240":-0.6083477735519409,"241":0.3459733724594116,"242":-1.1310490369796753,"243":0.5567874908447266,"244":0.5194171667098999,"245":-1.3215298652648926,"246":0.18440623581409454,"247":0.9723095297813416,"248":1.0404016971588135,"249":-1.7333656549453735,"250":0.8115854859352112,"251":-0.4681372344493866,"252":-0.7700979709625244,"253":-0.36914247274398804,"254":-0.019062791019678116,"255":0.4088555574417114,"256":-0.9232110381126404,"257":0.4433369040489197,"258":-0.34558987617492676,"259":0.14543823897838593,"260":0.08551730960607529,"261":0.4879629611968994,"262":0.025168607011437416,"263":-0.06795693188905716,"264":0.38593900203704834,"265":-0.7714084982872009,"266":0.07514572888612747,"267":-1.0522671937942505,"268":-0.08109152317047119,"269":-1.2539606094360352,"270":-0.5121238231658936,"271":-0.33513668179512024,"272":0.5534361004829407,"273":-0.3976471722126007,"274":-0.403662770986557,"275":-0.08736124634742737,"276":-0.21000269055366516,"277":-0.2577444911003113,"278":-0.007839906960725784,"279":0.5236408114433289,"280":0.47326895594596863,"281":-0.5788885951042175,"282":0.0008593577658757567,"283":0.39431843161582947,"284":-0.47353625297546387,"285":0.2087385207414627,"286":-0.22638563811779022,"287":0.6617532968521118,"288":0.2678135633468628,"289":0.2918381989002228,"290":0.028451882302761078,"291":0.45261839032173157,"292":-0.017400050535798073,"293":0.50136399269104,"294":-0.5481880307197571,"295":0.07752339541912079,"296":-0.22900256514549255,"297":0.1215650662779808,"298":0.5985899567604065,"299":0.436357319355011,"300":0.41561201214790344,"301":-0.7739417552947998,"302":1.0203614234924316,"303":1.1803034543991089,"304":-0.6329975128173828,"305":0.30319181084632874,"306":0.040955543518066406,"307":0.8753573298454285,"308":-0.8137193322181702,"309":0.5531353950500488,"310":0.029181642457842827,"311":0.5643787384033203,"312":-0.5127435922622681,"313":0.5154150724411011,"314":1.8006352186203003,"315":-0.33168157935142517,"316":0.28984367847442627,"317":0.6651407480239868,"318":-1.2810935974121094,"319":-1.837629795074463,"320":-0.9729301929473877,"321":0.35663506388664246,"322":-0.6448866724967957,"323":0.9063921570777893,"324":0.3729310929775238,"325":-1.3776413202285767,"326":0.3776286244392395,"327":0.8845064640045166,"328":0.9752570986747742,"329":-0.9877506494522095,"330":1.1791311502456665,"331":-0.43341100215911865,"332":-1.7803266048431396,"333":-0.3819167912006378,"334":0.7594272494316101,"335":0.6931937336921692,"336":0.555871307849884,"337":0.7392656803131104,"338":-0.8403652906417847,"339":-1.3247957229614258,"340":0.8437923789024353,"341":-1.7580273151397705,"342":0.5172352194786072,"343":0.022015798836946487,"344":-1.783674955368042,"345":-0.08302327245473862,"346":0.5604819059371948,"347":1.1756868362426758,"348":-0.3684272766113281,"349":0.13427644968032837,"350":1.570491909980774,"351":1.8372291326522827,"352":-0.5909214019775391,"353":1.912919282913208,"354":0.7921034097671509,"355":0.21551015973091125,"356":0.7122775912284851,"357":1.1578680276870728,"358":-0.9458974003791809,"359":-0.5587369799613953,"360":0.5633705854415894,"361":-0.24447031319141388,"362":0.024380020797252655,"363":-0.5093801617622375,"364":-0.3734292984008789,"365":-0.26250383257865906,"366":-0.2095327526330948,"367":1.4107087850570679,"368":0.08625949174165726,"369":0.6845186352729797,"370":-0.26992350816726685,"371":0.18661172688007355,"372":-0.21783053874969482,"373":0.27702710032463074,"374":-0.19334490597248077,"375":-0.042898453772068024,"376":-0.23536638915538788,"377":1.5731959342956543,"378":-0.30270686745643616,"379":-0.17470648884773254,"380":0.32783833146095276,"381":-0.4225649833679199,"382":-0.2235310971736908,"383":0.4326150119304657,"384":-0.6113038659095764,"385":-0.1774829626083374,"386":-0.23219746351242065,"387":1.1375998258590698,"388":0.16176985204219818,"389":0.5271164774894714,"390":0.1045529916882515,"391":0.4557574391365051,"392":0.12799495458602905,"393":0.4958798885345459,"394":-0.19924554228782654,"395":-0.014386950992047787,"396":-0.4167052209377289,"397":0.6353641152381897,"398":0.08351433277130127,"399":0.2704218029975891}},"inputBias":{"rows":20,"columns":1,"weights":{"0":-0.159620463848114,"1":-0.5871480107307434,"2":-0.2109895944595337,"3":0.11179890483617783,"4":-0.013809574767947197,"5":-0.4459245204925537,"6":-1.0394797325134277,"7":1.079280972480774,"8":-0.4935828149318695,"9":-0.7666975855827332,"10":-1.5146849155426025,"11":-0.5993087887763977,"12":-2.8043060302734375,"13":-0.5704312920570374,"14":-0.5510090589523315,"15":-0.23523899912834167,"16":-0.7510878443717957,"17":-1.702803611755371,"18":-0.8554983139038086,"19":-0.8096299767494202}},"forgetMatrix":{"rows":20,"columns":19,"weights":{"0":0.2329135239124298,"1":-0.8744401335716248,"2":0.6040180325508118,"3":0.5736343860626221,"4":0.8069648146629333,"5":-0.01666751503944397,"6":0.9092317223548889,"7":-0.674735963344574,"8":-0.3355534076690674,"9":0.025377558544278145,"10":0.6306006908416748,"11":0.5005168318748474,"12":0.30133548378944397,"13":0.6068848967552185,"14":-0.323180615901947,"15":-0.5135564208030701,"16":0.7083612680435181,"17":0.39567461609840393,"18":-0.8651266694068909,"19":-0.3828047513961792,"20":-0.48122653365135193,"21":0.14849436283111572,"22":0.6103227734565735,"23":0.3163284659385681,"24":-0.30581238865852356,"25":0.4656742215156555,"26":-0.7205288410186768,"27":-0.5862764120101929,"28":0.21567028760910034,"29":0.10600576549768448,"30":-0.10475287586450577,"31":-0.08544482290744781,"32":0.3117498755455017,"33":-0.12224873155355453,"34":-0.550997257232666,"35":0.33428528904914856,"36":0.4748893976211548,"37":-0.27232784032821655,"38":0.3613068163394928,"39":-0.6148110032081604,"40":0.0916534960269928,"41":0.7365705370903015,"42":0.7587050199508667,"43":0.12164773792028427,"44":0.6662360429763794,"45":-0.4735015630722046,"46":-0.7307659387588501,"47":-0.5965901017189026,"48":-1.0980451107025146,"49":-0.5975464582443237,"50":-0.9782853722572327,"51":0.07326769828796387,"52":0.4423186182975769,"53":-0.8456621170043945,"54":-0.18287266790866852,"55":0.7845131158828735,"56":-0.8175138235092163,"57":1.254742980003357,"58":-0.8362442851066589,"59":0.9655526876449585,"60":0.9163798689842224,"61":0.3613206744194031,"62":-0.18642711639404297,"63":0.639702558517456,"64":-0.7928645014762878,"65":-0.5685094594955444,"66":0.24280203878879547,"67":0.03143699839711189,"68":0.4767119884490967,"69":0.24564793705940247,"70":0.5496793389320374,"71":-0.17274247109889984,"72":-0.9579286575317383,"73":1.3665246963500977,"74":-0.11713404208421707,"75":-0.5940591096878052,"76":-0.094741590321064,"77":-0.5620856285095215,"78":0.4270284175872803,"79":0.3003257215023041,"80":0.2768188714981079,"81":-1.0963352918624878,"82":0.45237860083580017,"83":-0.3358701765537262,"84":-0.10508185625076294,"85":0.9155046343803406,"86":0.8442883491516113,"87":0.39007559418678284,"88":0.6989052891731262,"89":0.42086127400398254,"90":-0.6481022238731384,"91":-0.09530307352542877,"92":0.26728540658950806,"93":0.28516966104507446,"94":-0.3168514370918274,"95":0.9723160862922668,"96":0.5287215113639832,"97":-0.640816867351532,"98":0.718279242515564,"99":-0.3531010150909424,"100":-0.8032140135765076,"101":-0.4956570863723755,"102":-0.572186291217804,"103":-0.7033862471580505,"104":1.0120168924331665,"105":0.22527508437633514,"106":0.47971951961517334,"107":0.6651178002357483,"108":-0.3862687647342682,"109":-0.43537792563438416,"110":-0.40113863348960876,"111":0.6107943654060364,"112":0.5737090706825256,"113":0.3183784782886505,"114":0.32926952838897705,"115":0.4683211147785187,"116":-0.4873162806034088,"117":0.4071883261203766,"118":-0.044355232268571854,"119":-0.3795810043811798,"120":-0.4031417667865753,"121":-0.3119857907295227,"122":-0.588498592376709,"123":0.39353373646736145,"124":0.6794097423553467,"125":0.29342612624168396,"126":0.20008385181427002,"127":-0.3415389060974121,"128":-0.44754695892333984,"129":-0.5271030068397522,"130":0.2531792223453522,"131":0.5884794592857361,"132":0.07291765511035919,"133":0.9095742106437683,"134":-0.1712680459022522,"135":-0.29568248987197876,"136":0.8750643730163574,"137":-0.19778825342655182,"138":-0.023160390555858612,"139":-0.061241265386343,"140":-0.9090967774391174,"141":-0.6230002045631409,"142":1.339703917503357,"143":1.3862390518188477,"144":1.0237267017364502,"145":1.428496241569519,"146":-0.45336204767227173,"147":-0.7769980430603027,"148":-0.9543404579162598,"149":0.9926215410232544,"150":-0.3035968542098999,"151":-0.1161169558763504,"152":0.29503101110458374,"153":0.06778858602046967,"154":-0.5334831476211548,"155":-0.10185162723064423,"156":-0.10439161956310272,"157":-0.4093494415283203,"158":-0.0784490555524826,"159":-0.09778071194887161,"160":-0.09632400423288345,"161":0.3306097686290741,"162":-0.12397173047065735,"163":0.22976189851760864,"164":0.11517731100320816,"165":-0.13528157770633698,"166":-0.3622361719608307,"167":-0.003726589260622859,"168":0.09011194109916687,"169":-0.06525100767612457,"170":0.04205108433961868,"171":0.5974651575088501,"172":-0.13565105199813843,"173":0.021989712491631508,"174":0.8174792528152466,"175":0.44222021102905273,"176":-0.8288460373878479,"177":0.23184406757354736,"178":-0.6958890557289124,"179":-0.8226169347763062,"180":0.6197416186332703,"181":-0.15681059658527374,"182":0.5443415641784668,"183":0.48265400528907776,"184":-0.0532052256166935,"185":-0.621382474899292,"186":-0.7983220815658569,"187":0.5644616484642029,"188":0.6662294864654541,"189":-0.4549853205680847,"190":1.307857871055603,"191":-0.8812553882598877,"192":0.05018084868788719,"193":0.5199264287948608,"194":1.086769461631775,"195":0.17663638293743134,"196":0.6827207803726196,"197":-0.2022964358329773,"198":-0.9189636707305908,"199":-0.08679872751235962,"200":-0.05096694082021713,"201":-0.44665759801864624,"202":-0.5765188336372375,"203":0.24473121762275696,"204":0.10575457662343979,"205":-0.9741562008857727,"206":0.0969250351190567,"207":0.27966803312301636,"208":-1.210835576057434,"209":0.10377972573041916,"210":-0.859845757484436,"211":0.18432018160820007,"212":0.06496936082839966,"213":0.675123929977417,"214":0.17045536637306213,"215":0.793481171131134,"216":-0.303210586309433,"217":-0.050215985625982285,"218":0.03047279641032219,"219":0.5345895886421204,"220":0.33488646149635315,"221":0.22700075805187225,"222":0.4317801296710968,"223":-0.2440776824951172,"224":0.00018768099835142493,"225":0.5855268239974976,"226":-0.06950044631958008,"227":-0.7846674919128418,"228":0.7696285247802734,"229":0.42698535323143005,"230":-0.3042065501213074,"231":0.41136160492897034,"232":-0.06945974379777908,"233":0.04229298233985901,"234":-0.3409140706062317,"235":-0.250190794467926,"236":-0.31762954592704773,"237":0.2175137996673584,"238":-0.09292124211788177,"239":-0.03499818220734596,"240":-0.04585831239819527,"241":-0.10438637435436249,"242":-0.06724929809570312,"243":-0.23803165555000305,"244":0.25788643956184387,"245":0.5005795359611511,"246":0.06257493048906326,"247":-0.07198218256235123,"248":-0.9518672227859497,"249":0.48427727818489075,"250":0.13888415694236755,"251":0.706535279750824,"252":-0.020649943500757217,"253":0.9168637990951538,"254":-0.48356127738952637,"255":-0.01740972138941288,"256":0.3143192529678345,"257":0.6939554214477539,"258":0.4251677393913269,"259":0.4984931945800781,"260":0.7779159545898438,"261":-0.33583131432533264,"262":-0.20594748854637146,"263":0.6584018468856812,"264":-0.17672917246818542,"265":-0.8957699537277222,"266":-0.30004143714904785,"267":0.7393993139266968,"268":-0.6855612397193909,"269":-0.23211340606212616,"270":-0.5322680473327637,"271":0.4532766044139862,"272":-0.8803272247314453,"273":0.48044678568840027,"274":0.24981966614723206,"275":-0.4093666672706604,"276":-0.5735301971435547,"277":-0.6606455445289612,"278":-0.6802870035171509,"279":-0.7772562503814697,"280":0.3877274692058563,"281":0.34813711047172546,"282":-0.5353229641914368,"283":-0.07406492531299591,"284":0.5136788487434387,"285":0.3973028361797333,"286":0.7385210990905762,"287":-0.3001955449581146,"288":0.29350993037223816,"289":-0.522630512714386,"290":-0.4278063476085663,"291":-0.671052098274231,"292":-0.2721772789955139,"293":-0.23362207412719727,"294":0.4766640365123749,"295":0.4658294916152954,"296":0.5208224654197693,"297":0.5217182040214539,"298":-0.4101243019104004,"299":-0.5110505223274231,"300":-0.2953411936759949,"301":0.4526580572128296,"302":0.4297621548175812,"303":0.35350728034973145,"304":-0.2502734363079071,"305":1.0210340023040771,"306":-1.704391360282898,"307":0.017418166622519493,"308":-1.0708807706832886,"309":0.07549363374710083,"310":-1.030999779701233,"311":0.485064297914505,"312":-0.049893587827682495,"313":-0.14676718413829803,"314":-0.2198634296655655,"315":-0.45994725823402405,"316":-0.4239189624786377,"317":-1.00627601146698,"318":0.4014316499233246,"319":0.06371614336967468,"320":-0.5075985789299011,"321":0.3087763488292694,"322":0.824761152267456,"323":-0.5077195167541504,"324":-1.0441159009933472,"325":0.6244028806686401,"326":-0.37527909874916077,"327":0.7204616069793701,"328":1.364180326461792,"329":0.9698432683944702,"330":0.5031687617301941,"331":0.5598050951957703,"332":-0.9306879639625549,"333":-1.114553451538086,"334":-0.8878024816513062,"335":-1.1117836236953735,"336":0.355442613363266,"337":0.6777451634407043,"338":0.09393779933452606,"339":-0.7532053589820862,"340":-0.6555036902427673,"341":-0.8514450192451477,"342":-0.06472284346818924,"343":1.2739133834838867,"344":-0.8392733335494995,"345":-0.10867279767990112,"346":-1.071892499923706,"347":0.1771198809146881,"348":-1.345307469367981,"349":0.21530118584632874,"350":0.12030719220638275,"351":-0.017218897119164467,"352":0.3732137978076935,"353":-0.35435405373573303,"354":-0.2305397093296051,"355":-0.8405469655990601,"356":0.07161813974380493,"357":-0.012830994091928005,"358":-0.24498014152050018,"359":-0.17889243364334106,"360":1.0796295404434204,"361":0.1490335911512375,"362":1.119354486465454,"363":-1.3971853256225586,"364":0.1847909390926361,"365":-0.7773125767707825,"366":-0.17999866604804993,"367":-1.3325613737106323,"368":-0.006592586636543274,"369":-0.21268656849861145,"370":0.46993958950042725,"371":0.38183102011680603,"372":-0.34112244844436646,"373":-0.24861854314804077,"374":-1.0309314727783203,"375":-0.2782807946205139,"376":-0.050535898655653,"377":-0.14916002750396729,"378":0.33864352107048035,"379":0.6362820267677307}},"forgetHidden":{"rows":20,"columns":20,"weights":{"0":0.10703925043344498,"1":0.043327897787094116,"2":-0.15564975142478943,"3":-0.3601324260234833,"4":-0.005592951085418463,"5":-0.04752300679683685,"6":0.42154061794281006,"7":0.2130277454853058,"8":0.10881391167640686,"9":-0.02997996099293232,"10":-0.06492438912391663,"11":-0.07977288216352463,"12":0.0050551011227071285,"13":-0.07863903790712357,"14":0.1556658297777176,"15":0.0020093985367566347,"16":0.2657546401023865,"17":0.1448122262954712,"18":-0.6318077445030212,"19":-0.2847505211830139,"20":-0.0665900781750679,"21":-0.2566312551498413,"22":0.8111045956611633,"23":-0.4211157262325287,"24":-0.20896928012371063,"25":0.31691843271255493,"26":0.0723271369934082,"27":-0.7724846005439758,"28":-0.8524639010429382,"29":0.35378506779670715,"30":-0.5359729528427124,"31":0.2012598067522049,"32":0.8340167999267578,"33":0.22423142194747925,"34":0.7222245335578918,"35":-0.1155085489153862,"36":0.9304352402687073,"37":-0.6604802012443542,"38":-0.3359474837779999,"39":-0.2763296663761139,"40":0.5199973583221436,"41":-0.7391018867492676,"42":0.44257697463035583,"43":-0.18986056745052338,"44":-0.7813929915428162,"45":0.587016761302948,"46":-0.5661629438400269,"47":0.809827983379364,"48":-0.20205822587013245,"49":1.166831612586975,"50":-0.1577458679676056,"51":0.7220093011856079,"52":-0.13111664354801178,"53":0.6486555933952332,"54":-0.20300815999507904,"55":-0.04035218805074692,"56":-0.09459920972585678,"57":0.9705893397331238,"58":-1.0060840845108032,"59":0.27897465229034424,"60":-0.010142396204173565,"61":-0.01035336498171091,"62":-0.02988359145820141,"63":-0.01636006124317646,"64":-0.13536575436592102,"65":0.02589803747832775,"66":-0.5613366961479187,"67":0.4779253900051117,"68":0.1491808146238327,"69":-0.8044583797454834,"70":-0.6435529589653015,"71":-0.057111956179142,"72":0.03431981801986694,"73":0.020571835339069366,"74":-0.8417871594429016,"75":0.24069294333457947,"76":-0.666090726852417,"77":0.1590251624584198,"78":0.7676486968994141,"79":0.8979908227920532,"80":0.034005336463451385,"81":-0.22512125968933105,"82":0.46629220247268677,"83":-0.41478216648101807,"84":-0.3291032910346985,"85":0.24989567697048187,"86":-0.07052160799503326,"87":0.0840170755982399,"88":-0.7632271647453308,"89":0.20497800409793854,"90":-0.5503913164138794,"91":0.2824413776397705,"92":0.6179741621017456,"93":0.26136162877082825,"94":0.6364721655845642,"95":-0.0013285089517012239,"96":0.39357149600982666,"97":0.06023547425866127,"98":-0.13371294736862183,"99":-0.2423112541437149,"100":0.3726068139076233,"101":-0.7278879880905151,"102":-0.22582709789276123,"103":0.13825923204421997,"104":-0.6069867014884949,"105":0.5043646097183228,"106":-0.3792562186717987,"107":1.3587217330932617,"108":-0.13821013271808624,"109":0.9509044289588928,"110":-0.054144568741321564,"111":0.6533528566360474,"112":-0.3012177646160126,"113":0.6172029972076416,"114":-0.5115349888801575,"115":-0.5831906199455261,"116":-0.38320475816726685,"117":0.572354257106781,"118":0.3323656916618347,"119":0.5726156234741211,"120":0.06293494254350662,"121":-0.6938836574554443,"122":-0.1334889680147171,"123":0.040163565427064896,"124":-0.7412189841270447,"125":0.8303897380828857,"126":-0.5821759104728699,"127":0.693858802318573,"128":-0.11906009167432785,"129":0.8534326553344727,"130":-0.2596730589866638,"131":0.7373188734054565,"132":0.0043143341317772865,"133":0.7618561387062073,"134":-0.3861590325832367,"135":-0.3707757294178009,"136":-0.15107852220535278,"137":0.3080889880657196,"138":0.5325345993041992,"139":0.3354397118091583,"140":-1.1389981508255005,"141":1.5873490571975708,"142":-1.2326240539550781,"143":0.02583354152739048,"144":1.5237400531768799,"145":-1.4209038019180298,"146":0.3359433710575104,"147":0.7762606739997864,"148":1.2713024616241455,"149":-1.1609091758728027,"150":0.23533986508846283,"151":-1.5946271419525146,"152":-0.6559675931930542,"153":-1.628970980644226,"154":0.13169167935848236,"155":0.40758177638053894,"156":1.3343453407287598,"157":0.5277174115180969,"158":-0.00903015024960041,"159":-0.7821418046951294,"160":0.7815716862678528,"161":-1.043569803237915,"162":0.47906896471977234,"163":0.26829755306243896,"164":-1.0725983381271362,"165":0.7862433195114136,"166":-0.6654486060142517,"167":-0.09663888812065125,"168":-0.49844613671302795,"169":0.9883179068565369,"170":-0.20751410722732544,"171":1.0008183717727661,"172":-0.032443732023239136,"173":1.0269148349761963,"174":-0.4510316550731659,"175":-0.7383732199668884,"176":-0.42747607827186584,"177":0.05836648494005203,"178":0.7062296271324158,"179":0.5970135927200317,"180":0.08010029047727585,"181":-0.3953995704650879,"182":0.09816738963127136,"183":0.10181263089179993,"184":-0.3318772614002228,"185":0.495045006275177,"186":-0.4287782609462738,"187":0.5986364483833313,"188":-0.4101872146129608,"189":0.08905394375324249,"190":-0.26345697045326233,"191":0.3762284517288208,"192":0.06413377076387405,"193":0.43137672543525696,"194":-0.42242082953453064,"195":-0.16804318130016327,"196":-0.06754269450902939,"197":0.12402348220348358,"198":0.29463836550712585,"199":0.6098583936691284,"200":-0.2899613082408905,"201":-0.4202914237976074,"202":-1.2382359504699707,"203":-0.1506437510251999,"204":-0.08696924149990082,"205":1.5175663232803345,"206":-0.9650461077690125,"207":1.0288100242614746,"208":-0.2722112834453583,"209":0.34368041157722473,"210":-0.7543573379516602,"211":0.3174942433834076,"212":0.8483646512031555,"213":0.3963719606399536,"214":-1.3298295736312866,"215":0.43894755840301514,"216":-0.044546566903591156,"217":-0.18203917145729065,"218":0.6863597631454468,"219":1.193461537361145,"220":0.19571667909622192,"221":-0.09026512503623962,"222":0.4868573844432831,"223":-0.350493848323822,"224":-0.21074794232845306,"225":0.4704074263572693,"226":0.07675685733556747,"227":-0.11508464068174362,"228":-0.5109369158744812,"229":0.546306312084198,"230":-0.29149600863456726,"231":0.17479391396045685,"232":0.5540676712989807,"233":0.1390955150127411,"234":0.5133585333824158,"235":0.27870386838912964,"236":0.5116106271743774,"237":-0.25632205605506897,"238":-0.28782546520233154,"239":-0.2665058374404907,"240":0.09447132796049118,"241":-0.5375185012817383,"242":-0.020656172186136246,"243":0.019424566999077797,"244":-0.5096966028213501,"245":0.7116924524307251,"246":-0.9151694178581238,"247":1.5419883728027344,"248":0.03413940966129303,"249":0.5564926266670227,"250":-0.8252378702163696,"251":0.5286986231803894,"252":0.635199785232544,"253":0.43166548013687134,"254":-1.1687365770339966,"255":0.025249289348721504,"256":-0.4913746118545532,"257":0.18215391039848328,"258":0.9163296818733215,"259":1.3076210021972656,"260":0.34055522084236145,"261":-0.2370649129152298,"262":0.40169981122016907,"263":-0.3916664719581604,"264":-0.14550046622753143,"265":0.22735430300235748,"266":0.1579854041337967,"267":-0.2988530099391937,"268":-0.47163528203964233,"269":0.3411347568035126,"270":-0.3462173044681549,"271":0.25372934341430664,"272":0.46953657269477844,"273":0.10272108763456345,"274":0.48984333872795105,"275":0.05920124426484108,"276":0.4649893641471863,"277":-0.3631443679332733,"278":-0.2646351754665375,"279":-0.19199678301811218,"280":0.8771564364433289,"281":-0.06819003075361252,"282":-0.5213776230812073,"283":0.07361740618944168,"284":-0.19028937816619873,"285":0.3260042071342468,"286":-0.32243919372558594,"287":0.9154431223869324,"288":0.5059956312179565,"289":0.015246364288032055,"290":-0.05186048150062561,"291":0.14611028134822845,"292":0.32525330781936646,"293":0.17796361446380615,"294":-0.766450047492981,"295":-0.16611935198307037,"296":-0.2021762728691101,"297":0.2925071120262146,"298":0.713266134262085,"299":0.9401161670684814,"300":0.44879889488220215,"301":-0.34178626537323,"302":0.2938991189002991,"303":-0.5034982562065125,"304":-0.3542915880680084,"305":0.43188756704330444,"306":0.12645979225635529,"307":-0.17527683079242706,"308":-0.1785355508327484,"309":0.3137030601501465,"310":-0.3556797504425049,"311":0.31112217903137207,"312":0.4568363428115845,"313":0.29580965638160706,"314":1.316200852394104,"315":-0.09310517460107803,"316":1.7595617771148682,"317":0.01191331073641777,"318":-1.4563403129577637,"319":-1.7603845596313477,"320":0.7290058135986328,"321":-0.4696055054664612,"322":-0.2334660142660141,"323":0.6683446168899536,"324":-0.5079771876335144,"325":-0.1891702264547348,"326":-0.22054119408130646,"327":-0.2967272400856018,"328":0.2605642080307007,"329":-0.38338011503219604,"330":0.4387648403644562,"331":0.5013148188591003,"332":-0.553609311580658,"333":0.5207279920578003,"334":-0.26508229970932007,"335":-0.3916069269180298,"336":-0.12017370760440826,"337":-0.2378929704427719,"338":0.15447741746902466,"339":0.1944834142923355,"340":-0.45063653588294983,"341":0.3366263210773468,"342":-0.8706409335136414,"343":0.374321311712265,"344":0.3695569932460785,"345":-0.31690096855163574,"346":-0.003096593776717782,"347":0.2617361545562744,"348":0.577134907245636,"349":-0.2918817102909088,"350":0.41106438636779785,"351":-0.35453853011131287,"352":-0.44860267639160156,"353":-0.2989661991596222,"354":0.18555350601673126,"355":0.27841243147850037,"356":-0.20823681354522705,"357":0.3115895688533783,"358":0.10766509920358658,"359":-0.2578776478767395,"360":-0.44079065322875977,"361":-0.07914456725120544,"362":-0.41967490315437317,"363":-0.2915823459625244,"364":-0.027925128117203712,"365":-0.31789493560791016,"366":-0.5133315920829773,"367":0.15310397744178772,"368":0.4185999631881714,"369":-0.3570902347564697,"370":-0.2634119391441345,"371":0.11648530513048172,"372":0.39159440994262695,"373":0.1587868332862854,"374":-0.3272422254085541,"375":-0.3922051191329956,"376":-0.10656821727752686,"377":0.2521743178367615,"378":0.5207400918006897,"379":0.47033652663230896,"380":0.7411675453186035,"381":-0.04616881534457207,"382":-0.7942184209823608,"383":-0.03774378076195717,"384":-0.14152663946151733,"385":-0.07872417569160461,"386":-0.22872954607009888,"387":0.3587042987346649,"388":0.502206563949585,"389":-0.34245041012763977,"390":-0.052496038377285004,"391":0.07959598302841187,"392":0.33176302909851074,"393":0.08084716647863388,"394":-0.9897633790969849,"395":-0.2972780466079712,"396":-0.2132682353258133,"397":0.17359355092048645,"398":0.7411616444587708,"399":0.9410870671272278}},"forgetBias":{"rows":20,"columns":1,"weights":{"0":0,"1":0,"2":0,"3":0,"4":0,"5":0,"6":0,"7":0,"8":0,"9":0,"10":0,"11":0,"12":0,"13":0,"14":0,"15":0,"16":0,"17":0,"18":0,"19":0}},"outputMatrix":{"rows":20,"columns":19,"weights":{"0":-1.2992591857910156,"1":0.2631165385246277,"2":-0.15781912207603455,"3":-1.2181216478347778,"4":-0.4670213460922241,"5":-0.11088672280311584,"6":-0.3095092177391052,"7":1.4879082441329956,"8":1.1704353094100952,"9":-0.4938809871673584,"10":-1.0638902187347412,"11":-0.6139225363731384,"12":0.16514462232589722,"13":-0.11584872752428055,"14":0.8302590250968933,"15":1.015974998474121,"16":-1.4159053564071655,"17":-0.8461740016937256,"18":0.491473525762558,"19":-0.6046800017356873,"20":0.5605167150497437,"21":-0.460066556930542,"22":-1.0272237062454224,"23":-0.6154705286026001,"24":-0.3162213861942291,"25":-0.5424361824989319,"26":0.8970653414726257,"27":0.7747475504875183,"28":0.05145612731575966,"29":-0.5319303274154663,"30":-0.5890415906906128,"31":-0.018386859446763992,"32":-0.576167106628418,"33":0.3281779885292053,"34":0.8854172229766846,"35":-1.1048823595046997,"36":-1.2252331972122192,"37":0.6175646185874939,"38":0.2008872926235199,"39":0.07135053724050522,"40":-0.9946596026420593,"41":-0.24523138999938965,"42":0.1170346811413765,"43":0.5286086797714233,"44":0.09286052733659744,"45":0.6073241233825684,"46":0.3546147346496582,"47":-0.5558143854141235,"48":-0.6697992086410522,"49":-0.6591623425483704,"50":-0.526296854019165,"51":-0.2085551768541336,"52":0.6245410442352295,"53":0.4858824610710144,"54":-0.48542463779449463,"55":-0.3635077476501465,"56":-0.10431525111198425,"57":1.6186583042144775,"58":-0.03170309588313103,"59":0.5737351775169373,"60":1.1995595693588257,"61":0.8692483305931091,"62":-0.6226598620414734,"63":0.19879506528377533,"64":-1.0512884855270386,"65":-0.6563869118690491,"66":0.8809309601783752,"67":-0.22250331938266754,"68":-0.38060301542282104,"69":-0.2156604826450348,"70":0.06035074591636658,"71":-0.04383820667862892,"72":-0.8280761241912842,"73":0.7927971482276917,"74":0.4255255460739136,"75":-0.9518329501152039,"76":-0.4602191746234894,"77":0.4773470163345337,"78":-0.5583785176277161,"79":-0.7018953561782837,"80":-0.46838295459747314,"81":-0.41838914155960083,"82":-0.5632548928260803,"83":0.8914507031440735,"84":0.20869462192058563,"85":0.24391186237335205,"86":-0.68780118227005,"87":-0.9369027018547058,"88":0.1293112188577652,"89":-0.7332173585891724,"90":0.2389058768749237,"91":0.6337578892707825,"92":-1.0899852514266968,"93":-0.5423174500465393,"94":0.6152159571647644,"95":0.7994340062141418,"96":0.40743377804756165,"97":-0.8801935315132141,"98":0.061675164848566055,"99":-1.0215137004852295,"100":0.6296616792678833,"101":-0.6593795418739319,"102":-0.03402932360768318,"103":-0.22226253151893616,"104":-0.5088171362876892,"105":0.18898487091064453,"106":-0.057922933250665665,"107":-0.40235286951065063,"108":-0.7949060201644897,"109":0.2056255340576172,"110":-0.10272542387247086,"111":0.11541780829429626,"112":0.40375950932502747,"113":1.0693583488464355,"114":-0.217117041349411,"115":1.1127499341964722,"116":-1.1058045625686646,"117":-0.07033146172761917,"118":-0.8536298274993896,"119":-0.0804915800690651,"120":-0.9067320823669434,"121":-0.08349137008190155,"122":-0.03293372318148613,"123":-0.21835920214653015,"124":0.4144010841846466,"125":0.10008873045444489,"126":-0.06593051552772522,"127":-1.3316113948822021,"128":0.018057335168123245,"129":-0.2416849136352539,"130":-0.09213324636220932,"131":0.13668052852153778,"132":0.6863021850585938,"133":0.9126507043838501,"134":-0.9385578036308289,"135":0.13023361563682556,"136":0.379770427942276,"137":1.3215266466140747,"138":0.1241002306342125,"139":0.7798742055892944,"140":0.15635201334953308,"141":-0.8604072332382202,"142":-0.22067660093307495,"143":0.17815111577510834,"144":-0.23121550679206848,"145":-0.5906937122344971,"146":0.8465073108673096,"147":-0.012823876924812794,"148":-0.3416929841041565,"149":-0.08510599285364151,"150":1.2546736001968384,"151":-0.530229389667511,"152":0.432291716337204,"153":0.8052065372467041,"154":-1.2263984680175781,"155":-0.31032049655914307,"156":-0.7294663190841675,"157":0.536134660243988,"158":-0.82615065574646,"159":0.5041289329528809,"160":0.29009658098220825,"161":-0.4754733741283417,"162":-0.6349725723266602,"163":-0.44328033924102783,"164":-0.6000862717628479,"165":-0.5460259914398193,"166":0.3231252431869507,"167":0.34300005435943604,"168":-0.3384929895401001,"169":-0.3809785842895508,"170":0.7632138133049011,"171":0.25959891080856323,"172":1.2575215101242065,"173":-0.9335780739784241,"174":0.2919936776161194,"175":-1.1745667457580566,"176":0.40517285466194153,"177":-1.0907599925994873,"178":-0.08382667601108551,"179":-0.12933965027332306,"180":-0.4180026054382324,"181":-0.9025763869285583,"182":-0.12840799987316132,"183":-0.487423837184906,"184":-1.073055386543274,"185":0.33266228437423706,"186":0.11711912602186203,"187":0.19702346622943878,"188":0.19516821205615997,"189":1.1621326208114624,"190":0.5914992094039917,"191":1.1166294813156128,"192":-1.2278417348861694,"193":0.620566725730896,"194":-0.8374688029289246,"195":-0.6554850935935974,"196":-1.0246771574020386,"197":-0.49888306856155396,"198":-0.6749895215034485,"199":0.305793434381485,"200":0.12407255172729492,"201":0.36794888973236084,"202":0.46793001890182495,"203":-1.366904616355896,"204":-0.16085615754127502,"205":-0.7162230014801025,"206":0.572155773639679,"207":0.42174389958381653,"208":0.46902939677238464,"209":-1.0790634155273438,"210":0.31244799494743347,"211":-0.27169421315193176,"212":-1.2805688381195068,"213":-0.5723457932472229,"214":-0.08127211034297943,"215":-0.4685034155845642,"216":1.3515162467956543,"217":1.137717843055725,"218":-0.0745939239859581,"219":-0.5299416184425354,"220":-0.5441159605979919,"221":-0.12375359982252121,"222":-0.11210399121046066,"223":0.4699031710624695,"224":1.1426597833633423,"225":-1.304170846939087,"226":-1.221936821937561,"227":0.6382654309272766,"228":0.3735472559928894,"229":0.5121095776557922,"230":-0.8430543541908264,"231":0.4542701840400696,"232":-0.9450855851173401,"233":-1.4688899517059326,"234":-0.613069474697113,"235":-0.7378776669502258,"236":-0.649367094039917,"237":1.3139618635177612,"238":1.2217669486999512,"239":1.1460368633270264,"240":1.5615366697311401,"241":-0.20421001315116882,"242":-1.2189124822616577,"243":-0.3170715868473053,"244":0.771647036075592,"245":0.9074772596359253,"246":0.46664342284202576,"247":-1.1122280359268188,"248":0.05144885927438736,"249":0.16398985683918,"250":-1.4386634826660156,"251":-0.3803040385246277,"252":0.3550267219543457,"253":-0.20147979259490967,"254":1.2404075860977173,"255":1.1765092611312866,"256":-0.3092174828052521,"257":-0.2586737275123596,"258":-0.11814513057470322,"259":0.0011607023188844323,"260":0.3165525197982788,"261":0.36699414253234863,"262":1.3522567749023438,"263":-1.0248864889144897,"264":-1.3741027116775513,"265":0.455140620470047,"266":-0.25746241211891174,"267":1.204939365386963,"268":-1.3596001863479614,"269":-0.1847808063030243,"270":-1.4150145053863525,"271":-0.07055114954710007,"272":-1.2430496215820312,"273":0.23887108266353607,"274":0.04929710552096367,"275":-0.03762434795498848,"276":-0.1970091611146927,"277":-0.3862493634223938,"278":-0.16478395462036133,"279":-1.5659643411636353,"280":0.048529889434576035,"281":0.21045643091201782,"282":-0.4406796991825104,"283":0.2562423050403595,"284":1.470961570739746,"285":0.48599693179130554,"286":0.6453201770782471,"287":-0.8695727586746216,"288":-0.044721245765686035,"289":-0.4065393805503845,"290":1.0060604810714722,"291":-0.7851171493530273,"292":0.21086497604846954,"293":0.2473905384540558,"294":-0.48245757818222046,"295":-1.2850006818771362,"296":0.05812884122133255,"297":-0.5381012558937073,"298":-0.615057647228241,"299":0.40756431221961975,"300":0.296944260597229,"301":0.10334152728319168,"302":-0.6290215253829956,"303":0.5616825222969055,"304":-0.4327603280544281,"305":0.3967045247554779,"306":-0.6735790371894836,"307":-0.7474932074546814,"308":-0.26676347851753235,"309":0.23079627752304077,"310":-0.35013309121131897,"311":0.7516815066337585,"312":0.7830013036727905,"313":-0.3325570523738861,"314":-0.07822597771883011,"315":-0.37240055203437805,"316":-0.3662380874156952,"317":-0.2070334106683731,"318":0.37236282229423523,"319":0.8168412446975708,"320":-0.8006300926208496,"321":-0.6493450403213501,"322":0.2968030273914337,"323":0.8252435326576233,"324":-0.6271814703941345,"325":0.2540462017059326,"326":0.8189017176628113,"327":1.2108497619628906,"328":1.6067112684249878,"329":0.8531981706619263,"330":-0.5864927172660828,"331":-0.3560370206832886,"332":-1.2399989366531372,"333":-1.1182647943496704,"334":-0.6937085390090942,"335":-1.7632774114608765,"336":0.2930426299571991,"337":0.6676433086395264,"338":-0.6520475149154663,"339":0.3335987329483032,"340":0.21889151632785797,"341":-1.3317413330078125,"342":0.3144432604312897,"343":1.7052316665649414,"344":-1.151252269744873,"345":0.4703162610530853,"346":-1.6040807962417603,"347":-0.25061529874801636,"348":-1.8195446729660034,"349":-0.41984614729881287,"350":-0.403906911611557,"351":0.3354513943195343,"352":0.6753239035606384,"353":-0.1704496443271637,"354":0.14928871393203735,"355":-1.5818442106246948,"356":-0.2832585275173187,"357":-0.784829318523407,"358":0.2765135169029236,"359":0.2971758544445038,"360":1.171596884727478,"361":-0.14713217318058014,"362":1.4456031322479248,"363":-1.427829384803772,"364":-0.15469837188720703,"365":-1.5208066701889038,"366":-0.07583621889352798,"367":-1.5534039735794067,"368":0.182872474193573,"369":0.056910738348960876,"370":-0.0072007980197668076,"371":-0.3520576059818268,"372":-0.6426674127578735,"373":-0.31556349992752075,"374":-2.0169036388397217,"375":0.135295569896698,"376":0.09184303879737854,"377":-0.3796098530292511,"378":0.2431381195783615,"379":1.2178353071212769}},"outputHidden":{"rows":20,"columns":20,"weights":{"0":0.2548600733280182,"1":0.1082812026143074,"2":0.5500290989875793,"3":0.47685763239860535,"4":0.1557198464870453,"5":0.6890286803245544,"6":0.6801274418830872,"7":-0.2833399176597595,"8":0.11148280650377274,"9":-0.5528325438499451,"10":-0.3624805808067322,"11":-0.03206362947821617,"12":-0.6545543670654297,"13":-0.17296871542930603,"14":-0.007348157931119204,"15":0.30168259143829346,"16":-0.1421862542629242,"17":0.16786837577819824,"18":-1.1241480112075806,"19":-0.4649691581726074,"20":-0.36402031779289246,"21":-0.22801125049591064,"22":0.6100695729255676,"23":0.14264097809791565,"24":-0.21740767359733582,"25":0.15946164727210999,"26":0.12339085340499878,"27":-1.0419089794158936,"28":-0.6477310061454773,"29":-0.21798588335514069,"30":-0.37919554114341736,"31":0.22704489529132843,"32":0.2986752390861511,"33":0.3250424861907959,"34":0.6338047385215759,"35":-0.3546406924724579,"36":-0.029529128223657608,"37":-0.7463105916976929,"38":-0.1856563687324524,"39":-0.037776701152324677,"40":-0.10008426755666733,"41":-0.6621924638748169,"42":0.12984703481197357,"43":0.13227030634880066,"44":-0.7455567121505737,"45":0.303594172000885,"46":-1.3025823831558228,"47":0.4211711287498474,"48":-0.2230728715658188,"49":-0.20006589591503143,"50":-0.7263544201850891,"51":0.6676439046859741,"52":0.281295508146286,"53":0.6551604866981506,"54":-2.1100168228149414,"55":-0.7439911365509033,"56":-1.828858494758606,"57":0.2202177196741104,"58":1.020689606666565,"59":2.298441171646118,"60":0.9445374608039856,"61":-0.934795618057251,"62":-0.6914337873458862,"63":0.6014987826347351,"64":-1.5625009536743164,"65":-1.1005187034606934,"66":-0.39108699560165405,"67":-0.13522569835186005,"68":0.16089031100273132,"69":-0.7180668711662292,"70":0.9934402108192444,"71":0.8666257262229919,"72":-0.9373847842216492,"73":0.9397509098052979,"74":-0.3653241693973541,"75":0.6182879209518433,"76":0.18291041254997253,"77":-0.3789229691028595,"78":0.2828449606895447,"79":0.38161495327949524,"80":-0.36312147974967957,"81":-0.2234688401222229,"82":0.5902664661407471,"83":-0.36972132325172424,"84":-0.2940676808357239,"85":0.31356367468833923,"86":0.20288465917110443,"87":-1.6499607563018799,"88":-0.5549808740615845,"89":-0.1587194949388504,"90":-0.6913109421730042,"91":0.32574695348739624,"92":0.4109676480293274,"93":0.3511272072792053,"94":0.6208120584487915,"95":-0.21582990884780884,"96":0.20192502439022064,"97":-0.4403751790523529,"98":-0.11087688058614731,"99":0.13472998142242432,"100":-0.4825601279735565,"101":0.2380087673664093,"102":-0.8540533185005188,"103":-0.7510631084442139,"104":0.29429465532302856,"105":0.012336548417806625,"106":-1.7658612728118896,"107":2.0268847942352295,"108":0.3993071913719177,"109":0.3737179934978485,"110":-1.388608455657959,"111":-0.25473013520240784,"112":1.719077229499817,"113":-0.3413282036781311,"114":-2.180840015411377,"115":-0.5798993110656738,"116":-0.4087247848510742,"117":0.1641806811094284,"118":1.8013402223587036,"119":2.3387670516967773,"120":0.1695421189069748,"121":0.004374678246676922,"122":-0.46375349164009094,"123":0.7568054795265198,"124":0.5057770013809204,"125":-0.26238131523132324,"126":0.5750068426132202,"127":1.7649799585342407,"128":0.6482393741607666,"129":-0.5794530510902405,"130":0.9217956066131592,"131":-0.08257139474153519,"132":-0.6630673408508301,"133":-0.04922787845134735,"134":0.4360288977622986,"135":0.7145867347717285,"136":-0.32385945320129395,"137":0.2411152720451355,"138":-0.6106755137443542,"139":-0.38035011291503906,"140":-1.1017184257507324,"141":1.048161506652832,"142":-1.5706474781036377,"143":0.5761269330978394,"144":0.527153491973877,"145":-1.3489688634872437,"146":1.6391351222991943,"147":0.8058754205703735,"148":1.7749260663986206,"149":-1.717065453529358,"150":1.9146994352340698,"151":-0.9930542707443237,"152":-1.8292101621627808,"153":-0.9580439925193787,"154":1.5972557067871094,"155":0.9184935092926025,"156":0.5390336513519287,"157":0.7210413217544556,"158":-1.383334755897522,"159":-0.8366413116455078,"160":0.33670878410339355,"161":-0.24832676351070404,"162":-0.11289755254983902,"163":0.729219913482666,"164":-0.21593739092350006,"165":0.32957854866981506,"166":-0.18918965756893158,"167":0.03187170624732971,"168":-0.07881949841976166,"169":0.5436559915542603,"170":0.21158376336097717,"171":0.2323346734046936,"172":-0.40030255913734436,"173":0.32530713081359863,"174":-0.7302998304367065,"175":-0.36007174849510193,"176":-0.7674046754837036,"177":-0.1525178998708725,"178":0.6486818194389343,"179":0.8075748085975647,"180":-0.5870778560638428,"181":0.5136321783065796,"182":-0.36064040660858154,"183":0.39946070313453674,"184":0.5749780535697937,"185":0.30256494879722595,"186":-0.33883392810821533,"187":1.834187388420105,"188":0.1232016459107399,"189":-0.08270811289548874,"190":-0.02289556711912155,"191":-0.5134727954864502,"192":-0.0320918969810009,"193":-0.38932275772094727,"194":-0.4965269863605499,"195":-0.4038369059562683,"196":-0.37837478518486023,"197":0.3688713312149048,"198":0.22923272848129272,"199":0.7406817078590393,"200":-0.22484031319618225,"201":0.03907781094312668,"202":0.1888679414987564,"203":-0.012385129928588867,"204":-0.47374752163887024,"205":0.8921439051628113,"206":-0.6248475313186646,"207":2.008129358291626,"208":-0.4152568578720093,"209":1.2339907884597778,"210":-0.14453929662704468,"211":-0.017941681668162346,"212":-0.033576205372810364,"213":-0.00457163667306304,"214":-0.8790848255157471,"215":-0.5327724814414978,"216":-1.9297456741333008,"217":1.1318297386169434,"218":0.637437641620636,"219":0.82890385389328,"220":-0.41440674662590027,"221":-0.24903401732444763,"222":0.05178266018629074,"223":-0.07500717043876648,"224":-0.22810038924217224,"225":-0.11392969638109207,"226":-0.1369008868932724,"227":-0.3295004963874817,"228":-0.7902324199676514,"229":-0.35123953223228455,"230":-0.22360272705554962,"231":0.2646287977695465,"232":0.23455627262592316,"233":0.22723127901554108,"234":0.5035512447357178,"235":-0.32820063829421997,"236":-0.06563638150691986,"237":0.0469633974134922,"238":0.007680979091674089,"239":-0.009125281125307083,"240":-0.5062114000320435,"241":-0.1998690366744995,"242":-0.1298210471868515,"243":0.5917690396308899,"244":-0.06192341819405556,"245":-0.14658276736736298,"246":-0.44897976517677307,"247":0.8279753923416138,"248":0.175217404961586,"249":0.0857619121670723,"250":0.034376129508018494,"251":0.05947676673531532,"252":-0.12375907599925995,"253":0.07774730026721954,"254":-0.4601307809352875,"255":-0.23618008196353912,"256":-0.9069790840148926,"257":-0.1837093085050583,"258":0.46617546677589417,"259":0.5615342855453491,"260":-0.08770689368247986,"261":0.5032976865768433,"262":-1.1337106227874756,"263":-0.008815822191536427,"264":0.5779077410697937,"265":-0.5007882714271545,"266":0.33689364790916443,"267":-0.985187292098999,"268":0.3951268494129181,"269":-0.6834192872047424,"270":0.45588845014572144,"271":-0.5311045050621033,"272":0.42071592807769775,"273":-0.45353612303733826,"274":0.1630873829126358,"275":0.16613823175430298,"276":0.5154352188110352,"277":-0.3091229200363159,"278":-0.1024254858493805,"279":0.7318468689918518,"280":0.3590726852416992,"281":-0.044805318117141724,"282":-0.5695555210113525,"283":0.6119393110275269,"284":-0.15737156569957733,"285":-0.2796798646450043,"286":0.182333305478096,"287":1.3099291324615479,"288":0.6244273781776428,"289":-1.5600016117095947,"290":0.2543647289276123,"291":0.0037909718230366707,"292":-0.06064119562506676,"293":0.02723039872944355,"294":0.04065198451280594,"295":0.671935498714447,"296":-0.17880138754844666,"297":0.6478679776191711,"298":0.06650995463132858,"299":0.014630519784986973,"300":0.30505356192588806,"301":-0.2343984693288803,"302":0.33920595049858093,"303":1.6225669384002686,"304":-0.1778365522623062,"305":-0.9096392393112183,"306":0.9803731441497803,"307":0.577927827835083,"308":-0.18768082559108734,"309":-0.17232322692871094,"310":1.2327015399932861,"311":0.16085243225097656,"312":-1.6409809589385986,"313":0.13813139498233795,"314":1.5717169046401978,"315":-0.08928092569112778,"316":0.4112778604030609,"317":0.2274484485387802,"318":-1.2682667970657349,"319":-2.495950698852539,"320":-0.8389487862586975,"321":-0.16140605509281158,"322":-0.6734967827796936,"323":0.905251145362854,"324":-0.1765669882297516,"325":-0.9879059791564941,"326":-0.5649991035461426,"327":0.7410087585449219,"328":0.42481914162635803,"329":-1.322601556777954,"330":0.45039016008377075,"331":0.21622535586357117,"332":-0.7737998962402344,"333":0.15736162662506104,"334":0.18796108663082123,"335":0.1491038203239441,"336":0.6346012949943542,"337":0.5471388101577759,"338":0.4896894097328186,"339":-0.24255551397800446,"340":-0.4778466522693634,"341":0.49497729539871216,"342":-1.1603505611419678,"343":0.003367531346157193,"344":0.5055139660835266,"345":-1.051511287689209,"346":0.23735299706459045,"347":1.303100824356079,"348":0.8801057934761047,"349":-0.6297605037689209,"350":0.8004961609840393,"351":-0.48174771666526794,"352":-0.530534565448761,"353":-0.39890334010124207,"354":0.08799101412296295,"355":0.26102301478385925,"356":-0.5022804737091064,"357":1.5835883617401123,"358":-0.3863212466239929,"359":-0.012179240584373474,"360":-0.25891581177711487,"361":0.06817326694726944,"362":-0.6110378503799438,"363":-0.00812301691621542,"364":0.13331317901611328,"365":-0.502931535243988,"366":-0.09855522215366364,"367":0.11918015033006668,"368":0.7440417408943176,"369":-0.662043571472168,"370":0.0876532718539238,"371":-0.043810077011585236,"372":0.10547029972076416,"373":-0.0034248987212777138,"374":-0.14382457733154297,"375":0.5130649209022522,"376":-0.30114907026290894,"377":0.24703837931156158,"378":0.3016391694545746,"379":0.22747980058193207,"380":-0.41834113001823425,"381":0.12420972436666489,"382":-0.7038609981536865,"383":0.22433455288410187,"384":0.1535802185535431,"385":0.026259809732437134,"386":-0.8052364587783813,"387":1.302575945854187,"388":0.29968908429145813,"389":0.2590024471282959,"390":-0.44182196259498596,"391":-0.20406143367290497,"392":0.6585381627082825,"393":-0.16972672939300537,"394":-0.687287449836731,"395":0.046109333634376526,"396":-0.14889873564243317,"397":0.47953858971595764,"398":0.654833197593689,"399":0.8602167367935181}},"outputBias":{"rows":20,"columns":1,"weights":{"0":-0.15721088647842407,"1":-0.5743745565414429,"2":-0.2504601776599884,"3":-0.7788991928100586,"4":-0.0032365601509809494,"5":-0.4651918411254883,"6":-1.2556853294372559,"7":1.3886315822601318,"8":-0.49876299500465393,"9":-0.7645464539527893,"10":-1.4227880239486694,"11":-0.6234955191612244,"12":-2.2905776500701904,"13":-0.5640542507171631,"14":-0.5165895223617554,"15":-0.37024298310279846,"16":-0.7903344631195068,"17":-1.6514273881912231,"18":-1.005020260810852,"19":-1.2921667098999023}},"cellActivationMatrix":{"rows":20,"columns":19,"weights":{"0":0.4534244239330292,"1":0.6750651597976685,"2":-0.5086032748222351,"3":0.26486843824386597,"4":-0.6203566193580627,"5":0.023392032831907272,"6":-0.668948233127594,"7":-0.26116129755973816,"8":-0.14230899512767792,"9":0.04000566899776459,"10":-0.13509243726730347,"11":0.4710630476474762,"12":0.2801204025745392,"13":-0.6823359131813049,"14":0.035354726016521454,"15":-0.07572474330663681,"16":0.6639317870140076,"17":0.1583128422498703,"18":0.4568893015384674,"19":-1.0689606666564941,"20":0.13252273201942444,"21":0.17802657186985016,"22":-1.1761102676391602,"23":-0.12610258162021637,"24":0.9005547761917114,"25":-0.08294869214296341,"26":1.0880266427993774,"27":1.1442490816116333,"28":-0.9229031801223755,"29":-0.28079742193222046,"30":-0.633747398853302,"31":-0.5294580459594727,"32":0.25965365767478943,"33":0.8189498782157898,"34":1.1395219564437866,"35":-0.8397866487503052,"36":-0.9176936745643616,"37":0.26434269547462463,"38":0.6296609044075012,"39":-0.177989199757576,"40":0.3329009711742401,"41":0.3456690013408661,"42":0.12791851162910461,"43":-0.41914814710617065,"44":0.10062700510025024,"45":-0.3687133491039276,"46":-0.2129601389169693,"47":0.513209879398346,"48":0.5716412663459778,"49":0.32328736782073975,"50":0.6428753137588501,"51":0.5212256908416748,"52":-0.39826592803001404,"53":-0.09366392344236374,"54":0.3189707100391388,"55":0.30740347504615784,"56":-0.1207016333937645,"57":-1.0667921304702759,"58":0.6359656453132629,"59":-0.31849658489227295,"60":-0.9435470700263977,"61":-0.008730079978704453,"62":-0.1490178257226944,"63":-0.5168697834014893,"64":0.8596925139427185,"65":0.9621050953865051,"66":0.017579592764377594,"67":-0.2673468589782715,"68":-0.3997136950492859,"69":-0.08599813282489777,"70":-0.45804327726364136,"71":0.25570136308670044,"72":0.9985476136207581,"73":-0.8824009895324707,"74":-1.1371179819107056,"75":0.40503495931625366,"76":-0.8128658533096313,"77":-0.15604721009731293,"78":0.03365730866789818,"79":-0.6435691118240356,"80":0.006066469009965658,"81":0.54794842004776,"82":0.21835418045520782,"83":0.6603198051452637,"84":0.5569517016410828,"85":-0.7217733263969421,"86":-0.5807534456253052,"87":-0.6067457795143127,"88":-0.7140390276908875,"89":0.19155742228031158,"90":0.6139974594116211,"91":0.5723045468330383,"92":-0.7333547472953796,"93":-0.5880695581436157,"94":-0.02185043878853321,"95":1.138695240020752,"96":0.0808994397521019,"97":-0.5354048609733582,"98":0.9754821062088013,"99":-0.18212835490703583,"100":-0.7338730692863464,"101":-0.24772833287715912,"102":-0.9515835642814636,"103":-0.9767259359359741,"104":1.0039098262786865,"105":0.73944091796875,"106":0.3905535042285919,"107":0.6040388941764832,"108":-0.22133345901966095,"109":-0.8048957586288452,"110":-0.7140401601791382,"111":0.9428026080131531,"112":1.14029061794281,"113":0.06755317747592926,"114":-0.6769130825996399,"115":0.034222930669784546,"116":-0.06998281180858612,"117":-0.7416152358055115,"118":0.0710170567035675,"119":0.4256611168384552,"120":0.14784955978393555,"121":0.8626286387443542,"122":0.7762548327445984,"123":-0.5464891791343689,"124":-0.25861063599586487,"125":-0.4476010799407959,"126":-0.522818922996521,"127":0.4344717264175415,"128":0.6540202498435974,"129":0.8198145627975464,"130":-0.7408934235572815,"131":-0.5302721261978149,"132":-0.13392919301986694,"133":-0.02215242199599743,"134":-0.5750491619110107,"135":0.4770113229751587,"136":0.06177758425474167,"137":0.6093734502792358,"138":0.8232210278511047,"139":0.8448761105537415,"140":-0.5165348052978516,"141":0.3484354019165039,"142":-0.38588738441467285,"143":-0.28997090458869934,"144":-0.3114088177680969,"145":-0.5380519032478333,"146":0.038856882601976395,"147":0.07610302418470383,"148":-0.11473917216062546,"149":0.17211507260799408,"150":-0.3643578588962555,"151":-1.555195689201355,"152":-0.3350064158439636,"153":0.08725559711456299,"154":-0.4390031099319458,"155":-0.6850919127464294,"156":0.008172158151865005,"157":-0.004196780268102884,"158":-0.1287231594324112,"159":0.8052297234535217,"160":0.6993314027786255,"161":-0.18834909796714783,"162":-0.31765875220298767,"163":-0.25629380345344543,"164":-0.20343439280986786,"165":-0.186049684882164,"166":0.32085925340652466,"167":0.6626176834106445,"168":-0.7267974019050598,"169":-0.9042866826057434,"170":0.05624845623970032,"171":1.2365611791610718,"172":0.13853062689304352,"173":-0.5478782653808594,"174":0.7879015803337097,"175":-0.10343626141548157,"176":-0.5049112439155579,"177":-0.18025831878185272,"178":-0.7204192876815796,"179":-0.6085069179534912,"180":0.5164574980735779,"181":0.2884093225002289,"182":0.6415973901748657,"183":0.4632752239704132,"184":-0.4483141005039215,"185":-0.5082065463066101,"186":-0.668314516544342,"187":1.006872534751892,"188":0.7688289284706116,"189":0.036911945790052414,"190":-0.5272873044013977,"191":-0.07314149290323257,"192":0.016437556594610214,"193":-0.9436293840408325,"194":-0.23310212790966034,"195":0.6727703809738159,"196":0.05978872999548912,"197":1.0948890447616577,"198":1.0097849369049072,"199":-0.8528906106948853,"200":-0.8398649096488953,"201":-0.848703145980835,"202":-0.7843499779701233,"203":-0.21797315776348114,"204":0.9068343639373779,"205":0.950840413570404,"206":-0.9654345512390137,"207":-1.2455549240112305,"208":0.12878286838531494,"209":1.040105938911438,"210":-0.016812847927212715,"211":-0.21803925931453705,"212":0.9810457825660706,"213":0.06744040548801422,"214":-0.5928450226783752,"215":-0.006313785444945097,"216":-0.9781662225723267,"217":-0.9388896822929382,"218":0.7793947458267212,"219":0.3344147801399231,"220":0.4510113000869751,"221":0.3542774021625519,"222":-0.2905116677284241,"223":-0.5749222040176392,"224":-1.0388591289520264,"225":0.8563191294670105,"226":0.8813685774803162,"227":-0.015493673272430897,"228":0.7561191320419312,"229":-0.002274187747389078,"230":0.07557901740074158,"231":0.6721433401107788,"232":-0.01740441843867302,"233":-0.12692643702030182,"234":-0.04811463505029678,"235":-0.4915130138397217,"236":-0.3433172404766083,"237":0.37899962067604065,"238":0.48930174112319946,"239":0.586122989654541,"240":0.24523423612117767,"241":0.016561351716518402,"242":-0.2882212698459625,"243":-0.2519438564777374,"244":0.7990596294403076,"245":0.3216114342212677,"246":-0.3119874596595764,"247":1.0236098766326904,"248":0.1829347014427185,"249":-0.18833474814891815,"250":1.1543374061584473,"251":-0.0068837618455290794,"252":-0.7141373157501221,"253":-0.09150049835443497,"254":-0.8380085825920105,"255":-1.0551828145980835,"256":0.8786712288856506,"257":0.23862071335315704,"258":0.47276726365089417,"259":0.27909958362579346,"260":-0.33896946907043457,"261":-0.5622145533561707,"262":-1.0744271278381348,"263":0.7514598965644836,"264":0.9214714765548706,"265":-0.1069742739200592,"266":0.1354345828294754,"267":-0.3670729398727417,"268":0.45471104979515076,"269":-0.15945102274417877,"270":0.8854997754096985,"271":0.11739776283502579,"272":0.5629904866218567,"273":0.333958238363266,"274":0.13880334794521332,"275":-0.20017321407794952,"276":0.08003853261470795,"277":0.1951611191034317,"278":-0.04592232033610344,"279":0.5609270334243774,"280":0.184175506234169,"281":0.11924652755260468,"282":-0.030538085848093033,"283":-0.06510280817747116,"284":-0.6169668436050415,"285":-0.014756415970623493,"286":0.24459034204483032,"287":-0.4081711769104004,"288":-1.00595223903656,"289":-0.38687196373939514,"290":0.6913327574729919,"291":-0.19460798799991608,"292":0.8384197354316711,"293":0.809525191783905,"294":-0.5861904621124268,"295":-0.4922729432582855,"296":-0.6773831248283386,"297":-0.2936544716358185,"298":-0.0660768672823906,"299":0.7515632510185242,"300":1.1418989896774292,"301":-0.5357943177223206,"302":-0.8100090622901917,"303":0.4641649127006531,"304":0.4168170690536499,"305":0.5022336840629578,"306":-0.8716676831245422,"307":-0.20446836948394775,"308":-0.02308427169919014,"309":0.5483253598213196,"310":-0.5225856304168701,"311":0.2988505959510803,"312":0.1683981567621231,"313":-0.5404329299926758,"314":-0.34910309314727783,"315":-0.4732619822025299,"316":-0.6421005725860596,"317":-0.12308753281831741,"318":0.41674336791038513,"319":0.24461150169372559,"320":-0.2975887954235077,"321":-0.015942290425300598,"322":0.36657464504241943,"323":1.0983307361602783,"324":-0.6343153119087219,"325":-0.5826554894447327,"326":0.5297713279724121,"327":1.0734392404556274,"328":0.2737672030925751,"329":0.8616137504577637,"330":-0.32780542969703674,"331":-0.22661644220352173,"332":-0.418958455324173,"333":-0.18226005136966705,"334":0.1270415186882019,"335":-0.5797373056411743,"336":-0.13510890305042267,"337":0.15609335899353027,"338":-0.3419364094734192,"339":0.6488438844680786,"340":0.15918520092964172,"341":-1.2695562839508057,"342":0.5810855031013489,"343":-0.11911901831626892,"344":0.26860907673835754,"345":0.889398992061615,"346":-0.0729326531291008,"347":-0.47499844431877136,"348":0.05301860347390175,"349":-0.8783100843429565,"350":-0.900814950466156,"351":0.7008674144744873,"352":0.28585895895957947,"353":0.506403386592865,"354":0.6414117813110352,"355":-0.11542205512523651,"356":-0.7582845091819763,"357":-0.9712204933166504,"358":0.7287241220474243,"359":0.8224538564682007,"360":0.0812370628118515,"361":0.09152790158987045,"362":-0.047959133982658386,"363":0.10581440478563309,"364":0.8698393702507019,"365":-0.1892702579498291,"366":-0.4802751839160919,"367":-0.016496410593390465,"368":-0.9241498708724976,"369":-0.9135202765464783,"370":0.8800649046897888,"371":0.3762401342391968,"372":0.3388618528842926,"373":0.48151007294654846,"374":-0.15328967571258545,"375":-0.9603090286254883,"376":-0.9578611254692078,"377":0.5895203351974487,"378":0.896885335445404,"379":0.144150048494339}},"cellActivationHidden":{"rows":20,"columns":20,"weights":{"0":0.2964005172252655,"1":0.05240428447723389,"2":1.4642058610916138,"3":0.6256514191627502,"4":-0.016847770661115646,"5":-1.7743268013000488,"6":0.23449380695819855,"7":1.0444542169570923,"8":0.4678228795528412,"9":-0.6213223934173584,"10":0.7829195261001587,"11":-0.11019311845302582,"12":-0.46637222170829773,"13":-0.16358867287635803,"14":0.4775761365890503,"15":-0.23974648118019104,"16":-0.30933427810668945,"17":0.7965773344039917,"18":-0.13122306764125824,"19":-0.44405269622802734,"20":-0.21781639754772186,"21":0.024409404024481773,"22":-0.011206937953829765,"23":-0.4088074564933777,"24":0.01095411367714405,"25":0.20842982828617096,"26":0.38431960344314575,"27":-0.1063305214047432,"28":-0.1109241470694542,"29":-0.1083027645945549,"30":-0.5690789818763733,"31":0.0032408980187028646,"32":0.5624820590019226,"33":0.06836617738008499,"34":0.6462716460227966,"35":0.2548541724681854,"36":0.45372557640075684,"37":0.097800113260746,"38":-0.4007915258407593,"39":-0.37786051630973816,"40":0.2759076654911041,"41":-0.046326976269483566,"42":-0.7598743438720703,"43":1.2231403589248657,"44":0.4040248990058899,"45":-0.6305442452430725,"46":0.635114848613739,"47":0.7929700016975403,"48":0.6824033856391907,"49":-1.1693851947784424,"50":1.017772912979126,"51":-0.07323605567216873,"52":-1.2772796154022217,"53":-0.09019012749195099,"54":0.44008663296699524,"55":0.3728879988193512,"56":0.03219136595726013,"57":0.2293914407491684,"58":-0.49929243326187134,"59":-0.5468594431877136,"60":0.24276630580425262,"61":-0.011087258346378803,"62":0.2904355525970459,"63":-0.06362684816122055,"64":-0.1951230764389038,"65":0.29745054244995117,"66":0.7673996090888977,"67":-0.8696622252464294,"68":-0.34600573778152466,"69":0.4402594268321991,"70":0.009815157391130924,"71":0.03428834676742554,"72":0.15130499005317688,"73":0.20313571393489838,"74":0.8996142745018005,"75":-0.07354322075843811,"76":0.7488642334938049,"77":-0.9397326111793518,"78":-0.7313524484634399,"79":-1.007606029510498,"80":-0.36203888058662415,"81":0.3506743907928467,"82":0.1552519053220749,"83":-0.2691834568977356,"84":0.27593299746513367,"85":0.33026501536369324,"86":0.3072391152381897,"87":-0.37426891922950745,"88":-0.2579575479030609,"89":-0.04254612326622009,"90":-0.463674396276474,"91":-0.28514137864112854,"92":0.3694941997528076,"93":-0.3028649389743805,"94":0.2154567390680313,"95":0.4790026843547821,"96":0.2992294430732727,"97":-0.26582592725753784,"98":-0.34181085228919983,"99":-0.13021305203437805,"100":0.31934282183647156,"101":-0.34242719411849976,"102":-0.23477263748645782,"103":0.39676785469055176,"104":-0.23027153313159943,"105":-0.4210658073425293,"106":-0.19085818529129028,"107":0.5004828572273254,"108":0.3594842255115509,"109":-0.5144398808479309,"110":0.3155997097492218,"111":0.45026177167892456,"112":-0.2190629243850708,"113":0.4171856641769409,"114":-0.06697998940944672,"115":-0.27864277362823486,"116":-0.2973841428756714,"117":0.24505844712257385,"118":0.12274234741926193,"119":0.1075868159532547,"120":0.7527036666870117,"121":-0.6017460823059082,"122":0.007034368347376585,"123":0.796562671661377,"124":-0.6454411149024963,"125":-0.9620342254638672,"126":0.1551889032125473,"127":0.2276458740234375,"128":0.30456671118736267,"129":-0.9319825172424316,"130":0.5825513601303101,"131":0.65971440076828,"132":-0.7986186742782593,"133":0.6109583377838135,"134":0.18583102524280548,"135":-0.0039308760315179825,"136":-0.17610013484954834,"137":0.652844250202179,"138":-0.3747081756591797,"139":-0.3529980480670929,"140":-1.1829955577850342,"141":0.558333158493042,"142":-0.39069727063179016,"143":-0.3457658588886261,"144":0.4913749694824219,"145":0.29157134890556335,"146":-0.3292897045612335,"147":1.1878015995025635,"148":-0.30396270751953125,"149":0.17826807498931885,"150":-0.5922776460647583,"151":-0.476754367351532,"152":0.6253631711006165,"153":-0.5299434661865234,"154":0.6145550012588501,"155":0.15252143144607544,"156":0.9928656220436096,"157":0.5428229570388794,"158":0.2924351990222931,"159":-1.1106318235397339,"160":0.3340592384338379,"161":0.19176888465881348,"162":0.5900076031684875,"163":-0.8500482439994812,"164":-0.0971846729516983,"165":0.3811730742454529,"166":-0.0042800866067409515,"167":-0.7273029088973999,"168":-0.3940921425819397,"169":0.7848478555679321,"170":-0.4791924059391022,"171":-0.1733016073703766,"172":0.5647025108337402,"173":-0.058678511530160904,"174":-0.07184480875730515,"175":0.1428208202123642,"176":0.3047967255115509,"177":-0.5954158306121826,"178":-0.026527099311351776,"179":-0.04131600260734558,"180":0.27599602937698364,"181":-0.3426739275455475,"182":0.020052488893270493,"183":0.5229617953300476,"184":-0.39796945452690125,"185":-0.29711756110191345,"186":-0.3744189739227295,"187":0.7921589016914368,"188":0.11778111755847931,"189":-0.744704008102417,"190":0.48523780703544617,"191":0.19180582463741302,"192":-0.43930432200431824,"193":0.28012311458587646,"194":-0.10997723788022995,"195":-0.19430498778820038,"196":-0.6103273630142212,"197":0.3171014189720154,"198":0.35910096764564514,"199":0.05944885313510895,"200":-0.18731346726417542,"201":0.6061586141586304,"202":0.2167881578207016,"203":-0.25624653697013855,"204":0.31331634521484375,"205":0.28066688776016235,"206":0.3940415382385254,"207":-0.5268080234527588,"208":-0.6370256543159485,"209":0.4974026083946228,"210":-0.2109270691871643,"211":-0.49329304695129395,"212":0.08035381138324738,"213":-0.47945502400398254,"214":0.4883788526058197,"215":-0.06977052241563797,"216":0.09582917392253876,"217":-0.1810949742794037,"218":-0.2896377742290497,"219":-0.40538662672042847,"220":0.24966152012348175,"221":-0.24728931486606598,"222":-0.05847610905766487,"223":0.3127419054508209,"224":-0.18805411458015442,"225":-0.0531938299536705,"226":-0.4372287392616272,"227":0.22027210891246796,"228":0.17798210680484772,"229":0.27584782242774963,"230":0.309054970741272,"231":0.1013505607843399,"232":-0.32344043254852295,"233":0.26570025086402893,"234":-0.45277997851371765,"235":-0.5080484747886658,"236":-0.3812951445579529,"237":0.0688047707080841,"238":0.47951194643974304,"239":0.3467721939086914,"240":-0.3822568356990814,"241":0.066539466381073,"242":-0.615787148475647,"243":0.5131206512451172,"244":0.1059487983584404,"245":-0.5511462688446045,"246":-0.43884512782096863,"247":1.1685402393341064,"248":0.6223813891410828,"249":-0.8361508846282959,"250":0.5757295489311218,"251":-0.10893978178501129,"252":-0.5541973114013672,"253":-0.03597661107778549,"254":-0.6822444796562195,"255":-0.3272193968296051,"256":0.12909121811389923,"257":-0.14038124680519104,"258":0.5039217472076416,"259":0.23502612113952637,"260":-0.008922647684812546,"261":-0.16101571917533875,"262":-0.014538807794451714,"263":0.3094194233417511,"264":-0.1833939552307129,"265":0.13104170560836792,"266":-0.5185046792030334,"267":0.3013933598995209,"268":0.07795248180627823,"269":0.5830321311950684,"270":0.3098675310611725,"271":0.023998212069272995,"272":-0.20974014699459076,"273":0.18412333726882935,"274":-0.4485330879688263,"275":-0.4186801612377167,"276":-0.4861195683479309,"277":0.02677132934331894,"278":0.46246230602264404,"279":0.32638904452323914,"280":0.9884032011032104,"281":-0.7264212369918823,"282":-0.231827974319458,"283":0.774618923664093,"284":-0.6369472146034241,"285":-0.19176173210144043,"286":0.1390174776315689,"287":0.13606423139572144,"288":0.2508060336112976,"289":-0.13326844573020935,"290":0.5903145670890808,"291":0.8199502825737,"292":-0.6288970112800598,"293":0.7111178040504456,"294":0.05056680366396904,"295":-0.14694325625896454,"296":-0.12031373381614685,"297":0.3353859782218933,"298":-0.22491760551929474,"299":-0.008255108259618282,"300":0.3828413784503937,"301":-0.1654428094625473,"302":-0.033018458634614944,"303":0.38092878460884094,"304":-0.15356925129890442,"305":-0.30100882053375244,"306":0.7961134314537048,"307":-0.34454652667045593,"308":0.16103985905647278,"309":-0.5147606134414673,"310":0.029444575309753418,"311":0.33249273896217346,"312":-0.4552207887172699,"313":0.30318331718444824,"314":0.03766245394945145,"315":0.0904487669467926,"316":-0.3688097596168518,"317":-0.037231940776109695,"318":-0.9069050550460815,"319":0.1628877967596054,"320":0.9827458262443542,"321":-1.5946632623672485,"322":0.6875156164169312,"323":0.5002245306968689,"324":-1.7285785675048828,"325":1.2190693616867065,"326":-0.48788565397262573,"327":0.2862150967121124,"328":-0.7675377726554871,"329":1.1377193927764893,"330":-0.2114044576883316,"331":1.879583716392517,"332":-0.01588529907166958,"333":1.7024376392364502,"334":0.04503950849175453,"335":-0.5353831052780151,"336":-0.7654258012771606,"337":0.18827717006206512,"338":0.2597629725933075,"339":0.16674013435840607,"340":-0.7444519400596619,"341":1.3537315130233765,"342":0.16087129712104797,"343":-0.28170156478881836,"344":0.7547152042388916,"345":-0.13660961389541626,"346":0.41161462664604187,"347":0.4399527609348297,"348":-0.34541070461273193,"349":0.23671047389507294,"350":0.022051222622394562,"351":-1.3696269989013672,"352":-0.10695720463991165,"353":-1.1996650695800781,"354":0.8629500865936279,"355":-0.08804747462272644,"356":0.46035006642341614,"357":0.0528700053691864,"358":-0.19022014737129211,"359":-1.2869372367858887,"360":-0.8798028230667114,"361":0.5663999915122986,"362":0.360710084438324,"363":-0.6908969879150391,"364":0.6426571011543274,"365":0.11402393877506256,"366":-0.09662254899740219,"367":-0.09697585552930832,"368":-0.21161504089832306,"369":0.4235983192920685,"370":-0.39612218737602234,"371":-0.8509076833724976,"372":0.5122897028923035,"373":-0.7224487066268921,"374":0.045616503804922104,"375":0.006074842531234026,"376":0.29814937710762024,"377":-0.3566127121448517,"378":0.21435511112213135,"379":-0.09187915921211243,"380":-0.8382520079612732,"381":0.6020188927650452,"382":0.27536407113075256,"383":-0.8740584254264832,"384":0.4475899934768677,"385":0.18539057672023773,"386":-0.07404275238513947,"387":0.08732667565345764,"388":-0.23332254588603973,"389":0.3541220426559448,"390":-0.6120994687080383,"391":-0.8628306984901428,"392":0.603346049785614,"393":-0.7624502778053284,"394":0.02672411873936653,"395":0.0019503083312883973,"396":0.5405688285827637,"397":-0.44193562865257263,"398":0.26143211126327515,"399":-0.08338399231433868}},"cellActivationBias":{"rows":20,"columns":1,"weights":{"0":-0.06222322955727577,"1":0.24759827554225922,"2":0.11306221783161163,"3":-0.10220786929130554,"4":0.24332593381404877,"5":-0.05398721992969513,"6":0.2287556231021881,"7":-2.1854584217071533,"8":-0.16388215124607086,"9":0.04229361191391945,"10":0.05058063194155693,"11":-0.12863436341285706,"12":-0.9731278419494629,"13":-0.24980802834033966,"14":0.50987309217453,"15":0.3427134156227112,"16":0.04685668274760246,"17":-0.7903205156326294,"18":-0.27643632888793945,"19":-0.4065273702144623}}},{"inputMatrix":{"rows":20,"columns":20,"weights":{"0":-0.7598519325256348,"1":0.9862551093101501,"2":-0.960639238357544,"3":1.0520572662353516,"4":1.4844756126403809,"5":0.1963891088962555,"6":0.14805984497070312,"7":1.0264126062393188,"8":-0.136890709400177,"9":-1.340942144393921,"10":-0.04868351295590401,"11":-1.0349165201187134,"12":-0.2510107755661011,"13":-1.1048907041549683,"14":-0.5207173228263855,"15":-0.24605974555015564,"16":-0.5858802199363708,"17":0.6254648566246033,"18":0.07528384029865265,"19":0.8829716444015503,"20":0.741514265537262,"21":-0.35240766406059265,"22":1.586605429649353,"23":-0.8522559404373169,"24":-0.7772778272628784,"25":1.0604981184005737,"26":-0.6403207182884216,"27":1.5176913738250732,"28":-1.3370054960250854,"29":1.2372304201126099,"30":-1.892857313156128,"31":0.47239139676094055,"32":0.8052880167961121,"33":0.30603253841400146,"34":-1.0887384414672852,"35":0.039950743317604065,"36":-0.2765433192253113,"37":1.0464026927947998,"38":0.36943647265434265,"39":0.8618936538696289,"40":-0.6331634521484375,"41":0.6243439316749573,"42":-0.9243600368499756,"43":0.4577164351940155,"44":1.1165411472320557,"45":-3.268601179122925,"46":-0.1225949227809906,"47":1.3938183784484863,"48":2.037909507751465,"49":-2.6857776641845703,"50":0.7830859422683716,"51":-0.36316439509391785,"52":-1.1019057035446167,"53":-0.1612306386232376,"54":-0.4186500012874603,"55":1.0989571809768677,"56":-0.42481529712677,"57":1.528185248374939,"58":0.0399540439248085,"59":-0.25396692752838135,"60":0.2588505446910858,"61":-0.6120228171348572,"62":-0.39400792121887207,"63":0.17176921665668488,"64":0.007068057078868151,"65":-2.0673694610595703,"66":-1.0558829307556152,"67":-0.2465047538280487,"68":0.342368483543396,"69":-1.2845008373260498,"70":-0.7066820859909058,"71":0.2805178165435791,"72":0.41569724678993225,"73":0.11409509927034378,"74":-0.9168593883514404,"75":-0.9428080320358276,"76":-0.6470621824264526,"77":-0.7135326266288757,"78":1.3800362348556519,"79":0.5601123571395874,"80":0.6809089183807373,"81":-0.4797418415546417,"82":-0.8640611171722412,"83":0.7316939830780029,"84":-0.3965020775794983,"85":-2.1554808616638184,"86":0.23778916895389557,"87":1.3158982992172241,"88":0.8596044182777405,"89":-0.63645339012146,"90":1.2397180795669556,"91":0.4246373176574707,"92":-1.2601603269577026,"93":0.49919751286506653,"94":-0.02677670121192932,"95":1.3584399223327637,"96":0.809256911277771,"97":1.635853886604309,"98":-0.7746734619140625,"99":-0.43756338953971863,"100":0.2684793472290039,"101":0.7353636622428894,"102":1.3879321813583374,"103":0.35619717836380005,"104":0.6523053646087646,"105":0.6465579867362976,"106":-1.2081305980682373,"107":0.737113893032074,"108":-0.3963252604007721,"109":0.7860564589500427,"110":-2.3695271015167236,"111":-0.5939715504646301,"112":2.868413209915161,"113":-0.03154066205024719,"114":-1.8062243461608887,"115":0.14936845004558563,"116":-1.3423497676849365,"117":-0.284699410200119,"118":1.38081693649292,"119":2.6248161792755127,"120":-1.4404605627059937,"121":-0.28264859318733215,"122":-0.14795871078968048,"123":-0.2714238166809082,"124":-0.33487629890441895,"125":-0.6035628914833069,"126":0.1756821721792221,"127":-1.1315984725952148,"128":-0.0916939377784729,"129":-2.0812082290649414,"130":-0.0708533376455307,"131":-0.3241407871246338,"132":-1.192899465560913,"133":-0.29508301615715027,"134":0.6771733164787292,"135":-0.13905712962150574,"136":-0.5311511754989624,"137":1.0406122207641602,"138":0.5621026754379272,"139":-0.27229341864585876,"140":-0.1219438686966896,"141":0.3969956636428833,"142":0.3410084545612335,"143":0.08015654981136322,"144":0.857153594493866,"145":-0.6504085063934326,"146":0.4910484552383423,"147":2.1155595779418945,"148":-0.4094020426273346,"149":-0.42920446395874023,"150":0.5207836031913757,"151":-0.4425080418586731,"152":-0.7940980195999146,"153":-0.4498547315597534,"154":0.015048520639538765,"155":-0.4952790439128876,"156":0.06234147772192955,"157":1.8721846342086792,"158":-1.427965760231018,"159":0.4270913004875183,"160":-0.2984875738620758,"161":0.751166045665741,"162":-1.8528270721435547,"163":-0.04289405792951584,"164":0.850540816783905,"165":-2.6103570461273193,"166":0.7481133937835693,"167":1.234004259109497,"168":1.1603717803955078,"169":-1.716549277305603,"170":0.19984038174152374,"171":-0.7752187848091125,"172":0.6760187745094299,"173":-0.8716884851455688,"174":1.143533706665039,"175":0.6108618378639221,"176":0.7681354284286499,"177":0.6755810379981995,"178":0.20062145590782166,"179":-1.147260308265686,"180":-0.2483067661523819,"181":-0.52132248878479,"182":0.6477905511856079,"183":1.344683289527893,"184":-0.4566136300563812,"185":1.5470170974731445,"186":0.1366416960954666,"187":0.6313812136650085,"188":-1.1454598903656006,"189":0.8095971941947937,"190":1.2973906993865967,"191":0.5178077220916748,"192":-0.7428727746009827,"193":0.37277454137802124,"194":-0.16808947920799255,"195":-2.018214464187622,"196":-1.5097064971923828,"197":-0.2341330349445343,"198":-0.6317740678787231,"199":0.18383778631687164,"200":-0.5689878463745117,"201":-0.6765487194061279,"202":-0.9616889357566833,"203":0.45422324538230896,"204":-1.6241254806518555,"205":0.19445493817329407,"206":-1.9722471237182617,"207":2.109647035598755,"208":-0.23160165548324585,"209":0.42204776406288147,"210":-0.7244844436645508,"211":0.5957956910133362,"212":0.03971397504210472,"213":0.368266761302948,"214":-1.8622140884399414,"215":-0.06484667211771011,"216":0.22773918509483337,"217":1.428833246231079,"218":0.8809217214584351,"219":2.0102667808532715,"220":-1.3526493310928345,"221":1.086978793144226,"222":-1.957339882850647,"223":-0.2199169099330902,"224":0.2716742753982544,"225":0.05507117137312889,"226":1.3114062547683716,"227":1.3793987035751343,"228":0.2598155438899994,"229":-0.6050328612327576,"230":-0.3006839454174042,"231":-0.79342120885849,"232":-1.1194500923156738,"233":-0.16866081953048706,"234":0.8532986640930176,"235":1.069769263267517,"236":0.6532345414161682,"237":0.4003881514072418,"238":-0.8807405233383179,"239":-0.8904030323028564,"240":-1.7722805738449097,"241":-0.4860886335372925,"242":0.3732846677303314,"243":-0.7118889093399048,"244":-0.6085703372955322,"245":-0.1875055581331253,"246":-0.6167604327201843,"247":1.3052527904510498,"248":-0.30866771936416626,"249":-0.4748777747154236,"250":-1.2951350212097168,"251":0.29540690779685974,"252":0.4048957824707031,"253":0.16674494743347168,"254":0.6035144925117493,"255":1.5041379928588867,"256":0.20711113512516022,"257":2.6462197303771973,"258":1.0714333057403564,"259":-0.5583307147026062,"260":-1.0971251726150513,"261":0.6173307299613953,"262":0.5762782096862793,"263":-1.1346064805984497,"264":0.19376271963119507,"265":0.06716930866241455,"266":-1.8807085752487183,"267":1.4451712369918823,"268":-0.10770118236541748,"269":0.26749444007873535,"270":-2.0721521377563477,"271":-0.47693565487861633,"272":1.2884831428527832,"273":-0.5288255214691162,"274":-0.7980400919914246,"275":0.37730729579925537,"276":-1.0961673259735107,"277":1.9186975955963135,"278":2.2126569747924805,"279":0.8204478621482849,"280":-1.1645961999893188,"281":1.8657270669937134,"282":-0.7432013154029846,"283":-1.305699348449707,"284":1.7495532035827637,"285":0.07092291116714478,"286":-0.6182645559310913,"287":1.702347993850708,"288":0.6301760673522949,"289":0.11218134313821793,"290":-1.8051519393920898,"291":-1.5548787117004395,"292":2.3919119834899902,"293":-1.5565226078033447,"294":-1.3276424407958984,"295":1.0451815128326416,"296":-0.3328995704650879,"297":2.010714530944824,"298":1.4220304489135742,"299":1.7370378971099854,