{"type":"LSTM","options":{"inputSize":37,"inputRange":37,"hiddenSizes":[20,20],"outputSize":37,"learningRate":0.01,"decayRate":0.999,"smoothEps":1e-8,"regc":0.000001,"clipval":5,"json":null,"dataFormatter":{"values":["Computer is the latest technology which is used almost everywhere"," It has made possible to do large amount of works in very small time"," It has reduced the man effort in the offices means it gives high level of work output in very small time, less effort, low man power, etc"," Now a day, it has become hard to imagine our lives without computer"," We can use internet in the computer which gives us lots of required information on any subject in very less time"," There are great contributions of the computer in the lives of human being"," It is playing big role in every field and helping us every single moment"," Old generations of the computer were less effective with less functions but new generations of it are amazing with high capacity, easy to handle and more functions","\r\n\r\nFuture generations of the computer would be more effective and lots of functioning"," It has made our life easier"," Using this we can easily learn anything and enhance our skill"," We can get any information about any service or product or other thing within no time"," We can buy anything online using computer and internet and get free delivery"," It is very useful for the preparation of project work of any student reading in any class",""],"indexTable":{"C":0,"o":1,"m":2,"p":3,"u":4,"t":5,"e":6,"r":7," ":8,"i":9,"s":10,"h":11,"l":12,"a":13,"c":14,"n":15,"g":16,"y":17,"w":18,"d":19,"v":20,"I":21,"b":22,"f":23,"k":24,",":25,"N":26,"W":27,"q":28,"j":29,"T":30,"O":31,"z":32,"\r":33,"\n":34,"F":35,"U":36},"characterTable":{"0":"C","1":"o","2":"m","3":"p","4":"u","5":"t","6":"e","7":"r","8":" ","9":"i","10":"s","11":"h","12":"l","13":"a","14":"c","15":"n","16":"g","17":"y","18":"w","19":"d","20":"v","21":"I","22":"b","23":"f","24":"k","25":",","26":"N","27":"W","28":"q","29":"j","30":"T","31":"O","32":"z","33":"\r","34":"\n","35":"F","36":"U"},"characters":["C","o","m","p","u","t","e","r"," ","i","s","h","l","a","c","n","g","y","w","d","v","I","b","f","k",",","N","W","q","j","T","O","z","\r","\n","F","U"]}},"input":{"rows":38,"columns":37,"weights":{"0":1.2091161012649536,"1":-2.518022060394287,"2":-1.9215245246887207,"3":-0.6862044334411621,"4":5.916386604309082,"5":-3.2698659896850586,"6":-0.19060933589935303,"7":-0.5324750542640686,"8":2.886441230773926,"9":0.677924633026123,"10":-2.3134212493896484,"11":0.7527471780776978,"12":-5.364960193634033,"13":-3.6552681922912598,"14":-1.3527812957763672,"15":-4.692877292633057,"16":2.7938389778137207,"17":-1.767366647720337,"18":-1.4178014993667603,"19":2.4569313526153564,"20":2.916228771209717,"21":0.5640793442726135,"22":1.507494330406189,"23":1.0905787944793701,"24":3.4993278980255127,"25":2.6569809913635254,"26":-2.72209095954895,"27":2.9537622928619385,"28":-1.5916963815689087,"29":1.313955545425415,"30":0.44382861256599426,"31":-6.327286243438721,"32":-6.397458076477051,"33":2.7469968795776367,"34":3.274137020111084,"35":-1.8766024112701416,"36":0.025404470041394234,"37":-7.030794143676758,"38":10.867438316345215,"39":-1.4691659212112427,"40":-4.096898555755615,"41":4.420540809631348,"42":13.627562522888184,"43":-10.105664253234863,"44":4.872320652008057,"45":3.979050397872925,"46":-7.720252513885498,"47":7.969404697418213,"48":11.919230461120605,"49":-7.741109848022461,"50":22.714570999145508,"51":-9.64922046661377,"52":4.548310279846191,"53":-15.386862754821777,"54":-4.330373764038086,"55":-21.335411071777344,"56":3.7125983238220215,"57":12.051440238952637,"58":0.7118421196937561,"59":-14.34913444519043,"60":32.39741516113281,"61":-14.979290962219238,"62":6.826658248901367,"63":9.32387638092041,"64":-7.039853096008301,"65":-2.625157356262207,"66":13.406190872192383,"67":-18.805091857910156,"68":0.7436231374740601,"69":16.614154815673828,"70":-4.696430683135986,"71":0.5665522217750549,"72":-1.0893248319625854,"73":-2.5259506702423096,"74":0.9359842538833618,"75":6.904253959655762,"76":1.5100775957107544,"77":0.5923924446105957,"78":1.3885343074798584,"79":-1.3660472631454468,"80":0.33760303258895874,"81":0.7693256735801697,"82":-3.244556427001953,"83":-4.252331256866455,"84":-1.851369857788086,"85":-1.751770257949829,"86":-1.8338607549667358,"87":0.35386279225349426,"88":1.5220423936843872,"89":1.2910330295562744,"90":5.785655975341797,"91":-2.897104024887085,"92":-1.4628406763076782,"93":-1.5964380502700806,"94":0.7047051787376404,"95":2.922642946243286,"96":-0.7232203483581543,"97":-0.564630925655365,"98":-2.4834649562835693,"99":4.119227886199951,"100":3.895214557647705,"101":-3.4944992065429688,"102":1.567176342010498,"103":2.4385976791381836,"104":2.3902416229248047,"105":1.7693983316421509,"106":-3.9534945487976074,"107":0.21021610498428345,"108":-0.5033249258995056,"109":3.7043936252593994,"110":-3.796804904937744,"111":4.060306549072266,"112":-0.9571521878242493,"113":-5.48838996887207,"114":2.3429055213928223,"115":-5.952814102172852,"116":-2.24495005607605,"117":4.340851783752441,"118":0.8069765567779541,"119":0.8388903141021729,"120":0.23906561732292175,"121":2.9284868240356445,"122":-1.0806821584701538,"123":1.67090904712677,"124":-0.8784290552139282,"125":-0.3645583391189575,"126":-0.04222334921360016,"127":-5.97519588470459,"128":-2.4360265731811523,"129":0.6212238073348999,"130":0.963254988193512,"131":-3.016284227371216,"132":0.23817840218544006,"133":1.4176126718521118,"134":-2.065523147583008,"135":4.1561455726623535,"136":-6.0347700119018555,"137":3.307225465774536,"138":-4.7409772872924805,"139":-0.68021559715271,"140":0.45578667521476746,"141":-0.1776781976222992,"142":-5.341182708740234,"143":-0.028061285614967346,"144":1.044227123260498,"145":-2.460965394973755,"146":0.9529300928115845,"147":1.5418189764022827,"148":2.3612711429595947,"149":-1.7633882761001587,"150":-0.8245914578437805,"151":0.03951472416520119,"152":0.3959266245365143,"153":-8.410396575927734,"154":0.044615596532821655,"155":2.4578497409820557,"156":0.5636600255966187,"157":4.444581985473633,"158":-2.4586784839630127,"159":3.5853323936462402,"160":-9.26219367980957,"161":0.9094838500022888,"162":-1.7277172803878784,"163":-5.678476333618164,"164":0.4444596469402313,"165":-1.0885423421859741,"166":-1.9700089693069458,"167":2.1048154830932617,"168":3.8118159770965576,"169":-3.4278299808502197,"170":0.7736532688140869,"171":1.651455044746399,"172":9.148138046264648,"173":1.6993813514709473,"174":-5.87340784072876,"175":2.319925546646118,"176":2.503861904144287,"177":1.4604086875915527,"178":0.7318326830863953,"179":0.3287995755672455,"180":-1.660984754562378,"181":1.3512204885482788,"182":0.04291754961013794,"183":-0.4220522344112396,"184":6.20828914642334,"185":0.6661030054092407,"186":-0.9155181050300598,"187":4.701448440551758,"188":-0.6804275512695312,"189":7.919795036315918,"190":4.975291728973389,"191":-1.4499635696411133,"192":-2.0605857372283936,"193":5.258537769317627,"194":-4.201417446136475,"195":2.0025670528411865,"196":1.4594866037368774,"197":-0.3504447340965271,"198":2.1766915321350098,"199":0.7578771114349365,"200":0.9229651689529419,"201":2.914358139038086,"202":0.6016238927841187,"203":-2.411712646484375,"204":-1.7354964017868042,"205":-0.46755340695381165,"206":-1.7836179733276367,"207":0.4614543914794922,"208":-1.581619381904602,"209":-3.281324863433838,"210":0.9509631991386414,"211":-0.6262176036834717,"212":0.30488985776901245,"213":-2.712571382522583,"214":-2.1975369453430176,"215":3.6207895278930664,"216":-0.11052941530942917,"217":3.9086079597473145,"218":0.1591145098209381,"219":-0.5789892673492432,"220":4.410927772521973,"221":-1.895241141319275,"222":2.685073137283325,"223":1.4629265069961548,"224":-2.541494607925415,"225":0.6694520711898804,"226":3.5660898685455322,"227":-2.425035238265991,"228":1.1338697671890259,"229":-0.5677703619003296,"230":8.404924392700195,"231":-1.4855155944824219,"232":1.138213872909546,"233":-5.071621417999268,"234":0.16022294759750366,"235":-3.002490282058716,"236":-1.1003212928771973,"237":-3.935330867767334,"238":1.5972362756729126,"239":0.02312563732266426,"240":-4.436614513397217,"241":1.1205103397369385,"242":3.6075515747070312,"243":1.452339768409729,"244":-2.3835549354553223,"245":0.1735115945339203,"246":-3.4177544116973877,"247":10.677860260009766,"248":-0.9271621704101562,"249":-6.582853317260742,"250":2.1801788806915283,"251":-2.703376531600952,"252":3.1253228187561035,"253":1.5156749486923218,"254":-1.939363718032837,"255":-0.17607587575912476,"256":3.1521692276000977,"257":3.612030029296875,"258":3.517664909362793,"259":4.380122184753418,"260":3.24181866645813,"261":3.127027988433838,"262":0.309676855802536,"263":-4.311198711395264,"264":-4.4346747398376465,"265":-0.8044739961624146,"266":0.2707222104072571,"267":-1.9628071784973145,"268":-1.915771484375,"269":-3.841871976852417,"270":0.10321793705224991,"271":-7.127389907836914,"272":-0.47288504242897034,"273":-2.3144686222076416,"274":-1.043089747428894,"275":2.598947763442993,"276":1.5069465637207031,"277":-0.9752686023712158,"278":-2.619190216064453,"279":-0.6660347580909729,"280":3.080930233001709,"281":-6.095352649688721,"282":-0.6570360660552979,"283":-1.4606666564941406,"284":0.3311307430267334,"285":-1.481489896774292,"286":-3.928760051727295,"287":-0.00577178131788969,"288":2.794830560684204,"289":-0.6310884952545166,"290":1.2326079607009888,"291":-1.6613072156906128,"292":0.48155704140663147,"293":-1.2622792720794678,"294":-0.0830504521727562,"295":2.8289706707000732,"296":-2.831986904144287,"297":-1.9645891189575195,"298":1.595712661743164,"299":-0.2627502381801605,"300":-1.4585967063903809,"301":-1.799749493598938,"302":-0.8039966225624084,"303":-1.0985698699951172,"304":0.6217381954193115,"305":0.8937390446662903,"306":2.6432559490203857,"307":-1.3075827360153198,"308":4.662011623382568,"309":-2.0915579795837402,"310":4.496030807495117,"311":1.6649328470230103,"312":-2.4089314937591553,"313":2.4153075218200684,"314":3.058055877685547,"315":1.9216135740280151,"316":-1.4862518310546875,"317":-0.7335104942321777,"318":2.612855911254883,"319":0.1306334286928177,"320":-1.0741311311721802,"321":-0.1062173843383789,"322":-0.7065503001213074,"323":1.5871171951293945,"324":9.006282806396484,"325":1.0036834478378296,"326":-3.3440937995910645,"327":1.6378519535064697,"328":-0.2910197675228119,"329":-2.0011038780212402,"330":1.446001410484314,"331":4.140984058380127,"332":0.16151775419712067,"333":-0.9024311304092407,"334":-0.21111060678958893,"335":1.2778736352920532,"336":0.6491202116012573,"337":2.5595571994781494,"338":0.7605571150779724,"339":2.88527512550354,"340":3.726548671722412,"341":0.7390526533126831,"342":-5.905941963195801,"343":-3.412672519683838,"344":7.365633964538574,"345":-1.6639577150344849,"346":-1.7439765930175781,"347":0.6410397887229919,"348":-5.743320465087891,"349":3.189230442047119,"350":-5.181213855743408,"351":0.42609864473342896,"352":-4.924416542053223,"353":3.079132318496704,"354":0.14053155481815338,"355":-6.935113906860352,"356":-0.29452189803123474,"357":0.4095313251018524,"358":-6.110779762268066,"359":-3.7712740898132324,"360":1.6447231769561768,"361":-5.394757270812988,"362":3.809264898300171,"363":1.372724175453186,"364":2.674957275390625,"365":-8.85655689239502,"366":1.0218167304992676,"367":-2.858943223953247,"368":-1.5313758850097656,"369":-1.9020565748214722,"370":-0.24748170375823975,"371":0.956682562828064,"372":-6.576732635498047,"373":2.5537471771240234,"374":-3.6213393211364746,"375":-1.22063148021698,"376":4.403224945068359,"377":-0.4426548480987549,"378":0.4385121762752533,"379":3.71244215965271,"380":2.7445406913757324,"381":-1.3355119228363037,"382":1.6584336757659912,"383":-6.832006454467773,"384":0.48992204666137695,"385":0.2298259139060974,"386":-5.881845951080322,"387":0.2724266052246094,"388":2.7882742881774902,"389":-2.433398962020874,"390":-1.4445828199386597,"391":1.8656535148620605,"392":-1.9572373628616333,"393":-5.132172107696533,"394":0.6921181082725525,"395":1.9305058717727661,"396":-4.543277740478516,"397":-2.0318102836608887,"398":3.141667366027832,"399":0.8422467112541199,"400":-5.029688358306885,"401":-0.3432186543941498,"402":-3.7304019927978516,"403":1.1660598516464233,"404":2.761343002319336,"405":-1.4218751192092896,"406":1.654714584350586,"407":-1.7176196575164795,"408":-7.250855445861816,"409":0.5872086882591248,"410":6.449718475341797,"411":-0.9231309294700623,"412":-2.909576892852783,"413":-1.9080324172973633,"414":1.2580864429473877,"415":1.3658448457717896,"416":3.0227603912353516,"417":4.596670150756836,"418":-1.8389326333999634,"419":-2.605248212814331,"420":1.421531081199646,"421":-3.7074599266052246,"422":-7.073321342468262,"423":1.4226465225219727,"424":1.7024095058441162,"425":-0.6117252707481384,"426":0.2272898554801941,"427":-1.1442878246307373,"428":-3.4537887573242188,"429":-1.9040433168411255,"430":1.8862100839614868,"431":3.6093218326568604,"432":1.5191422700881958,"433":-2.057490348815918,"434":2.7208566665649414,"435":-4.323764324188232,"436":3.186396360397339,"437":-0.9218550324440002,"438":-2.872391939163208,"439":-8.590539932250977,"440":0.5383378863334656,"441":0.7868154048919678,"442":-2.8186421394348145,"443":3.548607349395752,"444":0.5523413419723511,"445":1.857738733291626,"446":0.9013356566429138,"447":0.5130080580711365,"448":-4.3280158042907715,"449":-0.47590014338493347,"450":0.6964749097824097,"451":-1.0361360311508179,"452":-6.757309436798096,"453":-0.712856113910675,"454":-2.433485984802246,"455":-1.3533170223236084,"456":-0.13382698595523834,"457":-0.7916598916053772,"458":0.346330463886261,"459":-4.269344806671143,"460":-0.3476960062980652,"461":5.020928859710693,"462":-2.051912307739258,"463":-1.8294177055358887,"464":-0.5706902742385864,"465":8.064189910888672,"466":2.0407466888427734,"467":0.2539355754852295,"468":-4.223756313323975,"469":-0.6349789500236511,"470":-0.845215380191803,"471":2.5292580127716064,"472":3.0022132396698,"473":0.7420023083686829,"474":-5.221817970275879,"475":-0.17219865322113037,"476":-0.520645797252655,"477":1.256966471672058,"478":1.9456160068511963,"479":-2.456958532333374,"480":2.3680343627929688,"481":1.413975715637207,"482":-0.12392546236515045,"483":-0.9024070501327515,"484":-1.3775012493133545,"485":-1.929174542427063,"486":1.001824975013733,"487":1.1786658763885498,"488":0.7955772876739502,"489":2.5737576484680176,"490":-1.1222442388534546,"491":0.19670981168746948,"492":0.5012895464897156,"493":4.530167579650879,"494":-0.4830675423145294,"495":1.003174901008606,"496":0.9302492141723633,"497":-1.236934781074524,"498":2.5655832290649414,"499":0.5449139475822449,"500":0.7129359245300293,"501":1.0223952531814575,"502":3.020380735397339,"503":-0.3049333989620209,"504":-1.0435220003128052,"505":-0.1829945296049118,"506":-2.573382616043091,"507":0.32064932584762573,"508":0.7353760004043579,"509":2.271354913711548,"510":3.270183801651001,"511":-2.281564950942993,"512":0.34687450528144836,"513":-1.8395872116088867,"514":-2.9484992027282715,"515":-0.8135172724723816,"516":0.018166663125157356,"517":0.4974961578845978,"518":-0.37673047184944153,"519":-1.1590720415115356,"520":2.1693341732025146,"521":3.1267294883728027,"522":2.2066469192504883,"523":0.5535470247268677,"524":0.568453848361969,"525":0.8067585229873657,"526":-0.10338646173477173,"527":2.032398223876953,"528":0.6915907263755798,"529":-1.2497693300247192,"530":-1.1517987251281738,"531":3.2413322925567627,"532":0.5393244624137878,"533":1.44951331615448,"534":2.0057244300842285,"535":1.1646778583526611,"536":-1.4514161348342896,"537":4.401134490966797,"538":-2.5328147411346436,"539":1.5156711339950562,"540":3.372354507446289,"541":-2.3332254886627197,"542":1.2774103879928589,"543":-2.8107950687408447,"544":2.1836323738098145,"545":0.45663323998451233,"546":1.9062899351119995,"547":-3.855593681335449,"548":-0.8304018378257751,"549":-3.740501642227173,"550":1.0867154598236084,"551":0.3517213463783264,"552":-1.4008495807647705,"553":2.0222103595733643,"554":0.17905627191066742,"555":4.61863374710083,"556":-0.7192692756652832,"557":-0.40917402505874634,"558":0.7875940203666687,"559":-3.650106906890869,"560":-0.9020278453826904,"561":-4.892916202545166,"562":7.240200042724609,"563":-0.7888553738594055,"564":10.494976997375488,"565":1.2782469987869263,"566":-0.4052528738975525,"567":-2.0706982612609863,"568":-3.4391708374023438,"569":-5.129809856414795,"570":-1.480822205543518,"571":-6.29165506362915,"572":-2.3285071849823,"573":0.9151734113693237,"574":4.51010274887085,"575":-1.6851468086242676,"576":-0.5447039604187012,"577":4.41010046005249,"578":-2.9395334720611572,"579":2.194396734237671,"580":-0.18314844369888306,"581":0.8512985110282898,"582":-0.15287619829177856,"583":0.08390061557292938,"584":3.292734146118164,"585":-1.976589560508728,"586":2.692420482635498,"587":5.063748359680176,"588":0.21794292330741882,"589":-0.5833602547645569,"590":4.141495704650879,"591":-1.3784301280975342,"592":2.8766422271728516,"593":-6.810832977294922,"594":-7.943609237670898,"595":3.425999641418457,"596":-4.1723127365112305,"597":-3.5631911754608154,"598":5.374078750610352,"599":3.03118634223938,"600":-0.39714470505714417,"601":0.6706936955451965,"602":7.628602504730225,"603":-1.964162826538086,"604":4.209039688110352,"605":-3.111346483230591,"606":-3.0213513374328613,"607":-1.7275317907333374,"608":-1.0589003562927246,"609":-0.042401693761348724,"610":0.808097779750824,"611":0.039090752601623535,"612":-2.367818832397461,"613":0.3396252989768982,"614":-5.680293083190918,"615":-1.2571518421173096,"616":1.8192602396011353,"617":-0.4228792190551758,"618":-3.6442172527313232,"619":4.485245227813721,"620":-1.4782800674438477,"621":-4.329374313354492,"622":0.28401216864585876,"623":7.23910665512085,"624":5.823319435119629,"625":1.3292906284332275,"626":2.3141064643859863,"627":0.11073450744152069,"628":0.642235517501831,"629":4.429928779602051,"630":0.28902897238731384,"631":-1.0049189329147339,"632":-0.6422116756439209,"633":2.333566427230835,"634":-1.213828682899475,"635":-1.1519396305084229,"636":3.2218427658081055,"637":9.628092765808105,"638":-1.1102944612503052,"639":-2.7037131786346436,"640":3.8797640800476074,"641":-2.175045967102051,"642":-3.848761558532715,"643":-2.4133822917938232,"644":-0.147466778755188,"645":3.6471407413482666,"646":-1.1397918462753296,"647":-4.743725299835205,"648":2.858088254928589,"649":-3.1975855827331543,"650":-2.7074780464172363,"651":-6.823486804962158,"652":3.359562397003174,"653":-4.442315578460693,"654":-1.0322449207305908,"655":3.6118061542510986,"656":-4.585269451141357,"657":-0.6266025304794312,"658":0.8842839002609253,"659":-2.15263032913208,"660":0.8374538421630859,"661":0.9985407590866089,"662":0.87583327293396,"663":-2.6095497608184814,"664":2.303325891494751,"665":-0.3378532826900482,"666":6.093446254730225,"667":7.428415775299072,"668":1.7895472049713135,"669":-10.187333106994629,"670":2.2072510719299316,"671":1.5173295736312866,"672":-2.7015411853790283,"673":-6.0377702713012695,"674":5.843935489654541,"675":-3.36543345451355,"676":1.5457955598831177,"677":-2.2861154079437256,"678":2.2248270511627197,"679":-2.564541816711426,"680":2.8003177642822266,"681":2.020864963531494,"682":4.5347700119018555,"683":3.5920562744140625,"684":11.060456275939941,"685":-11.79417896270752,"686":-3.8730077743530273,"687":2.3765859603881836,"688":0.36276596784591675,"689":-0.20717111229896545,"690":-11.602571487426758,"691":4.54667329788208,"692":-5.291269779205322,"693":5.805911540985107,"694":0.7933126091957092,"695":4.046688079833984,"696":-4.051461696624756,"697":8.521819114685059,"698":-4.6714982986450195,"699":-6.005208969116211,"700":4.665970802307129,"701":-4.9312543869018555,"702":1.2411531209945679,"703":2.431493043899536,"704":0.41380783915519714,"705":-3.533550262451172,"706":-2.5290749073028564,"707":1.2959895133972168,"708":2.993431806564331,"709":-1.746006727218628,"710":5.239945888519287,"711":-10.51499080657959,"712":0.5078647136688232,"713":0.09974858164787292,"714":-0.599108099937439,"715":-2.589106559753418,"716":-1.3393986225128174,"717":5.455353736877441,"718":-0.07730502635240555,"719":3.6514835357666016,"720":0.7653510570526123,"721":3.750105142593384,"722":-1.3000503778457642,"723":-0.511043906211853,"724":4.9587578773498535,"725":5.748169422149658,"726":-5.060983180999756,"727":5.370276927947998,"728":2.2384238243103027,"729":1.0859664678573608,"730":1.2349586486816406,"731":-1.1819586753845215,"732":7.509033679962158,"733":4.38577938079834,"734":-1.976048231124878,"735":1.4685704708099365,"736":1.8954846858978271,"737":2.7715256214141846,"738":0.44039011001586914,"739":-4.196333408355713,"740":0.10528591275215149,"741":2.7677652835845947,"742":2.837425470352173,"743":1.6305944919586182,"744":-0.3063197433948517,"745":-1.7465442419052124,"746":3.15926194190979,"747":-0.5191700458526611,"748":-0.9783787131309509,"749":-1.3884450197219849,"750":-1.7436891794204712,"751":-2.085906982421875,"752":-2.299114227294922,"753":-3.3537464141845703,"754":-0.4405609965324402,"755":2.267601251602173,"756":0.527527928352356,"757":-3.8933773040771484,"758":2.956920623779297,"759":-0.6269779205322266,"760":1.3985315561294556,"761":0.5568856596946716,"762":1.6122796535491943,"763":4.319437026977539,"764":-0.17196016013622284,"765":-1.0126166343688965,"766":-1.7455928325653076,"767":-1.3350118398666382,"768":-1.7728692293167114,"769":5.411581516265869,"770":-7.0708417892456055,"771":-2.5153560638427734,"772":-4.049797534942627,"773":-1.6061676740646362,"774":-2.4140329360961914,"775":1.2299580574035645,"776":-0.29953786730766296,"777":-3.7402405738830566,"778":1.9363614320755005,"779":3.0396077632904053,"780":0.8808592557907104,"781":-3.3626089096069336,"782":-4.724548816680908,"783":1.1957918405532837,"784":-2.061009168624878,"785":-0.08292682468891144,"786":-2.200742483139038,"787":1.6859322786331177,"788":0.23218032717704773,"789":4.789697170257568,"790":-2.0806846618652344,"791":-0.7611754536628723,"792":2.5044350624084473,"793":-2.881051778793335,"794":-2.109769344329834,"795":2.8745615482330322,"796":-3.3573224544525146,"797":1.4028090238571167,"798":-3.3243610858917236,"799":3.615454912185669,"800":-3.4438953399658203,"801":-1.993719458580017,"802":2.23307466506958,"803":-5.376433849334717,"804":2.4218878746032715,"805":-2.5954689979553223,"806":-3.7367022037506104,"807":-2.6333014965057373,"808":-3.167362689971924,"809":-1.139135479927063,"810":-3.63177227973938,"811":-4.822327613830566,"812":0.6379756927490234,"813":-1.7366735935211182,"814":-3.3282089233398438,"815":5.928094387054443,"816":0.3537132143974304,"817":4.785385608673096,"818":-6.200229167938232,"819":6.589536190032959,"820":-6.390869617462158,"821":-3.3034210205078125,"822":-3.099238395690918,"823":-7.452705383300781,"824":0.10807511955499649,"825":2.8079373836517334,"826":1.5207778215408325,"827":2.864189624786377,"828":1.3011205196380615,"829":2.668164014816284,"830":0.6089867353439331,"831":-9.251443862915039,"832":6.434060573577881,"833":-9.825037002563477,"834":-3.120482921600342,"835":-0.6665022969245911,"836":-2.789139747619629,"837":5.355954647064209,"838":-0.06881290674209595,"839":7.470328330993652,"840":0.47803542017936707,"841":-4.9455342292785645,"842":-4.982541084289551,"843":7.982006549835205,"844":-3.143798828125,"845":0.9626805782318115,"846":-0.6068081259727478,"847":-7.04152250289917,"848":15.492411613464355,"849":4.027449131011963,"850":-3.4114601612091064,"851":-5.073888301849365,"852":-4.559558391571045,"853":-2.5946338176727295,"854":-0.021252844482660294,"855":-2.536492347717285,"856":-0.6047849655151367,"857":-4.307034969329834,"858":-9.878472328186035,"859":-0.0021319256629794836,"860":-1.3511567115783691,"861":1.9033690690994263,"862":-4.1810197830200195,"863":8.843401908874512,"864":2.7292938232421875,"865":1.266944408416748,"866":1.6409554481506348,"867":-1.240552544593811,"868":3.576223134994507,"869":1.4607447385787964,"870":5.757106304168701,"871":-2.9107985496520996,"872":0.27451953291893005,"873":5.397500991821289,"874":-0.9304774403572083,"875":-3.3262736797332764,"876":-1.3879308700561523,"877":-0.6712173223495483,"878":-0.7787991762161255,"879":1.0139153003692627,"880":-7.502191543579102,"881":-2.398699998855591,"882":2.324345111846924,"883":6.223536014556885,"884":0.3318978548049927,"885":2.6334211826324463,"886":4.1961588859558105,"887":-0.7695565819740295,"888":2.9328808784484863,"889":-2.20035457611084,"890":6.4966959953308105,"891":-0.44891008734703064,"892":-0.7172239422798157,"893":0.9675220847129822,"894":8.648785591125488,"895":2.874546527862549,"896":-0.6439597010612488,"897":-2.0777666568756104,"898":3.0026798248291016,"899":1.7937833070755005,"900":-4.725881576538086,"901":4.288534641265869,"902":-1.9148257970809937,"903":-0.9468455910682678,"904":1.0007165670394897,"905":2.5551273822784424,"906":-1.8718611001968384,"907":-2.094954013824463,"908":-0.5314015746116638,"909":-0.4243180751800537,"910":-0.4379962980747223,"911":-6.07161283493042,"912":1.8665136098861694,"913":-0.0944608747959137,"914":0.26442423462867737,"915":0.7147251963615417,"916":-0.7885624170303345,"917":-3.0184547901153564,"918":8.955205917358398,"919":3.110412836074829,"920":0.25888678431510925,"921":6.165342807769775,"922":-2.364772081375122,"923":3.7969634532928467,"924":1.7164552211761475,"925":1.770446538925171,"926":1.949973225593567,"927":3.7013752460479736,"928":-8.027645111083984,"929":-0.9965704679489136,"930":-1.5281091928482056,"931":-6.419671535491943,"932":0.1754097193479538,"933":6.971065998077393,"934":-7.524570465087891,"935":11.035028457641602,"936":2.388606309890747,"937":4.076129913330078,"938":-3.869878053665161,"939":-0.6843821406364441,"940":5.272208213806152,"941":-4.211854457855225,"942":-19.776098251342773,"943":-1.515880823135376,"944":0.13928744196891785,"945":-0.4858677089214325,"946":-4.109442710876465,"947":6.57609224319458,"948":-7.139686584472656,"949":-5.744868278503418,"950":8.765996932983398,"951":0.9652436375617981,"952":2.6571178436279297,"953":-1.2721977233886719,"954":-10.37511157989502,"955":7.72576379776001,"956":-6.775891304016113,"957":0.385076105594635,"958":-2.9130101203918457,"959":-9.553930282592773,"960":-1.8023929595947266,"961":0.8574165105819702,"962":-2.9418067932128906,"963":7.106289386749268,"964":4.219057559967041,"965":3.288313150405884,"966":1.6717044115066528,"967":-9.785453796386719,"968":-0.2987944781780243,"969":-12.411248207092285,"970":-4.251097679138184,"971":12.669112205505371,"972":3.339064836502075,"973":14.904505729675293,"974":-0.2926972210407257,"975":4.315613746643066,"976":2.906499147415161,"977":-7.402613639831543,"978":0.9141177535057068,"979":1.1101301908493042,"980":-7.193279266357422,"981":-20.468809127807617,"982":-9.8637056350708,"983":3.7455244064331055,"984":-5.2862162590026855,"985":-9.215826034545898,"986":-1.3844622373580933,"987":1.2364414930343628,"988":-0.08903776854276657,"989":0.9801347255706787,"990":1.4280078411102295,"991":-11.358729362487793,"992":-9.581950187683105,"993":-1.4983023405075073,"994":-0.9478617310523987,"995":-12.345093727111816,"996":12.512077331542969,"997":-0.9169371724128723,"998":-6.104352951049805,"999":-6.1432342529296875,"1000":-16.69101905822754,"1001":-5.712121963500977,"1002":-5.928137302398682,"1003":14.515357971191406,"1004":-9.747791290283203,"1005":-19.803897857666016,"1006":10.471752166748047,"1007":15.287524223327637,"1008":-2.2049009799957275,"1009":-8.27709674835205,"1010":-9.4959716796875,"1011":-14.986544609069824,"1012":-7.920618534088135,"1013":-5.530494689941406,"1014":-4.144562721252441,"1015":22.299091339111328,"1016":12.168292999267578,"1017":0.16442035138607025,"1018":13.273726463317871,"1019":-6.245965957641602,"1020":-6.363367080688477,"1021":14.803943634033203,"1022":18.549301147460938,"1023":-11.367365837097168,"1024":-3.563305139541626,"1025":-23.54057502746582,"1026":-19.669755935668945,"1027":-8.719444274902344,"1028":-25.253828048706055,"1029":-11.64963150024414,"1030":1.3586326837539673,"1031":18.06231689453125,"1032":-13.182731628417969,"1033":24.473007202148438,"1034":19.495819091796875,"1035":0.48204562067985535,"1036":6.9856414794921875,"1037":1.1160167455673218,"1038":11.98591423034668,"1039":8.729857444763184,"1040":15.973981857299805,"1041":5.265782833099365,"1042":1.4705967903137207,"1043":7.587857246398926,"1044":6.897353172302246,"1045":14.96200942993164,"1046":-5.634210109710693,"1047":-0.31703925132751465,"1048":-1.6255757808685303,"1049":1.997856855392456,"1050":5.958420753479004,"1051":1.8527253866195679,"1052":-5.812317848205566,"1053":-9.546771049499512,"1054":-12.82583999633789,"1055":13.86274528503418,"1056":-1.9466005563735962,"1057":-16.078781127929688,"1058":6.764526844024658,"1059":-5.475057125091553,"1060":-6.735262870788574,"1061":9.783479690551758,"1062":-15.135437965393066,"1063":0.4062592089176178,"1064":-10.823026657104492,"1065":1.218446135520935,"1066":-0.2857857048511505,"1067":3.495014190673828,"1068":6.7693352699279785,"1069":-2.507883071899414,"1070":-10.610950469970703,"1071":2.7225701808929443,"1072":-5.067164897918701,"1073":-16.26263999938965,"1074":-7.793220520019531,"1075":10.141512870788574,"1076":0.957581639289856,"1077":8.331864356994629,"1078":-6.648394584655762,"1079":-0.18331173062324524,"1080":-4.957456111907959,"1081":-13.601163864135742,"1082":9.216334342956543,"1083":6.432373523712158,"1084":16.84784507751465,"1085":-15.99370002746582,"1086":-9.478970527648926,"1087":-3.2019262313842773,"1088":-8.37768840789795,"1089":-9.66507625579834,"1090":-30.597702026367188,"1091":-2.8334543704986572,"1092":-7.6990203857421875,"1093":-1.9996228218078613,"1094":2.183673143386841,"1095":2.9036152362823486,"1096":20.19514274597168,"1097":7.743452072143555,"1098":-7.74151611328125,"1099":12.606534004211426,"1100":-7.406815052032471,"1101":2.721320867538452,"1102":17.979124069213867,"1103":-24.39455795288086,"1104":-3.246978282928467,"1105":-11.208125114440918,"1106":4.966124534606934,"1107":4.943143367767334,"1108":-0.17272748053073883,"1109":-4.949687480926514,"1110":17.632678985595703,"1111":-7.975918292999268,"1112":5.748587608337402,"1113":5.574592113494873,"1114":-0.35662373900413513,"1115":9.823273658752441,"1116":10.185417175292969,"1117":13.588308334350586,"1118":6.607690334320068,"1119":7.262988090515137,"1120":21.264850616455078,"1121":2.9983744621276855,"1122":-12.997636795043945,"1123":-15.611518859863281,"1124":-11.848499298095703,"1125":1.863608956336975,"1126":2.342043399810791,"1127":-19.921844482421875,"1128":-2.6333932876586914,"1129":-1.2741690874099731,"1130":-19.902976989746094,"1131":-4.595701217651367,"1132":9.400643348693848,"1133":3.492063522338867,"1134":1.0742757320404053,"1135":24.834970474243164,"1136":7.723515033721924,"1137":-10.283990859985352,"1138":8.411134719848633,"1139":-7.79123592376709,"1140":-4.821245193481445,"1141":6.733204364776611,"1142":7.786324977874756,"1143":-0.5861721634864807,"1144":8.342218399047852,"1145":1.0824931859970093,"1146":-6.080045223236084,"1147":-4.983221530914307,"1148":-0.08727654814720154,"1149":13.705230712890625,"1150":-13.618456840515137,"1151":9.163174629211426,"1152":-1.3708566427230835,"1153":-8.99935245513916,"1154":0.07688131183385849,"1155":6.202227592468262,"1156":8.964554786682129,"1157":10.673869132995605,"1158":-2.479905605316162,"1159":-2.76784348487854,"1160":-21.557846069335938,"1161":19.58111572265625,"1162":21.00147819519043,"1163":-1.3345892429351807,"1164":-5.8137335777282715,"1165":-9.159984588623047,"1166":-11.533174514770508,"1167":-14.558634757995605,"1168":-6.073190689086914,"1169":16.953426361083984,"1170":-2.964353322982788,"1171":-22.480152130126953,"1172":13.26993179321289,"1173":-12.598116874694824,"1174":-2.0741915702819824,"1175":-8.709826469421387,"1176":2.614549160003662,"1177":-8.502513885498047,"1178":8.976067543029785,"1179":-15.410079956054688,"1180":4.783533573150635,"1181":9.318119049072266,"1182":4.608555793762207,"1183":-10.361811637878418,"1184":5.809572219848633,"1185":3.119020700454712,"1186":-9.478771209716797,"1187":11.1675386428833,"1188":25.680774688720703,"1189":-11.339716911315918,"1190":-11.776206016540527,"1191":12.045364379882812,"1192":-18.383258819580078,"1193":10.122960090637207,"1194":-0.12333720922470093,"1195":-12.366955757141113,"1196":5.774694442749023,"1197":9.387901306152344,"1198":5.903098106384277,"1199":-8.558931350708008,"1200":-27.481359481811523,"1201":18.16530418395996,"1202":-11.86691665649414,"1203":-6.987332344055176,"1204":-18.409259796142578,"1205":1.9115495681762695,"1206":-10.837949752807617,"1207":-23.642976760864258,"1208":-10.33951187133789,"1209":-18.61820411682129,"1210":-21.975505828857422,"1211":-6.933579444885254,"1212":-3.7016704082489014,"1213":-11.009490966796875,"1214":5.632271766662598,"1215":6.154598236083984,"1216":-0.9388889670372009,"1217":-6.7394866943359375,"1218":-10.457646369934082,"1219":6.975337028503418,"1220":11.075657844543457,"1221":14.542847633361816,"1222":-6.828776836395264,"1223":-2.4120612144470215,"1224":-4.515292167663574,"1225":22.820405960083008,"1226":-2.495405435562134,"1227":5.612626552581787,"1228":3.9825782775878906,"1229":15.434409141540527,"1230":-9.568058013916016,"1231":9.352960586547852,"1232":32.87662887573242,"1233":-22.190635681152344,"1234":29.277143478393555,"1235":7.125014305114746,"1236":14.351499557495117,"1237":11.84529972076416,"1238":4.606478691101074,"1239":-7.689330577850342,"1240":-7.987239837646484,"1241":19.76189422607422,"1242":-7.908766269683838,"1243":8.80207347869873,"1244":-7.827218055725098,"1245":15.701875686645508,"1246":-6.1801652908325195,"1247":-18.79495620727539,"1248":-19.950376510620117,"1249":-10.653135299682617,"1250":5.1088457107543945,"1251":20.455703735351562,"1252":-8.970260620117188,"1253":20.282115936279297,"1254":-12.845426559448242,"1255":-25.176502227783203,"1256":-14.227453231811523,"1257":8.043265342712402,"1258":5.832660675048828,"1259":6.3010573387146,"1260":-8.93806266784668,"1261":-5.323676109313965,"1262":-28.006017684936523,"1263":-3.4682042598724365,"1264":2.9623537063598633,"1265":1.6259864568710327,"1266":3.242292881011963,"1267":13.728837966918945,"1268":-6.451258659362793,"1269":-3.0903217792510986,"1270":7.326183795928955,"1271":-3.4294254779815674,"1272":-4.439845561981201,"1273":12.766763687133789,"1274":9.359786033630371,"1275":-4.9471659660339355,"1276":4.5233154296875,"1277":-15.05108642578125,"1278":-8.781880378723145,"1279":-0.4628807008266449,"1280":-0.9841604232788086,"1281":-9.650010108947754,"1282":-15.611952781677246,"1283":13.283202171325684,"1284":-13.64553451538086,"1285":-6.931208610534668,"1286":11.433917045593262,"1287":11.368982315063477,"1288":3.5307679176330566,"1289":-0.9639877676963806,"1290":-17.447463989257812,"1291":-8.520252227783203,"1292":20.639446258544922,"1293":-6.668370723724365,"1294":10.461078643798828,"1295":4.053814888000488,"1296":10.031360626220703,"1297":-19.042104721069336,"1298":23.97852325439453,"1299":5.294685363769531,"1300":-5.4603118896484375,"1301":12.75560188293457,"1302":13.119011878967285,"1303":4.3039116859436035,"1304":-6.4085259437561035,"1305":-11.83285140991211,"1306":-1.445879340171814,"1307":13.516532897949219,"1308":1.448917031288147,"1309":5.133521556854248,"1310":1.7288033962249756,"1311":-26.00741195678711,"1312":17.972837448120117,"1313":4.845211982727051,"1314":15.08944320678711,"1315":0.06404916197061539,"1316":-2.949866533279419,"1317":-10.862383842468262,"1318":-13.507540702819824,"1319":1.2181987762451172,"1320":-2.8141772747039795,"1321":-25.947917938232422,"1322":-17.312828063964844,"1323":0.9697266817092896,"1324":10.669729232788086,"1325":-13.893257141113281,"1326":2.2590737342834473,"1327":-0.7200531363487244,"1328":7.577435493469238,"1329":-23.08104705810547,"1330":15.25790786743164,"1331":-4.095073223114014,"1332":14.169200897216797,"1333":16.120107650756836,"1334":-15.212109565734863,"1335":9.819570541381836,"1336":-5.46226692199707,"1337":9.163318634033203,"1338":-2.222870349884033,"1339":6.15133810043335,"1340":-2.6475305557250977,"1341":5.7179155349731445,"1342":-1.029205560684204,"1343":5.417952537536621,"1344":16.148513793945312,"1345":-2.042804718017578,"1346":20.00033187866211,"1347":5.067447662353516,"1348":6.07111120223999,"1349":-8.971548080444336,"1350":-3.5557801723480225,"1351":-2.489337682723999,"1352":3.5639960765838623,"1353":-19.1815185546875,"1354":-15.058733940124512,"1355":9.540735244750977,"1356":6.9456024169921875,"1357":-30.47252655029297,"1358":11.112542152404785,"1359":14.011174201965332,"1360":1.4929485321044922,"1361":3.17287278175354,"1362":4.9616265296936035,"1363":1.4685784578323364,"1364":-7.29529333114624,"1365":-17.83559799194336,"1366":-4.377954006195068,"1367":-11.517208099365234,"1368":21.877859115600586,"1369":6.921731472015381,"1370":8.595476150512695,"1371":9.654866218566895,"1372":15.368879318237305,"1373":2.2992258071899414,"1374":-5.167672634124756,"1375":-7.308283805847168,"1376":-14.094212532043457,"1377":5.433956146240234,"1378":-5.960780620574951,"1379":15.101668357849121,"1380":-12.730880737304688,"1381":40.88494110107422,"1382":19.243112564086914,"1383":-0.883407473564148,"1384":-0.6427730917930603,"1385":-14.465295791625977,"1386":21.210573196411133,"1387":12.259252548217773,"1388":20.515682220458984,"1389":5.826079845428467,"1390":11.742840766906738,"1391":-9.521992683410645,"1392":1.8809618949890137,"1393":16.915342330932617,"1394":-11.11513900756836,"1395":-3.2444591522216797,"1396":13.257647514343262,"1397":19.324581146240234,"1398":-0.15615898370742798,"1399":-17.487220764160156,"1400":-1.873204231262207,"1401":0.8077598810195923,"1402":6.4942450523376465,"1403":-7.294073581695557,"1404":-16.019695281982422,"1405":-6.671407699584961}},"hiddenLayers":[{"inputMatrix":{"rows":20,"columns":37,"weights":{"0":-1.1908596754074097,"1":-2.2953755855560303,"2":-1.6003913879394531,"3":-2.6153016090393066,"4":0.16826322674751282,"5":-0.9425369501113892,"6":3.6148509979248047,"7":-2.875910997390747,"8":-0.999900221824646,"9":2.127027750015259,"10":0.7716822028160095,"11":1.0973111391067505,"12":-1.9561231136322021,"13":1.9141302108764648,"14":-3.2420973777770996,"15":-0.17266082763671875,"16":2.762747287750244,"17":-3.5585031509399414,"18":-4.06413459777832,"19":-1.347121000289917,"20":-3.9507083892822266,"21":-7.118519306182861,"22":0.8154146075248718,"23":2.144031047821045,"24":1.4132535457611084,"25":-1.4392930269241333,"26":-0.6626047492027283,"27":0.4072436988353729,"28":-2.284851551055908,"29":-3.909428596496582,"30":-0.7219830751419067,"31":-3.5670957565307617,"32":-3.034170150756836,"33":-5.409757614135742,"34":-0.2455844283103943,"35":3.709354877471924,"36":1.6002362966537476,"37":2.7278494834899902,"38":0.7497574687004089,"39":1.1658096313476562,"40":-1.4042494297027588,"41":-0.8611511588096619,"42":1.561401128768921,"43":1.779384970664978,"44":0.39361751079559326,"45":2.4097180366516113,"46":-0.3889503479003906,"47":3.4057984352111816,"48":2.105713129043579,"49":-0.466411828994751,"50":-0.9150014519691467,"51":-0.05261743813753128,"52":4.253842353820801,"53":2.112118721008301,"54":-1.5834877490997314,"55":-1.7313930988311768,"56":-0.9714521169662476,"57":1.7778798341751099,"58":-0.7747671008110046,"59":-0.4687398076057434,"60":-5.531649112701416,"61":-2.5630640983581543,"62":-0.6495235562324524,"63":2.4571070671081543,"64":-1.4864161014556885,"65":1.017370343208313,"66":-3.2193665504455566,"67":-0.631359875202179,"68":-1.143267035484314,"69":-0.7924381494522095,"70":-0.9889386892318726,"71":-0.07193790376186371,"72":-1.0393723249435425,"73":-2.0021421909332275,"74":-0.6375998854637146,"75":-1.6258422136306763,"76":2.625368595123291,"77":5.280360698699951,"78":0.06195676699280739,"79":1.0020759105682373,"80":2.6462154388427734,"81":-0.2621341049671173,"82":0.5144206285476685,"83":-3.650127410888672,"84":-0.6156179904937744,"85":-1.7027567625045776,"86":2.8545079231262207,"87":-3.806140661239624,"88":2.505872964859009,"89":3.667651653289795,"90":1.033724308013916,"91":-2.9084417819976807,"92":-1.1460702419281006,"93":-0.1594936102628708,"94":0.9515958428382874,"95":1.054776668548584,"96":-0.21663931012153625,"97":-1.9986371994018555,"98":-1.786850094795227,"99":-1.8659127950668335,"100":-0.8638531565666199,"101":2.1774075031280518,"102":6.4959869384765625,"103":-0.37529367208480835,"104":-1.1823457479476929,"105":2.4133431911468506,"106":0.9358862042427063,"107":-3.150784730911255,"108":-1.0025280714035034,"109":-0.7756811380386353,"110":-2.276749849319458,"111":0.7698363661766052,"112":-0.3746148645877838,"113":0.8006397485733032,"114":-1.3739537000656128,"115":-0.5935969948768616,"116":-1.3314589262008667,"117":2.382889986038208,"118":-0.15879324078559875,"119":-1.7445526123046875,"120":-0.5202080011367798,"121":1.265838861465454,"122":0.1587171107530594,"123":0.08202148973941803,"124":0.7853482961654663,"125":-1.8744616508483887,"126":0.045281730592250824,"127":0.035625822842121124,"128":-0.1524347960948944,"129":0.9917377829551697,"130":-0.5163398385047913,"131":-1.0042312145233154,"132":-3.4988772869110107,"133":-0.03939306363463402,"134":-3.3311915397644043,"135":-0.3128542900085449,"136":1.703889012336731,"137":-2.674976348876953,"138":-0.581673264503479,"139":0.12178967893123627,"140":-1.1766388416290283,"141":-0.15286126732826233,"142":0.15164153277873993,"143":-0.8756067156791687,"144":-0.28377845883369446,"145":-2.1027281284332275,"146":0.3309585154056549,"147":0.4709584712982178,"148":-1.8597325086593628,"149":-2.8295953273773193,"150":1.9566724300384521,"151":-1.1776340007781982,"152":0.1751655489206314,"153":-0.6931629180908203,"154":0.9366246461868286,"155":-4.365623950958252,"156":5.02521276473999,"157":1.0736292600631714,"158":0.10308147221803665,"159":4.349301815032959,"160":0.9788338541984558,"161":2.357299566268921,"162":0.6541336178779602,"163":2.736114263534546,"164":-0.8523771166801453,"165":-1.604964017868042,"166":-0.1555236279964447,"167":-1.0780315399169922,"168":-1.307360053062439,"169":-3.9380862712860107,"170":-1.1231266260147095,"171":0.29474976658821106,"172":-5.1220703125,"173":7.6139140129089355,"174":1.6953492164611816,"175":1.0363004207611084,"176":1.3001354932785034,"177":-1.662352204322815,"178":-3.5671958923339844,"179":1.5024831295013428,"180":-1.2274914979934692,"181":-0.9051156640052795,"182":2.7199912071228027,"183":-3.5455377101898193,"184":-4.171932220458984,"185":-2.36971116065979,"186":-0.07532382756471634,"187":-0.5257995128631592,"188":-1.0867592096328735,"189":4.283519744873047,"190":2.2982912063598633,"191":0.9118501543998718,"192":-0.7448397278785706,"193":2.3652420043945312,"194":-2.9962923526763916,"195":0.8262267112731934,"196":-5.346620559692383,"197":-2.280928373336792,"198":1.4041098356246948,"199":0.4366820454597473,"200":4.893158435821533,"201":-1.144121766090393,"202":-1.1545929908752441,"203":1.2423512935638428,"204":1.0232235193252563,"205":4.5755205154418945,"206":-2.202425003051758,"207":-4.882277488708496,"208":3.1400985717773438,"209":-3.2569007873535156,"210":-6.241128921508789,"211":-3.9562742710113525,"212":-5.224104881286621,"213":1.187624216079712,"214":-1.0743706226348877,"215":1.256064534187317,"216":-2.6754868030548096,"217":-1.6159826517105103,"218":0.7548703551292419,"219":-5.5151143074035645,"220":3.2241125106811523,"221":-1.8346059322357178,"222":-2.172642946243286,"223":1.261988878250122,"224":-0.5455960631370544,"225":-1.0591199398040771,"226":-2.7983269691467285,"227":2.5620245933532715,"228":1.5991607904434204,"229":3.4533181190490723,"230":-7.019676208496094,"231":3.895812749862671,"232":-1.796451449394226,"233":1.9420866966247559,"234":-2.49405574798584,"235":2.4248251914978027,"236":-5.286011219024658,"237":-0.38932228088378906,"238":-1.3009592294692993,"239":0.021117791533470154,"240":1.207368016242981,"241":-4.0146613121032715,"242":-1.609561800956726,"243":-1.0608118772506714,"244":-0.29982635378837585,"245":1.773932695388794,"246":-0.8254037499427795,"247":3.0745439529418945,"248":1.8138166666030884,"249":0.950416088104248,"250":-2.517336845397949,"251":2.4284982681274414,"252":-4.0641374588012695,"253":0.5635225176811218,"254":1.5956255197525024,"255":-0.9311845898628235,"256":4.02017879486084,"257":-0.5508716106414795,"258":0.6958531737327576,"259":1.4904804229736328,"260":-2.777039051055908,"261":3.752073287963867,"262":0.8039303421974182,"263":2.371291160583496,"264":2.1057345867156982,"265":5.611953258514404,"266":-0.05314118415117264,"267":4.492940902709961,"268":-0.960969865322113,"269":1.575639247894287,"270":-0.13824568688869476,"271":0.3271282911300659,"272":0.9039962887763977,"273":1.0540037155151367,"274":8.042867660522461,"275":-2.6340298652648926,"276":-0.6100192666053772,"277":1.7317076921463013,"278":1.336024522781372,"279":3.83028244972229,"280":0.07403215020895004,"281":0.7116521596908569,"282":-2.716799259185791,"283":1.5589394569396973,"284":1.5707088708877563,"285":-2.968003511428833,"286":3.2390568256378174,"287":-0.024799903854727745,"288":-1.1649649143218994,"289":2.1324007511138916,"290":0.6895892024040222,"291":-2.7379772663116455,"292":1.9735909700393677,"293":-1.970432996749878,"294":-1.18632173538208,"295":-4.374296188354492,"296":-4.110299110412598,"297":-0.684282124042511,"298":-1.211581826210022,"299":4.203779220581055,"300":2.4764859676361084,"301":-3.3444924354553223,"302":0.6345682740211487,"303":-1.8288618326187134,"304":2.79817533493042,"305":-4.085851669311523,"306":2.9699923992156982,"307":0.14586111903190613,"308":-0.055101629346609116,"309":3.296987771987915,"310":-1.4711756706237793,"311":0.24525940418243408,"312":-1.3896632194519043,"313":-3.835312843322754,"314":-0.8509386777877808,"315":1.249353289604187,"316":3.4612205028533936,"317":2.3606064319610596,"318":0.8731346726417542,"319":1.0184519290924072,"320":-0.6136007308959961,"321":7.159465789794922,"322":3.6299939155578613,"323":-4.9872565269470215,"324":-1.1919795274734497,"325":-1.824977159500122,"326":-2.7506344318389893,"327":0.9519655108451843,"328":0.14383478462696075,"329":2.8140690326690674,"330":3.0573201179504395,"331":-1.8072443008422852,"332":-1.788326621055603,"333":0.005813476163893938,"334":-0.27203166484832764,"335":-0.42657145857810974,"336":4.962001323699951,"337":0.32621827721595764,"338":0.7856976985931396,"339":2.7847182750701904,"340":0.07181798666715622,"341":1.4594887495040894,"342":-3.7279598712921143,"343":-2.2160048484802246,"344":-1.2561966180801392,"345":-0.5844770669937134,"346":-5.175120830535889,"347":-0.26120588183403015,"348":2.0109736919403076,"349":-0.0997517853975296,"350":1.9476394653320312,"351":-1.7384276390075684,"352":-2.9693639278411865,"353":8.302713394165039,"354":-1.4858437776565552,"355":0.1023356169462204,"356":2.616631507873535,"357":-2.110771894454956,"358":0.6022614240646362,"359":-1.9113624095916748,"360":0.9084296822547913,"361":-4.94907283782959,"362":-0.041770681738853455,"363":-0.5666682124137878,"364":1.8553770780563354,"365":1.6180061101913452,"366":6.633383750915527,"367":4.158202648162842,"368":3.520425796508789,"369":-0.3534052073955536,"370":0.2253551483154297,"371":-0.14301303029060364,"372":0.9782444834709167,"373":-1.286669373512268,"374":1.5580159425735474,"375":1.7707098722457886,"376":-2.0837149620056152,"377":1.7634527683258057,"378":0.7000694274902344,"379":0.7151254415512085,"380":0.8859230279922485,"381":0.8480261564254761,"382":0.33947107195854187,"383":0.7267953157424927,"384":0.3460683524608612,"385":0.21504434943199158,"386":0.9606794118881226,"387":0.3778500556945801,"388":-1.9264267683029175,"389":0.2940676510334015,"390":0.927150547504425,"391":1.2362405061721802,"392":-1.2875834703445435,"393":-0.22607308626174927,"394":-2.484612226486206,"395":-0.3673626780509949,"396":1.6809784173965454,"397":-0.08608800172805786,"398":0.6744018197059631,"399":-0.0587347075343132,"400":-0.2534034550189972,"401":0.04841671511530876,"402":0.4125105142593384,"403":-0.22824741899967194,"404":0.26990488171577454,"405":0.06366289407014847,"406":0.2745523452758789,"407":1.1318480968475342,"408":-1.5391970872879028,"409":2.261343240737915,"410":0.6590331792831421,"411":-2.11767315864563,"412":-3.7839200496673584,"413":-4.188296794891357,"414":3.894818067550659,"415":-1.7544225454330444,"416":-0.9485917091369629,"417":-0.06567969918251038,"418":-1.2227873802185059,"419":0.6282609105110168,"420":-1.2261719703674316,"421":3.6232376098632812,"422":3.168600082397461,"423":1.2227537631988525,"424":5.725894927978516,"425":0.2643311321735382,"426":-2.2646589279174805,"427":-1.851076602935791,"428":1.9494837522506714,"429":-3.371262788772583,"430":-1.6151983737945557,"431":0.36154884099960327,"432":-3.3122012615203857,"433":-2.145615339279175,"434":0.7984024882316589,"435":1.5991451740264893,"436":0.4264308214187622,"437":0.9420690536499023,"438":2.0831854343414307,"439":0.9058511257171631,"440":0.6783462762832642,"441":0.7232627868652344,"442":-0.75421142578125,"443":1.1916097402572632,"444":-1.0389798879623413,"445":-1.3911153078079224,"446":-0.711588978767395,"447":0.5300353765487671,"448":0.28799694776535034,"449":2.765681266784668,"450":1.219312071800232,"451":-3.0992181301116943,"452":-0.29842787981033325,"453":1.2939211130142212,"454":-0.4101853370666504,"455":1.9024441242218018,"456":-0.26872918009757996,"457":-0.7093085646629333,"458":-0.643624484539032,"459":-2.2979438304901123,"460":0.24744251370429993,"461":-0.081989586353302,"462":0.03403801470994949,"463":-1.1675128936767578,"464":-0.8010002970695496,"465":-0.872409462928772,"466":-0.6882287859916687,"467":3.2043402194976807,"468":1.6392652988433838,"469":1.0384076833724976,"470":0.3597647249698639,"471":-1.0806119441986084,"472":0.9165087342262268,"473":2.690868616104126,"474":-0.08558681607246399,"475":-0.5617271661758423,"476":2.3817501068115234,"477":0.685923159122467,"478":1.7327170372009277,"479":0.020193982869386673,"480":-1.3804495334625244,"481":1.534515380859375,"482":-0.9958664774894714,"483":-0.24129873514175415,"484":2.346615791320801,"485":0.5629837512969971,"486":0.4420695900917053,"487":0.5037692785263062,"488":0.33619222044944763,"489":0.24449469149112701,"490":-1.3956396579742432,"491":-1.1468348503112793,"492":0.7341070175170898,"493":2.0959436893463135,"494":-0.16166873276233673,"495":1.5908257961273193,"496":-0.7757757306098938,"497":-0.9306672215461731,"498":0.36320292949676514,"499":-0.14169493317604065,"500":0.258335679769516,"501":-0.5610663890838623,"502":-0.2748062312602997,"503":0.7071869969367981,"504":0.1952400803565979,"505":-0.42578303813934326,"506":-3.2872636318206787,"507":0.3398393392562866,"508":2.4335339069366455,"509":0.26218944787979126,"510":1.283594012260437,"511":1.6892447471618652,"512":0.5813672542572021,"513":1.31373131275177,"514":0.4466678500175476,"515":0.971544086933136,"516":-0.3457607924938202,"517":-1.2717554569244385,"518":2.5878541469573975,"519":2.7887730598449707,"520":-0.6786877512931824,"521":-0.8361820578575134,"522":2.0633528232574463,"523":0.3849166929721832,"524":-2.166682243347168,"525":-0.5225048065185547,"526":3.9659910202026367,"527":-2.8024721145629883,"528":0.5241815447807312,"529":-2.7720212936401367,"530":0.516249418258667,"531":-4.807934284210205,"532":2.5761988162994385,"533":3.4063265323638916,"534":-2.2151143550872803,"535":-1.4033669233322144,"536":0.5354667901992798,"537":-0.2394130676984787,"538":4.42486572265625,"539":1.3598389625549316,"540":-3.9041240215301514,"541":2.8824472427368164,"542":-0.9494737982749939,"543":0.8897450566291809,"544":2.368298292160034,"545":5.381406784057617,"546":3.6825077533721924,"547":-1.9235966205596924,"548":4.6308913230896,"549":0.4786473512649536,"550":-1.6386388540267944,"551":4.1033477783203125,"552":1.0270769596099854,"553":-1.234506368637085,"554":-1.9104490280151367,"555":1.2928847074508667,"556":-1.6296223402023315,"557":0.4759352207183838,"558":-2.3071160316467285,"559":-1.364747405052185,"560":1.5151504278182983,"561":0.2357209324836731,"562":2.619992971420288,"563":0.9933344721794128,"564":1.5997675657272339,"565":-0.11802861839532852,"566":0.29040414094924927,"567":-0.2203906625509262,"568":1.6880584955215454,"569":0.39746955037117004,"570":-0.23590198159217834,"571":0.02229781448841095,"572":0.815720796585083,"573":1.4629290103912354,"574":0.6502453088760376,"575":-1.2874481678009033,"576":0.7853329181671143,"577":0.5263822674751282,"578":-3.122922420501709,"579":-0.1466561108827591,"580":0.1060803011059761,"581":-1.3454256057739258,"582":1.1421540975570679,"583":0.4598204791545868,"584":0.5337283611297607,"585":3.2648186683654785,"586":1.2939953804016113,"587":1.2343189716339111,"588":-0.12394992262125015,"589":-0.08829466998577118,"590":-1.0591752529144287,"591":0.3821393549442291,"592":-0.07505130022764206,"593":-0.14797143638134003,"594":1.1307047605514526,"595":1.838024377822876,"596":1.7286057472229004,"597":4.278857707977295,"598":-1.4162095785140991,"599":1.042225956916809,"600":5.277044296264648,"601":-5.281435489654541,"602":0.5536867380142212,"603":1.3852813243865967,"604":0.5754886269569397,"605":-2.172593832015991,"606":-1.837898850440979,"607":3.292600393295288,"608":-0.45315366983413696,"609":-4.971097946166992,"610":3.758284568786621,"611":1.7549282312393188,"612":5.891154766082764,"613":2.3201301097869873,"614":-0.3113687336444855,"615":-1.688011884689331,"616":-6.009091854095459,"617":0.06352909654378891,"618":-0.5094456672668457,"619":1.1075364351272583,"620":-0.1172686442732811,"621":-0.26551565527915955,"622":-0.5737406015396118,"623":2.970139980316162,"624":-2.5480034351348877,"625":-1.6674097776412964,"626":-0.6294541358947754,"627":5.033514022827148,"628":-4.962454319000244,"629":0.44576042890548706,"630":-0.09029125422239304,"631":0.2947346866130829,"632":-0.4290975034236908,"633":-1.9957044124603271,"634":2.7746341228485107,"635":-0.34907740354537964,"636":-1.2736451625823975,"637":-0.63016676902771,"638":1.843927264213562,"639":0.2783007323741913,"640":-0.11848273873329163,"641":0.2677699327468872,"642":1.5670078992843628,"643":0.8701274394989014,"644":-0.1119389757514,"645":0.5263234376907349,"646":-0.9466047286987305,"647":-0.464783251285553,"648":-0.9163690805435181,"649":-1.67744779586792,"650":1.2791332006454468,"651":0.133192241191864,"652":1.3029365539550781,"653":-0.4964453876018524,"654":-0.6059863567352295,"655":0.46531981229782104,"656":0.24309390783309937,"657":-0.5536648631095886,"658":0.6577399373054504,"659":-0.4814794063568115,"660":0.31387442350387573,"661":-0.10247082263231277,"662":-1.173696756362915,"663":1.6365008354187012,"664":-0.8851556777954102,"665":1.407292127609253,"666":-0.8823424577713013,"667":1.7093963623046875,"668":-3.123511552810669,"669":-0.40517857670783997,"670":0.8030347228050232,"671":-0.1924152970314026,"672":-2.6762523651123047,"673":3.9131765365600586,"674":-1.1395078897476196,"675":1.3516448736190796,"676":-0.9288117289543152,"677":-2.64205002784729,"678":1.048884630203247,"679":1.665568470954895,"680":0.7086012959480286,"681":1.8238497972488403,"682":-0.4496546685695648,"683":-0.7813470363616943,"684":-0.3953362703323364,"685":-1.2886452674865723,"686":0.06750954687595367,"687":-0.5415890216827393,"688":-0.21191276609897614,"689":-0.27506300806999207,"690":-2.0434513092041016,"691":-1.6049695014953613,"692":-0.0023880440276116133,"693":-0.5184645056724548,"694":-1.3150664567947388,"695":-1.64108145236969,"696":0.32398083806037903,"697":-1.357392430305481,"698":1.7605416774749756,"699":-3.3775999546051025,"700":1.184672474861145,"701":0.8344581127166748,"702":0.2637670636177063,"703":1.159218430519104,"704":0.297855406999588,"705":-0.4611976146697998,"706":2.483793020248413,"707":-0.3155129551887512,"708":-0.1260545700788498,"709":0.9997554421424866,"710":-0.008733024820685387,"711":-2.4449312686920166,"712":-0.7002900838851929,"713":0.5619307160377502,"714":2.288386106491089,"715":0.8378099799156189,"716":-3.7234058380126953,"717":0.863743007183075,"718":0.7231491804122925,"719":-2.3580894470214844,"720":-1.3040422201156616,"721":1.9642689228057861,"722":0.17053493857383728,"723":0.921605110168457,"724":0.9345571994781494,"725":1.7165377140045166,"726":-0.014890058897435665,"727":0.2800368368625641,"728":-1.6621240377426147,"729":-0.008758075535297394,"730":0.18522825837135315,"731":2.425454616546631,"732":2.062523603439331,"733":-0.824592113494873,"734":-0.14247676730155945,"735":1.6505975723266602,"736":1.2664259672164917,"737":-1.6090315580368042,"738":-1.9379726648330688,"739":-0.9753947257995605}},"inputHidden":{"rows":20,"columns":20,"weights":{"0":0.5539388060569763,"1":-5.346731185913086,"2":-5.708546161651611,"3":-1.150834083557129,"4":2.474900007247925,"5":2.5058155059814453,"6":6.082573890686035,"7":-2.7333168983459473,"8":0.26511186361312866,"9":-1.5282955169677734,"10":0.3358277380466461,"11":4.140207290649414,"12":3.7439146041870117,"13":2.0337681770324707,"14":0.601649820804596,"15":0.8695879578590393,"16":3.2230167388916016,"17":1.997841715812683,"18":4.118175506591797,"19":6.64098596572876,"20":-0.9099817872047424,"21":0.03322239965200424,"22":-0.20039582252502441,"23":-1.9839370250701904,"24":-1.3535712957382202,"25":-0.13687556982040405,"26":-9.992805480957031,"27":-5.592422008514404,"28":1.8339697122573853,"29":-1.069956660270691,"30":-7.912974834442139,"31":-0.3950727581977844,"32":-0.2590664029121399,"33":-1.7775061130523682,"34":-1.573972225189209,"35":-5.593377113342285,"36":4.373455047607422,"37":7.478714942932129,"38":-3.2885899543762207,"39":-0.03372933343052864,"40":-1.953842043876648,"41":-1.8218351602554321,"42":-0.3645903766155243,"43":1.7323198318481445,"44":2.2731781005859375,"45":-1.7517071962356567,"46":-4.695741176605225,"47":4.161331653594971,"48":-18.328020095825195,"49":0.3981020450592041,"50":-1.9015873670578003,"51":-1.150315761566162,"52":-2.3894240856170654,"53":4.462889194488525,"54":-1.0900115966796875,"55":3.072267532348633,"56":1.9967329502105713,"57":0.0862487405538559,"58":-1.509547472000122,"59":0.1585414707660675,"60":-9.945680618286133,"61":2.3651626110076904,"62":-4.386153221130371,"63":8.535877227783203,"64":2.152261734008789,"65":0.5823147892951965,"66":-8.466702461242676,"67":2.56858491897583,"68":-15.31783390045166,"69":7.254172325134277,"70":-5.836784839630127,"71":0.38345396518707275,"72":1.6146214008331299,"73":-0.9606799483299255,"74":2.374593734741211,"75":-0.9906761050224304,"76":-1.4777263402938843,"77":-0.6769611239433289,"78":2.155369758605957,"79":-0.7253788113594055,"80":-2.2744216918945312,"81":0.9455764293670654,"82":5.0905632972717285,"83":1.0413933992385864,"84":-1.105778455734253,"85":0.43221884965896606,"86":-1.923584222793579,"87":-1.5343178510665894,"88":-2.459423780441284,"89":-3.905064821243286,"90":-1.7438726425170898,"91":1.3754878044128418,"92":0.7622214555740356,"93":0.024907033890485764,"94":1.8978718519210815,"95":-1.7374135255813599,"96":3.062495708465576,"97":5.4887824058532715,"98":-2.1068618297576904,"99":-1.3590847253799438,"100":9.55044174194336,"101":3.070493459701538,"102":14.600364685058594,"103":-4.420101642608643,"104":10.59835433959961,"105":2.3400657176971436,"106":-6.811007499694824,"107":4.498955249786377,"108":2.1258394718170166,"109":3.6576263904571533,"110":-3.3805806636810303,"111":-1.4422924518585205,"112":-2.355949640274048,"113":-10.596068382263184,"114":-3.375725269317627,"115":-5.5441155433654785,"116":-1.0936065912246704,"117":7.823158264160156,"118":2.4980316162109375,"119":-3.4218857288360596,"120":0.5331331491470337,"121":-5.135988712310791,"122":-0.479332834482193,"123":3.024346113204956,"124":0.9316490888595581,"125":0.41052189469337463,"126":-0.21432143449783325,"127":-0.3468766510486603,"128":2.923861503601074,"129":-1.1896907091140747,"130":-0.9745894074440002,"131":-0.6869904398918152,"132":0.7379644513130188,"133":1.2955918312072754,"134":0.1753992736339569,"135":0.9076165556907654,"136":-4.827390193939209,"137":-0.26913589239120483,"138":2.829733371734619,"139":1.262096881866455,"140":8.265130996704102,"141":1.0215083360671997,"142":-1.981784462928772,"143":-3.7748467922210693,"144":-5.671998977661133,"145":5.041867733001709,"146":-6.628268718719482,"147":-1.6878955364227295,"148":9.20646858215332,"149":-2.1584365367889404,"150":4.3877105712890625,"151":0.0874008983373642,"152":7.044688701629639,"153":1.8020895719528198,"154":1.499863862991333,"155":-4.401577472686768,"156":8.75121784210205,"157":3.3593227863311768,"158":-3.1005756855010986,"159":-1.2404940128326416,"160":-8.300455093383789,"161":6.910062313079834,"162":-0.5646302103996277,"163":4.04451847076416,"164":-2.165360450744629,"165":0.5832061767578125,"166":-5.966064453125,"167":-1.902936339378357,"168":11.963665962219238,"169":-3.313823699951172,"170":-2.0360846519470215,"171":-0.9102945327758789,"172":-2.6716601848602295,"173":-0.8178589344024658,"174":-0.1068306490778923,"175":-0.8703010678291321,"176":-2.9736580848693848,"177":-1.499121069908142,"178":-3.899820327758789,"179":-0.8187815546989441,"180":4.582099437713623,"181":-2.7985661029815674,"182":-7.817322254180908,"183":4.578217506408691,"184":4.693632125854492,"185":2.056385040283203,"186":-6.239858627319336,"187":-0.7899518013000488,"188":-1.057539701461792,"189":-1.1853774785995483,"190":2.152991533279419,"191":-2.1135828495025635,"192":-0.891464114189148,"193":-0.825652003288269,"194":2.7599799633026123,"195":-0.5383318066596985,"196":-3.494285821914673,"197":-0.4129382073879242,"198":2.0935680866241455,"199":-4.858131408691406,"200":-1.4921197891235352,"201":4.831760883331299,"202":0.6486923694610596,"203":-7.5211873054504395,"204":-1.1687450408935547,"205":0.0005467940936796367,"206":-8.018964767456055,"207":4.314667701721191,"208":4.503507137298584,"209":6.619731426239014,"210":-0.5125532150268555,"211":8.035048484802246,"212":2.6036956310272217,"213":-1.5767918825149536,"214":-4.395827293395996,"215":-4.129616737365723,"216":-4.442741870880127,"217":7.8658976554870605,"218":-1.2994734048843384,"219":5.164185523986816,"220":-11.048615455627441,"221":-0.8113328218460083,"222":-6.071618556976318,"223":-4.241368293762207,"224":-4.118000507354736,"225":2.9956254959106445,"226":-0.03712651506066322,"227":9.370295524597168,"228":-1.1481717824935913,"229":9.059986114501953,"230":14.6465425491333,"231":5.3961920738220215,"232":2.9693603515625,"233":-1.0302428007125854,"234":-10.17736530303955,"235":6.735467910766602,"236":-10.931451797485352,"237":1.7658385038375854,"238":3.6617493629455566,"239":12.78527545928955,"240":0.8344650268554688,"241":-2.4399595260620117,"242":0.3223373591899872,"243":-3.0435662269592285,"244":-6.989559173583984,"245":-0.8299469351768494,"246":3.314227819442749,"247":-0.7911653518676758,"248":-1.4987945556640625,"249":-1.3348462581634521,"250":1.7180325984954834,"251":1.0166865587234497,"252":-3.7023561000823975,"253":0.031036194413900375,"254":-3.2171802520751953,"255":5.4814300537109375,"256":-1.0473966598510742,"257":1.2936692237854004,"258":0.09645679593086243,"259":2.8872010707855225,"260":-3.705949544906616,"261":4.695784568786621,"262":1.9204827547073364,"263":2.9957125186920166,"264":12.896231651306152,"265":6.858668327331543,"266":-13.884502410888672,"267":-0.9499839544296265,"268":-4.640213489532471,"269":-0.7740966081619263,"270":6.136066436767578,"271":-7.039387226104736,"272":-0.5385283827781677,"273":-1.218013882637024,"274":5.273874282836914,"275":9.258087158203125,"276":-2.1981658935546875,"277":-3.7725725173950195,"278":-8.236963272094727,"279":0.1265917867422104,"280":-3.5937576293945312,"281":-0.18029209971427917,"282":0.6999590992927551,"283":-0.5938953161239624,"284":-1.269771695137024,"285":-3.0750579833984375,"286":-10.68226146697998,"287":-1.3448249101638794,"288":-8.464094161987305,"289":-2.3095264434814453,"290":3.8197412490844727,"291":-2.0993313789367676,"292":2.100646495819092,"293":2.2644591331481934,"294":0.3900641202926636,"295":1.9373682737350464,"296":-0.5965067744255066,"297":-5.174254894256592,"298":-4.899261474609375,"299":1.7844698429107666,"300":2.7428791522979736,"301":0.8756962418556213,"302":0.6418840289115906,"303":-1.0755257606506348,"304":-2.465240955352783,"305":-1.539462924003601,"306":-15.423782348632812,"307":4.241304874420166,"308":-2.318476676940918,"309":-1.3680654764175415,"310":7.4169745445251465,"311":-3.9195713996887207,"312":4.830489158630371,"313":3.2192811965942383,"314":-3.4327924251556396,"315":-0.4139483571052551,"316":7.0937700271606445,"317":-0.9554809927940369,"318":-5.2108917236328125,"319":1.9505282640457153,"320":2.06020188331604,"321":9.253148078918457,"322":8.060483932495117,"323":2.9313817024230957,"324":-8.713912010192871,"325":-4.445685386657715,"326":-6.519726753234863,"327":-4.185583591461182,"328":-2.4740071296691895,"329":-6.519781589508057,"330":-4.698092460632324,"331":-4.495241165161133,"332":-1.9953933954238892,"333":-1.9943230152130127,"334":4.370707035064697,"335":-2.1344857215881348,"336":9.42872142791748,"337":-0.32665959000587463,"338":-0.38977405428886414,"339":0.5253082513809204,"340":-12.424259185791016,"341":-0.2515431046485901,"342":-0.3976672291755676,"343":-3.2577295303344727,"344":-1.2433377504348755,"345":-1.2136296033859253,"346":5.2624382972717285,"347":5.0917792320251465,"348":-5.630492210388184,"349":-3.674133062362671,"350":-0.4199031889438629,"351":-1.75892972946167,"352":0.2719127833843231,"353":1.5391337871551514,"354":1.3264656066894531,"355":3.5011463165283203,"356":0.4243822991847992,"357":-3.2177481651306152,"358":8.416016578674316,"359":-1.7855124473571777,"360":-3.0791380405426025,"361":-4.337920188903809,"362":1.0059864521026611,"363":-1.957369089126587,"364":-3.1930911540985107,"365":-2.3009705543518066,"366":-3.4595723152160645,"367":4.75039529800415,"368":-5.546345233917236,"369":0.49221348762512207,"370":-2.3799142837524414,"371":-1.2934465408325195,"372":0.7512471675872803,"373":1.2230535745620728,"374":-0.5814648866653442,"375":-0.37352731823921204,"376":-1.2494155168533325,"377":-0.05478786677122116,"378":-3.3584415912628174,"379":1.6287990808486938,"380":5.035337924957275,"381":3.5750834941864014,"382":-5.392306327819824,"383":-7.996844291687012,"384":-9.84212875366211,"385":4.193933010101318,"386":1.970005750656128,"387":4.051112174987793,"388":0.26943260431289673,"389":2.7897164821624756,"390":9.085508346557617,"391":6.2105183601379395,"392":9.09105110168457,"393":7.729449272155762,"394":-5.617220878601074,"395":-10.584480285644531,"396":-6.241273880004883,"397":1.1227270364761353,"398":8.1077241897583,"399":-5.58684778213501}},"inputBias":{"rows":20,"columns":1,"weights":{"0":1.5149405002593994,"1":-1.62319016456604,"2":-1.5469640493392944,"3":2.7275314331054688,"4":0.6442873477935791,"5":0.04775169491767883,"6":-0.2286509871482849,"7":1.369873046875,"8":0.12795725464820862,"9":0.6207512617111206,"10":-0.3143090009689331,"11":-0.6137812733650208,"12":-0.314727246761322,"13":0.4985203742980957,"14":0.0222763791680336,"15":1.1735814809799194,"16":-1.095445156097412,"17":0.03188721835613251,"18":-0.5707712173461914,"19":-1.491977334022522}},"forgetMatrix":{"rows":20,"columns":37,"weights":{"0":0.018482334911823273,"1":-0.9966115355491638,"2":-0.3386245667934418,"3":-1.9223861694335938,"4":-2.3180391788482666,"5":1.2058409452438354,"6":-3.0194644927978516,"7":-2.8124687671661377,"8":3.0937702655792236,"9":-1.6906023025512695,"10":1.9863569736480713,"11":0.5791059732437134,"12":0.5003426671028137,"13":0.7280364036560059,"14":-1.5968245267868042,"15":1.9352521896362305,"16":-0.3112512528896332,"17":0.6057968139648438,"18":1.1903554201126099,"19":-1.9889450073242188,"20":0.6208197474479675,"21":-0.4736213982105255,"22":-1.0705715417861938,"23":-0.297444611787796,"24":-0.13089445233345032,"25":-1.114192008972168,"26":1.5715597867965698,"27":-0.2009471207857132,"28":1.407910943031311,"29":-0.6480068564414978,"30":2.056687593460083,"31":0.08619548380374908,"32":0.8488247394561768,"33":1.002065896987915,"34":2.0632259845733643,"35":2.4607419967651367,"36":3.437716245651245,"37":0.19978651404380798,"38":1.2362416982650757,"39":-0.7052083611488342,"40":0.8245261311531067,"41":0.6435815691947937,"42":-0.9460251927375793,"43":3.8450284004211426,"44":2.371628522872925,"45":1.4345381259918213,"46":4.420548439025879,"47":-2.9224061965942383,"48":2.5515213012695312,"49":0.6618232131004333,"50":2.951962471008301,"51":-1.4087519645690918,"52":-0.12336024641990662,"53":4.433074474334717,"54":-5.837360858917236,"55":-2.394395589828491,"56":-2.0009517669677734,"57":0.7439615726470947,"58":-2.4377379417419434,"59":-5.167757511138916,"60":4.676231861114502,"61":3.1118533611297607,"62":-2.750115394592285,"63":1.8893038034439087,"64":-4.008767127990723,"65":-3.0362014770507812,"66":-2.9243369102478027,"67":-1.5068573951721191,"68":2.5096888542175293,"69":-1.365006446838379,"70":1.080726146697998,"71":3.1752352714538574,"72":1.2172930240631104,"73":2.7114779949188232,"74":-2.6094272136688232,"75":3.448354482650757,"76":-2.263892412185669,"77":0.4331059455871582,"78":1.472456932067871,"79":5.746767044067383,"80":0.5055590271949768,"81":-3.7994682788848877,"82":-1.0109663009643555,"83":-3.1092746257781982,"84":2.0427486896514893,"85":5.106797695159912,"86":1.6822395324707031,"87":0.4533737301826477,"88":-4.675780773162842,"89":-0.11585098505020142,"90":0.1262892484664917,"91":-3.207733631134033,"92":4.141848564147949,"93":0.321318656206131,"94":8.043588638305664,"95":-3.8581998348236084,"96":-0.967432975769043,"97":-4.322118759155273,"98":-2.297124147415161,"99":1.0836882591247559,"100":-2.797011613845825,"101":6.077301025390625,"102":-4.079117774963379,"103":-2.7992472648620605,"104":-0.061599086970090866,"105":2.0376367568969727,"106":0.8961782455444336,"107":-0.5163516998291016,"108":-2.9822208881378174,"109":-3.3329546451568604,"110":-6.033888339996338,"111":-6.518977642059326,"112":1.8041808605194092,"113":3.4863898754119873,"114":-2.9493014812469482,"115":1.4956483840942383,"116":-5.205794811248779,"117":-4.788556098937988,"118":0.5516611933708191,"119":3.481668472290039,"120":2.648541212081909,"121":0.5511370301246643,"122":0.8030542135238647,"123":1.3590692281723022,"124":3.8861024379730225,"125":2.9519829750061035,"126":-0.4363853633403778,"127":5.303447246551514,"128":-0.3687582015991211,"129":3.1708834171295166,"130":-0.5222200155258179,"131":-2.957085609436035,"132":-1.8367763757705688,"133":2.17819881439209,"134":-1.3538867235183716,"135":2.0443828105926514,"136":1.3691680431365967,"137":-6.03616189956665,"138":5.970733165740967,"139":-2.2160091400146484,"140":-3.7003955841064453,"141":1.1926414966583252,"142":3.450636386871338,"143":0.3555721640586853,"144":1.6343060731887817,"145":3.2772252559661865,"146":-9.153592109680176,"147":2.65864634513855,"148":4.290379047393799,"149":0.32255643606185913,"150":1.488336443901062,"151":-1.2344000339508057,"152":-4.910764217376709,"153":3.54693603515625,"154":1.4892610311508179,"155":1.025990605354309,"156":0.5470828413963318,"157":-1.2549394369125366,"158":1.8269875049591064,"159":-3.154865026473999,"160":1.3013262748718262,"161":-1.750948429107666,"162":-0.03237579017877579,"163":-0.7041367292404175,"164":-2.297539234161377,"165":0.4388504922389984,"166":1.5835269689559937,"167":1.7405143976211548,"168":-3.427145481109619,"169":0.7095238566398621,"170":0.604499101638794,"171":-1.6912111043930054,"172":0.7458299994468689,"173":0.8143545389175415,"174":-1.3385528326034546,"175":4.25712776184082,"176":-0.2903966009616852,"177":-0.07022280246019363,"178":0.48541000485420227,"179":-0.40979623794555664,"180":2.794128656387329,"181":-3.0887656211853027,"182":0.8508455753326416,"183":0.17695987224578857,"184":-2.380878448486328,"185":-1.1097451448440552,"186":2.018714427947998,"187":-4.066981315612793,"188":-2.750916004180908,"189":0.3692961633205414,"190":-1.9151445627212524,"191":-0.17699067294597626,"192":1.4093308448791504,"193":1.3208880424499512,"194":0.5376359820365906,"195":0.3098686933517456,"196":-5.137636184692383,"197":2.3478903770446777,"198":-0.9814521074295044,"199":-7.272872447967529,"200":2.966042995452881,"201":-2.6522226333618164,"202":-6.730812072753906,"203":1.3667985200881958,"204":1.3665248155593872,"205":1.9194822311401367,"206":-1.8820676803588867,"207":1.3905034065246582,"208":2.2013964653015137,"209":0.9825289249420166,"210":3.5764808654785156,"211":-7.7060546875,"212":-6.399593830108643,"213":0.046455904841423035,"214":-2.892798662185669,"215":0.22918103635311127,"216":0.9851927757263184,"217":3.0178909301757812,"218":1.2079476118087769,"219":-0.36769044399261475,"220":-3.007551431655884,"221":4.07068395614624,"222":-2.829110622406006,"223":-2.988611936569214,"224":-3.7367701530456543,"225":-1.0901516675949097,"226":-0.8593587279319763,"227":-0.7688831686973572,"228":0.5192375779151917,"229":-0.8698444962501526,"230":-1.5920583009719849,"231":3.8428823947906494,"232":1.1415843963623047,"233":2.032681941986084,"234":0.1541983187198639,"235":2.4414618015289307,"236":-1.3064985275268555,"237":-1.977508544921875,"238":0.09726602584123611,"239":-5.165656089782715,"240":-2.7299466133117676,"241":-0.12150991708040237,"242":-2.683344602584839,"243":0.45315662026405334,"244":-0.14481353759765625,"245":1.3362191915512085,"246":3.7090682983398438,"247":-0.6706087589263916,"248":-1.9281885623931885,"249":-0.4858294725418091,"250":4.474163055419922,"251":-1.5766600370407104,"252":2.695553779602051,"253":1.516310453414917,"254":4.0251665115356445,"255":-1.2038356065750122,"256":5.988224983215332,"257":-0.13584645092487335,"258":-2.8165335655212402,"259":1.079357385635376,"260":-2.1826186180114746,"261":8.434197425842285,"262":-0.3300747573375702,"263":-5.74569845199585,"264":-1.434876561164856,"265":-6.446354389190674,"266":-2.1063296794891357,"267":-2.4203479290008545,"268":2.202996015548706,"269":-1.9508084058761597,"270":1.3017266988754272,"271":1.616438388824463,"272":0.705051600933075,"273":-0.14860674738883972,"274":1.7237262725830078,"275":-0.7958406805992126,"276":2.3043198585510254,"277":0.9511277079582214,"278":-0.7364076972007751,"279":0.10628169775009155,"280":1.4845420122146606,"281":-1.0379014015197754,"282":-0.6790254712104797,"283":-1.2268446683883667,"284":-0.6829583048820496,"285":-2.9951059818267822,"286":0.6323055624961853,"287":-2.535059690475464,"288":8.3265962600708,"289":-5.180970191955566,"290":0.010097351856529713,"291":-0.18622064590454102,"292":2.60233998298645,"293":-2.7368004322052,"294":-0.4215351939201355,"295":-2.71421217918396,"296":0.5023769736289978,"297":0.4333623945713043,"298":-4.7118730545043945,"299":2.0433828830718994,"300":-1.9284625053405762,"301":-4.084413528442383,"302":0.5248396992683411,"303":-0.5491660833358765,"304":1.3252121210098267,"305":4.098972797393799,"306":0.3458644449710846,"307":2.8715927600860596,"308":-2.682741403579712,"309":-3.137831211090088,"310":-2.751430034637451,"311":-3.678229570388794,"312":-0.6445053219795227,"313":1.4838600158691406,"314":-8.021444320678711,"315":1.783652901649475,"316":-1.4806818962097168,"317":-1.7334200143814087,"318":-0.49691101908683777,"319":3.11869740486145,"320":0.5720478296279907,"321":-0.9171655774116516,"322":4.511260032653809,"323":-2.680410385131836,"324":-2.2659316062927246,"325":-2.6185853481292725,"326":-1.8475558757781982,"327":-0.6649290323257446,"328":-0.3542931079864502,"329":-0.33507296442985535,"330":0.24459899961948395,"331":-1.2953745126724243,"332":3.0819091796875,"333":1.2999682426452637,"334":-5.092682361602783,"335":-0.9103295803070068,"336":-5.309278964996338,"337":-0.7465059757232666,"338":0.22529391944408417,"339":-5.401479244232178,"340":1.45923912525177,"341":-1.1100939512252808,"342":-2.5874738693237305,"343":-0.5883821249008179,"344":-4.49057674407959,"345":4.1352691650390625,"346":0.2100927233695984,"347":-4.81249475479126,"348":-4.523612022399902,"349":-1.0970072746276855,"350":5.34658145904541,"351":-2.2405197620391846,"352":1.8722343444824219,"353":-3.9337575435638428,"354":7.032397270202637,"355":-11.01054573059082,"356":-1.104082465171814,"357":-1.4664232730865479,"358":-3.167182683944702,"359":0.8112530708312988,"360":2.830172300338745,"361":-1.3111615180969238,"362":0.14472658932209015,"363":0.13807696104049683,"364":3.5459542274475098,"365":-5.0611186027526855,"366":1.7583876848220825,"367":2.652296543121338,"368":-2.856415271759033,"369":3.796990156173706,"370":0.3366212248802185,"371":2.3507773876190186,"372":6.235169887542725,"373":1.3171179294586182,"374":3.9473674297332764,"375":2.517791271209717,"376":-1.0492372512817383,"377":4.943181991577148,"378":-2.082157611846924,"379":-2.018533706665039,"380":0.1619737297296524,"381":2.042710542678833,"382":-4.644454479217529,"383":4.292195796966553,"384":4.377821445465088,"385":-5.062915802001953,"386":1.6575088500976562,"387":1.194521427154541,"388":-1.4100879430770874,"389":-1.3578276634216309,"390":0.7008482813835144,"391":0.6089770197868347,"392":1.5320152044296265,"393":-2.8273887634277344,"394":1.0684003829956055,"395":-1.702764630317688,"396":-2.3559672832489014,"397":-2.254927158355713,"398":-1.2786258459091187,"399":3.1120572090148926,"400":-1.087531566619873,"401":-1.710435152053833,"402":-1.7532498836517334,"403":0.9726001620292664,"404":-2.2533159255981445,"405":0.6770507097244263,"406":-3.162973403930664,"407":0.22089341282844543,"408":-0.08714016526937485,"409":-2.2984566688537598,"410":0.08938314020633698,"411":1.8976083993911743,"412":-2.6995434761047363,"413":2.2154505252838135,"414":1.4699283838272095,"415":2.115185022354126,"416":8.564696311950684,"417":4.930295467376709,"418":5.314837455749512,"419":4.643036842346191,"420":-0.29020956158638,"421":-1.2813270092010498,"422":0.18758057057857513,"423":-1.9743884801864624,"424":3.488222360610962,"425":7.469886302947998,"426":0.7468612790107727,"427":-2.1640045642852783,"428":-0.47675642371177673,"429":-0.501114547252655,"430":-2.137096405029297,"431":5.7156782150268555,"432":4.037016868591309,"433":7.00138521194458,"434":6.247824192047119,"435":-0.46438178420066833,"436":-0.6288319230079651,"437":1.415619134902954,"438":-4.726932048797607,"439":-1.2895560264587402,"440":-9.103833198547363,"441":-0.9614627361297607,"442":-3.2145705223083496,"443":1.9699418544769287,"444":-1.3956787586212158,"445":-2.7512619495391846,"446":1.3543870449066162,"447":-1.4677802324295044,"448":-2.829681158065796,"449":-4.211081027984619,"450":-1.4060084819793701,"451":-3.6257448196411133,"452":1.1118388175964355,"453":-2.1251330375671387,"454":0.4264945983886719,"455":2.7375307083129883,"456":1.5136189460754395,"457":1.4130139350891113,"458":-1.6855486631393433,"459":-1.585811972618103,"460":1.0422379970550537,"461":2.0858190059661865,"462":-2.552339553833008,"463":0.3856973648071289,"464":-0.8613178730010986,"465":-0.9451373815536499,"466":-2.568303346633911,"467":-0.879231870174408,"468":-1.675593614578247,"469":-0.3489266633987427,"470":0.19249238073825836,"471":1.629507303237915,"472":1.4273533821105957,"473":-0.09948103874921799,"474":0.9390690922737122,"475":0.4222550392150879,"476":-1.611739993095398,"477":-3.3510000705718994,"478":-1.3232901096343994,"479":0.8415451645851135,"480":7.316215515136719,"481":0.4572552740573883,"482":1.2495211362838745,"483":2.1306376457214355,"484":2.719799757003784,"485":-1.2578186988830566,"486":2.0878946781158447,"487":-1.8507603406906128,"488":4.431529521942139,"489":0.01168231014162302,"490":-0.2537142336368561,"491":-2.0194499492645264,"492":-0.9011409282684326,"493":-0.10651615262031555,"494":6.1961259841918945,"495":1.8460592031478882,"496":-1.3694738149642944,"497":1.5365641117095947,"498":0.6390852928161621,"499":-2.198683977127075,"500":-1.3225996494293213,"501":-1.6758888959884644,"502":-5.206873893737793,"503":-1.2265161275863647,"504":-2.1717827320098877,"505":1.7203351259231567,"506":-1.5150142908096313,"507":-2.386258602142334,"508":-0.051037948578596115,"509":-0.2621406018733978,"510":-1.7257739305496216,"511":-1.3331527709960938,"512":-0.3871070146560669,"513":0.054268814623355865,"514":-1.7704088687896729,"515":-0.12729734182357788,"516":-2.0429160594940186,"517":1.1198837757110596,"518":3.2060964107513428,"519":4.765968322753906,"520":-1.6072698831558228,"521":-1.9779030084609985,"522":6.950042247772217,"523":-1.3476672172546387,"524":-0.17514140903949738,"525":1.2363078594207764,"526":5.171302318572998,"527":-3.863006114959717,"528":1.2661124467849731,"529":-1.49113929271698,"530":-0.9022291898727417,"531":1.9438172578811646,"532":-0.19151613116264343,"533":2.182321310043335,"534":0.8444556593894958,"535":3.527661085128784,"536":-3.0099024772644043,"537":2.506756544113159,"538":0.8840421438217163,"539":1.2984730005264282,"540":-4.051890850067139,"541":5.9052863121032715,"542":1.9999746084213257,"543":-3.6608407497406006,"544":5.026973724365234,"545":1.3913664817810059,"546":-5.327304363250732,"547":-2.9231033325195312,"548":-3.0607962608337402,"549":-7.608609199523926,"550":-3.2837483882904053,"551":9.214093208312988,"552":-0.5365200042724609,"553":-0.0878097265958786,"554":-1.8803637027740479,"555":-3.0400006771087646,"556":-0.009149739518761635,"557":-2.9387588500976562,"558":1.0047398805618286,"559":3.4914755821228027,"560":-6.064385414123535,"561":1.795777678489685,"562":-4.979925155639648,"563":0.6621201634407043,"564":-0.8820781707763672,"565":1.1122685670852661,"566":3.0018796920776367,"567":-3.7260358333587646,"568":2.213359832763672,"569":-0.863882303237915,"570":3.9879894256591797,"571":0.8197486996650696,"572":-2.4123668670654297,"573":1.202893614768982,"574":-3.752208948135376,"575":1.3216700553894043,"576":2.355675458908081,"577":5.387963771820068,"578":-1.585107445716858,"579":-2.9943950176239014,"580":3.1596925258636475,"581":-2.209421157836914,"582":-4.592433452606201,"583":-1.8506873846054077,"584":0.7713624835014343,"585":-1.9663156270980835,"586":5.432704448699951,"587":2.6418800354003906,"588":-4.524966716766357,"589":-2.555284023284912,"590":-1.1867619752883911,"591":3.0044991970062256,"592":1.7060809135437012,"593":-0.42003992199897766,"594":2.835439920425415,"595":-2.912576675415039,"596":1.2631841897964478,"597":-3.9845967292785645,"598":1.7073922157287598,"599":1.138371229171753,"600":6.338632106781006,"601":-0.20462314784526825,"602":0.6601009964942932,"603":-0.2339102327823639,"604":1.3309365510940552,"605":-7.591878890991211,"606":0.40333664417266846,"607":2.919652223587036,"608":1.7647466659545898,"609":-3.2397356033325195,"610":4.711977481842041,"611":2.3197643756866455,"612":-1.4507734775543213,"613":-0.30073073506355286,"614":4.413143634796143,"615":-1.2422575950622559,"616":0.9344564080238342,"617":-2.4842770099639893,"618":0.5929062366485596,"619":2.7764132022857666,"620":2.398400068283081,"621":1.9698972702026367,"622":1.9637404680252075,"623":-0.5176712870597839,"624":-0.4020495116710663,"625":-1.7309000492095947,"626":0.5125787258148193,"627":0.3872334063053131,"628":0.6202605366706848,"629":-0.861331045627594,"630":2.6157443523406982,"631":0.7985346913337708,"632":1.7563079595565796,"633":0.3318255543708801,"634":-0.5925009846687317,"635":0.6794094443321228,"636":-0.5795868039131165,"637":1.976888656616211,"638":-2.743779182434082,"639":-3.155022621154785,"640":1.5312412977218628,"641":1.4703834056854248,"642":0.2290027141571045,"643":2.2568399906158447,"644":2.2497787475585938,"645":-4.700681686401367,"646":-6.218157768249512,"647":1.7882037162780762,"648":1.1862186193466187,"649":7.097425937652588,"650":0.4722912609577179,"651":-0.7448538541793823,"652":0.8243851065635681,"653":-3.0793654918670654,"654":-1.1496883630752563,"655":-1.4159141778945923,"656":-3.755671739578247,"657":1.7365540266036987,"658":2.311580181121826,"659":-3.351496458053589,"660":-2.183258533477783,"661":-1.352367877960205,"662":-1.0956144332885742,"663":1.5044840574264526,"664":-0.613807737827301,"665":1.273969054222107,"666":-3.347489356994629,"667":4.615509033203125,"668":-1.2576817274093628,"669":-1.130393624305725,"670":5.6025567054748535,"671":-0.2417300045490265,"672":-1.2390955686569214,"673":3.0957586765289307,"674":5.840270519256592,"675":1.1785058975219727,"676":-2.3882827758789062,"677":-0.8602448105812073,"678":-1.2838650941848755,"679":-3.5760087966918945,"680":1.9564696550369263,"681":-1.1370916366577148,"682":2.2222437858581543,"683":-2.35009765625,"684":0.31800174713134766,"685":-2.1481690406799316,"686":2.5488674640655518,"687":-1.808156132698059,"688":-0.6011924147605896,"689":4.490541458129883,"690":-4.315680503845215,"691":2.9027915000915527,"692":-2.4242055416107178,"693":-1.4330408573150635,"694":-4.035348415374756,"695":-1.1724090576171875,"696":-2.4858856201171875,"697":1.140992283821106,"698":1.699377179145813,"699":-1.1204047203063965,"700":-4.145524024963379,"701":1.6883610486984253,"702":-2.42108154296875,"703":1.7047673463821411,"704":0.02877797931432724,"705":1.771431803703308,"706":-0.19454926252365112,"707":-3.612966537475586,"708":-3.2660629749298096,"709":-6.528296947479248,"710":2.8110733032226562,"711":-2.915203094482422,"712":-1.0107817649841309,"713":-2.9654150009155273,"714":3.2679154872894287,"715":3.5854551792144775,"716":2.7549033164978027,"717":-6.804697513580322,"718":1.054334282875061,"719":0.9119099378585815,"720":-6.426752090454102,"721":-4.489236831665039,"722":1.6532983779907227,"723":5.781187534332275,"724":3.9898922443389893,"725":-2.4656553268432617,"726":-1.5475530624389648,"727":-1.4562419652938843,"728":-1.560965895652771,"729":-0.1273932158946991,"730":1.2593367099761963,"731":2.1893694400787354,"732":1.3878076076507568,"733":-0.678458571434021,"734":1.0389671325683594,"735":-3.436501979827881,"736":1.2337125539779663,"737":-2.0861568450927734,"738":-7.762056350708008,"739":1.2891343832015991}},"forgetHidden":{"rows":20,"columns":20,"weights":{"0":-0.4237457811832428,"1":-0.013755062595009804,"2":1.1905544996261597,"3":0.024846380576491356,"4":-0.5695762038230896,"5":-0.9447863698005676,"6":-0.7447556257247925,"7":-0.813086211681366,"8":0.9534321427345276,"9":0.28030508756637573,"10":-1.4130948781967163,"11":-2.4704957008361816,"12":-0.4088209867477417,"13":-0.6684086322784424,"14":0.31254133582115173,"15":1.0449020862579346,"16":-0.1777699738740921,"17":-1.716479778289795,"18":3.674532890319824,"19":-1.3647277355194092,"20":-4.046065330505371,"21":0.2872040569782257,"22":-3.2014057636260986,"23":3.7078330516815186,"24":2.3798348903656006,"25":-2.9094552993774414,"26":0.44073209166526794,"27":-1.357683777809143,"28":0.16597184538841248,"29":-1.739210605621338,"30":1.0999356508255005,"31":-1.1517770290374756,"32":2.268296718597412,"33":3.519226312637329,"34":-1.2550147771835327,"35":-5.104952812194824,"36":0.14989542961120605,"37":3.472696542739868,"38":4.350498676300049,"39":4.162114143371582,"40":1.2559406757354736,"41":3.7927072048187256,"42":-10.143052101135254,"43":3.3538787364959717,"44":-4.670271873474121,"45":-7.050050735473633,"46":-4.7344512939453125,"47":-13.069742202758789,"48":0.5355218052864075,"49":-15.381817817687988,"50":-6.152586936950684,"51":-9.582803726196289,"52":-11.141188621520996,"53":5.842119216918945,"54":6.017531871795654,"55":-9.224863052368164,"56":0.9814726710319519,"57":-2.5149693489074707,"58":-2.218296766281128,"59":-4.059843063354492,"60":-4.694302558898926,"61":5.144002437591553,"62":3.7336089611053467,"63":-8.94820785522461,"64":-3.9548819065093994,"65":1.934682846069336,"66":7.008925914764404,"67":8.538237571716309,"68":0.22222785651683807,"69":2.3518805503845215,"70":4.8121161460876465,"71":-0.549782395362854,"72":6.63075065612793,"73":4.530966281890869,"74":5.461231231689453,"75":-4.086977005004883,"76":-1.1796578168869019,"77":-1.1428662538528442,"78":7.950782775878906,"79":-2.6329097747802734,"80":-5.419130325317383,"81":5.546305179595947,"82":2.52742862701416,"83":1.1956307888031006,"84":2.647979974746704,"85":-7.7574462890625,"86":-8.437715530395508,"87":-2.6053943634033203,"88":3.986379623413086,"89":-3.436279296875,"90":-0.615699052810669,"91":-3.4983763694763184,"92":-9.94284725189209,"93":-3.4601690769195557,"94":-0.14076770842075348,"95":-1.3715054988861084,"96":1.7602465152740479,"97":3.5635409355163574,"98":1.4727692604064941,"99":1.62498140335083,"100":5.950510025024414,"101":0.3273520767688751,"102":-2.6848549842834473,"103":4.809577465057373,"104":-4.123203277587891,"105":7.369338512420654,"106":2.031109571456909,"107":-7.323195457458496,"108":-9.752359390258789,"109":2.502063035964966,"110":-4.426963806152344,"111":-1.1949546337127686,"112":-6.678402900695801,"113":-1.1529691219329834,"114":5.484706878662109,"115":1.3486427068710327,"116":3.1669816970825195,"117":-8.154765129089355,"118":-0.034907929599285126,"119":-2.835153579711914,"120":-4.408965110778809,"121":-0.9931424856185913,"122":-1.7939010858535767,"123":-2.798334836959839,"124":3.113757610321045,"125":-1.267695665359497,"126":-4.063474655151367,"127":-3.8279497623443604,"128":2.161729097366333,"129":-2.394456624984741,"130":-0.7651535868644714,"131":1.322802186012268,"132":-2.0951054096221924,"133":-1.9034448862075806,"134":0.16796520352363586,"135":1.2645728588104248,"136":-0.10197371244430542,"137":-4.047616481781006,"138":-1.3304808139801025,"139":-2.7909653186798096,"140":5.661251544952393,"141":-0.5817937254905701,"142":4.121667385101318,"143":8.52296257019043,"144":-2.8419957160949707,"145":1.885104775428772,"146":0.16067928075790405,"147":-0.20652256906032562,"148":1.0859053134918213,"149":-2.3156306743621826,"150":-0.7191579341888428,"151":-1.894018292427063,"152":0.13962435722351074,"153":-0.34354448318481445,"154":0.32340073585510254,"155":-3.927779197692871,"156":-0.25299516320228577,"157":1.2982081174850464,"158":5.9937944412231445,"159":0.7930894494056702,"160":0.11706701666116714,"161":-1.3767421245574951,"162":1.8830013275146484,"163":1.172108769416809,"164":1.519853115081787,"165":1.1053876876831055,"166":0.6588761806488037,"167":-0.31103676557540894,"168":2.575331211090088,"169":0.5332204103469849,"170":3.7055766582489014,"171":0.4191373288631439,"172":-2.691157579421997,"173":5.755471706390381,"174":6.69093656539917,"175":-5.950149059295654,"176":3.148773431777954,"177":-2.0692920684814453,"178":-0.5247181057929993,"179":0.09882832318544388,"180":2.999901294708252,"181":2.782358407974243,"182":-3.14396595954895,"183":1.2567981481552124,"184":-2.1689870357513428,"185":0.5938065648078918,"186":2.911306381225586,"187":0.7556779980659485,"188":-4.747796535491943,"189":20.469524383544922,"190":-4.94113302230835,"191":4.495357513427734,"192":-4.463847637176514,"193":4.894995212554932,"194":-2.2700750827789307,"195":-0.9239307045936584,"196":0.5198771357536316,"197":3.707770824432373,"198":3.6950440406799316,"199":2.3715412616729736,"200":-2.2506134510040283,"201":3.273003101348877,"202":2.577200412750244,"203":3.742211103439331,"204":4.153936386108398,"205":2.7054357528686523,"206":-3.7696399688720703,"207":-1.9213120937347412,"208":0.4603148400783539,"209":1.7207751274108887,"210":3.2213313579559326,"211":-1.3979734182357788,"212":-1.290636658668518,"213":-3.0240135192871094,"214":-2.969919443130493,"215":-2.306347608566284,"216":0.20754660665988922,"217":0.20491275191307068,"218":-3.9489171504974365,"219":-0.34673774242401123,"220":4.18091344833374,"221":0.6203329563140869,"222":0.7827527523040771,"223":3.467036008834839,"224":-8.87247085571289,"225":2.734632968902588,"226":1.9057421684265137,"227":6.324727535247803,"228":1.8105943202972412,"229":6.605599880218506,"230":2.6271157264709473,"231":-1.212552547454834,"232":-1.7269718647003174,"233":-4.403995513916016,"234":-6.145731449127197,"235":0.7402735352516174,"236":-2.6323556900024414,"237":0.6364278197288513,"238":4.1673455238342285,"239":3.7652528285980225,"240":23.188514709472656,"241":5.281253814697266,"242":-10.066516876220703,"243":6.457663059234619,"244":-0.6507523059844971,"245":6.008229732513428,"246":5.108249187469482,"247":-0.013169754296541214,"248":-0.6734180450439453,"249":6.9571967124938965,"250":-0.096583791077137,"251":3.0865767002105713,"252":14.632855415344238,"253":2.7671151161193848,"254":-3.0981106758117676,"255":7.689453601837158,"256":-0.3869399130344391,"257":-4.219362258911133,"258":12.116655349731445,"259":-8.014632225036621,"260":-5.157721996307373,"261":2.452136516571045,"262":8.56521987915039,"263":4.487020969390869,"264":-0.6169801354408264,"265":-4.5963053703308105,"266":6.694167137145996,"267":3.413911819458008,"268":-7.415047645568848,"269":7.613158226013184,"270":12.07815170288086,"271":-7.427521228790283,"272":4.928796768188477,"273":-10.7289400100708,"274":6.590488910675049,"275":0.19192135334014893,"276":-0.02698490023612976,"277":5.051156997680664,"278":1.0758229494094849,"279":-3.1280677318573,"280":-3.176713466644287,"281":0.8261346220970154,"282":3.455221652984619,"283":1.9725252389907837,"284":1.237038493156433,"285":-0.08826296031475067,"286":-2.393609046936035,"287":5.3967366218566895,"288":2.270632028579712,"289":-6.230513572692871,"290":-0.2203950732946396,"291":-3.985285997390747,"292":-9.089320182800293,"293":3.08085298538208,"294":2.0416691303253174,"295":13.823751449584961,"296":5.4683027267456055,"297":-3.2803239822387695,"298":0.49159756302833557,"299":-0.699999988079071,"300":-1.0894070863723755,"301":-3.0734128952026367,"302":-0.6266106963157654,"303":5.187576770782471,"304":-1.597353219985962,"305":1.6688024997711182,"306":0.3525896370410919,"307":-6.243402481079102,"308":6.788713455200195,"309":-7.477829456329346,"310":-1.7162179946899414,"311":0.5618520975112915,"312":1.6061055660247803,"313":3.6680660247802734,"314":-2.338101863861084,"315":-3.317100763320923,"316":3.4886984825134277,"317":1.6872471570968628,"318":1.459107756614685,"319":1.8524490594863892,"320":-4.676558017730713,"321":3.9269909858703613,"322":3.6050472259521484,"323":-3.356541633605957,"324":1.7384250164031982,"325":1.3756498098373413,"326":-5.842252254486084,"327":1.4759446382522583,"328":-5.5098876953125,"329":-1.309586524963379,"330":-0.07397233694791794,"331":1.6070467233657837,"332":-5.605226039886475,"333":-1.7736760377883911,"334":-0.08043120801448822,"335":1.7756364345550537,"336":-0.2828325927257538,"337":0.32772135734558105,"338":5.768019199371338,"339":-0.8978821039199829,"340":4.9526543617248535,"341":0.4568352997303009,"342":9.33747673034668,"343":0.4428170621395111,"344":2.3557896614074707,"345":10.39208698272705,"346":-3.6402010917663574,"347":2.8677685260772705,"348":-2.033320188522339,"349":-2.7447080612182617,"350":2.754159450531006,"351":-1.3415480852127075,"352":-1.4307876825332642,"353":2.766029119491577,"354":-4.220275402069092,"355":-8.32858943939209,"356":6.920201301574707,"357":-1.505934476852417,"358":0.11190051585435867,"359":-1.239885687828064,"360":9.0281982421875,"361":2.036478281021118,"362":2.616626262664795,"363":2.9070563316345215,"364":-4.5897135734558105,"365":-1.0734491348266602,"366":-2.9510395526885986,"367":-4.421081066131592,"368":-4.310620307922363,"369":0.7767332196235657,"370":3.4243218898773193,"371":-4.8736772537231445,"372":-2.407741069793701,"373":-1.0135815143585205,"374":0.5123973488807678,"375":-3.583120584487915,"376":0.7827326655387878,"377":-3.5016868114471436,"378":-0.5145252346992493,"379":1.5205700397491455,"380":8.296910285949707,"381":3.4575273990631104,"382":-5.236795902252197,"383":-3.1905553340911865,"384":4.461373805999756,"385":4.959752082824707,"386":-3.756434679031372,"387":4.582332134246826,"388":3.4880714416503906,"389":-1.4392303228378296,"390":4.641289710998535,"391":3.3015835285186768,"392":0.3554474413394928,"393":5.548695087432861,"394":1.0983821153640747,"395":-6.467773914337158,"396":7.071186542510986,"397":4.146311283111572,"398":-3.661530017852783,"399":-0.18685689568519592}},"forgetBias":{"rows":20,"columns":1,"weights":{"0":0,"1":0,"2":0,"3":0,"4":0,"5":0,"6":0,"7":0,"8":0,"9":0,"10":0,"11":0,"12":0,"13":0,"14":0,"15":0,"16":0,"17":0,"18":0,"19":0}},"outputMatrix":{"rows":20,"columns":37,"weights":{"0":2.451000690460205,"1":2.423426389694214,"2":-0.7917927503585815,"3":-1.7651622295379639,"4":1.8299930095672607,"5":0.3786511719226837,"6":1.1214107275009155,"7":-2.0465774536132812,"8":0.4766600430011749,"9":-0.6103386282920837,"10":-0.3796840012073517,"11":0.46930021047592163,"12":-2.088235378265381,"13":0.15803270041942596,"14":4.708315849304199,"15":-2.4553332328796387,"16":-1.8195902109146118,"17":-5.156310081481934,"18":2.8256659507751465,"19":4.3188371658325195,"20":0.9173638820648193,"21":-0.6449152827262878,"22":1.3556348085403442,"23":0.13398925960063934,"24":-0.9634004831314087,"25":-1.1624159812927246,"26":-1.4033178091049194,"27":1.127780556678772,"28":0.7241058945655823,"29":1.4314650297164917,"30":0.7932166457176208,"31":-0.060317493975162506,"32":0.20386454463005066,"33":1.1111854314804077,"34":-1.6053400039672852,"35":-1.8473877906799316,"36":-2.228991985321045,"37":0.8055657148361206,"38":0.7075603604316711,"39":-0.4429958164691925,"40":2.8872768878936768,"41":-1.946131944656372,"42":0.16499628126621246,"43":-1.281044602394104,"44":-0.04314601048827171,"45":-0.6139148473739624,"46":2.8731565475463867,"47":2.998337507247925,"48":0.7479217052459717,"49":2.898324966430664,"50":0.567343533039093,"51":-1.521457552909851,"52":0.37790414690971375,"53":-4.499002933502197,"54":-1.4633049964904785,"55":1.8846887350082397,"56":-1.7200199365615845,"57":-5.5478515625,"58":-1.513673186302185,"59":0.34377434849739075,"60":-0.5419252514839172,"61":-1.8525846004486084,"62":2.66839337348938,"63":0.3733682632446289,"64":0.024166598916053772,"65":-1.1307954788208008,"66":1.8013759851455688,"67":-2.881865978240967,"68":-0.8479074239730835,"69":0.0007932461448945105,"70":0.10721936821937561,"71":-0.29579317569732666,"72":-2.2785117626190186,"73":4.469902515411377,"74":-0.6673813462257385,"75":-0.2899872660636902,"76":0.5995266437530518,"77":-0.3769828975200653,"78":0.6701783537864685,"79":-3.1199419498443604,"80":-1.2146940231323242,"81":1.3331410884857178,"82":0.43306100368499756,"83":-1.1898627281188965,"84":1.0670627355575562,"85":0.34111839532852173,"86":-0.49571099877357483,"87":0.1556750386953354,"88":1.5455976724624634,"89":1.1037079095840454,"90":-0.8651263117790222,"91":0.27009209990501404,"92":0.3063705265522003,"93":1.3465266227722168,"94":0.8417555689811707,"95":0.6932492256164551,"96":0.9758588671684265,"97":-1.0014699697494507,"98":-0.7005026340484619,"99":-0.014056297019124031,"100":-0.25199875235557556,"101":0.5604159832000732,"102":-0.6667920351028442,"103":0.7756049633026123,"104":0.3329373896121979,"105":0.6106933355331421,"106":0.003942351788282394,"107":0.20209389925003052,"108":-1.1835682392120361,"109":-0.7143480181694031,"110":-0.6802325248718262,"111":-1.0608160495758057,"112":0.17331086099147797,"113":1.0498251914978027,"114":-0.8211825489997864,"115":-1.3774148225784302,"116":-0.28726229071617126,"117":0.03888031840324402,"118":-0.6675010919570923,"119":0.673973798751831,"120":-0.96684330701828,"121":0.5239439606666565,"122":0.9071471691131592,"123":-0.6974965929985046,"124":-0.31375768780708313,"125":-0.41177070140838623,"126":0.500386655330658,"127":-0.5747386813163757,"128":-1.8313337564468384,"129":0.43493691086769104,"130":-0.8228741884231567,"131":-0.02701007016003132,"132":-0.26283973455429077,"133":-0.4029865562915802,"134":-0.15392954647541046,"135":0.651101291179657,"136":0.5594417452812195,"137":-0.4158419668674469,"138":0.16933298110961914,"139":0.23933017253875732,"140":0.42156699299812317,"141":0.3737567365169525,"142":-0.046205341815948486,"143":-0.35788217186927795,"144":-1.04301118850708,"145":-0.8757082223892212,"146":0.18630392849445343,"147":-0.4349355399608612,"148":1.8249902725219727,"149":0.9383659958839417,"150":-4.995218753814697,"151":1.4274835586547852,"152":2.588440418243408,"153":8.711729049682617,"154":1.7284290790557861,"155":4.69267463684082,"156":-3.226088047027588,"157":1.8626184463500977,"158":2.4734044075012207,"159":2.5711770057678223,"160":-1.1041206121444702,"161":0.8171813488006592,"162":-3.990116834640503,"163":5.790013313293457,"164":-6.671234607696533,